tree
version=v4
num_class=1
num_tree_per_iteration=1
label_index=0
max_feature_idx=7
objective=quantile
feature_names=hour_sin hour_cos dayofweek month load_lag_1 load_lag_2 load_lag_24 Northern_Region_Avg_T2M
feature_infos=[-1:1] [-1:1] [0:6] [1:12] [0.38418797319346443:1] [0.38418797319346443:1] [0.38418797319346443:1] [2.2000000000000002:44.166666666666657]
tree_sizes=2750 2894 2892 2896 2877 2898 2909 2915 2908 2906 2919 2901 2893 2900 2903 2912 2901 2906 2893 2902 2884 2915 2934 2903 2909 2921 2931 2919 2934 2936 2903 2927 2947 2919 2898 2928 2930 2959 2930 2930 2937 2915 2952 2942 2918 2941 2883 2880 2933 2925 2886 2866 2907 2895 2904 2903 2897 2891 2945 2899 2949 2940 2912 2921 2902 2914 2938 2930 2947 2924 2945 2939 2983 2919 2939 2954 2934 2973 2967 2940 2953 2959 2961 2938 2951 2965 2941 2954 2984 2977 2987 2967 2972 2967 2964 2953 2977 2997 2967 2985 2969 2965 2954 2960 2979 2969 2975 2982 2992 2983 2983 2963 2968 2960 2964 2984 2981 2994 2983 2968 2968 2978 2971 2949 2968 2974 2960 2973 2945 2965 2978 2970 2981 2961 2989 2984 2965 2971 2948 2959 2975 2971 2966 2962 2946 2954 2966 2953 2961 2951 2928 2965 2979 2987 2972 2981 2961 2998 2978 2969 2948 2934 2974 2965 2986 2965 2924 2950 2981 2946 2940 2915 2927 2935 2937 2955 2949 2947 2980 2969 2973 2968 2959 2964 2978 2964 2945 2974 2964 2972 2949 2956 2949 2980 2960 2955 2967 2975 2982 2986 2974 2959 2971 2977 2942 2957 2988 2970 2990 2977 2962 3008 2947 2964 2968 2965 2980 2960 2971 2955 2951 2949 2952 2973 2978 2949 2979 2963 2982 2966 2984 2984 2957 2967 2965 2980 2957 2960 2953 2986 2954 2951 2966 2958 2970 2970 2952 2972 2974 2978 2979 2952 2970 2946 2974 2956 2984 2947 2923 2923 2972 2970 2998 2973 2957 2982 2944 2944 2958 2986 2965 2950 2975 2985 2944 2964 2972 2689 2962 2851 2766 2991 2958 2925 2753 2778 2959 2961 2778 2944 2965 2869 2957 2882 2960 2876 2981 2975 2986 2964

Tree=0
num_leaves=31
num_cat=0
split_feature=4 6 6 4 4 6 5 4 5 7 7 1 1 4 5 0 0 5 4 4 4 7 6 4 6 0 4 6 4 2
split_gain=1599.8 234.52 183.741 48.6531 37.8113 31.4983 28.4135 26.4832 17.076 14.9141 14.7347 13.9327 15.0993 12.8881 19.6586 12.6602 10.3045 8.24503 10.4585 7.96444 7.86235 9.31081 7.47491 7.05663 6.43482 6.14593 5.83072 5.39863 4.89184 4.82943
threshold=0.9428421534857726 0.93683899714018659 0.93973203508158909 0.96823022549815818 0.88369373192643585 0.96827156319834662 0.95424815977746325 0.91377314661088638 0.91914503271351189 25.983333333333338 26.716666666666672 0.60355339059327384 -0.9159756150367534 0.96356052410225645 0.95221176303095389 -0.91597561503675329 1.0000000180025095e-35 0.89970948479116641 0.91776712552045014 0.8579329415041429 0.96104794210756583 26.116666666666671 0.9151921600279892 0.92753641623064353 0.90841861232115384 0.12940952255126045 0.92621312667537337 0.97367028419768875 0.95626435696442946 1.0000000180025095e-35
decision_type=2 2 2 2 2 2 2 2 2 2 2 2 2 2 2 2 2 2 2 2 2 2 2 2 2 2 2 2 2 2
left_child=1 7 3 6 15 17 10 24 22 16 25 12 -7 14 -4 19 -5 18 -6 -3 -8 -22 -9 -19 -1 -2 -13 -16 -12 -26
right_child=2 4 13 9 5 11 20 8 -10 -11 28 26 -14 -15 27 -17 -18 23 -20 -21 21 -23 -24 -25 29 -27 -28 -29 -30 -31
leaf_value=0.93736348314050133 0.94108238789635978 0.94098000405038251 0.94293218183872085 0.94159031869967258 0.94191064298184313 0.94133679264697601 0.94066790159108105 0.94097499830336484 0.94021994204244308 0.94339816015232425 0.94171936362827358 0.94055410467274536 0.94338972975857305 0.94358209669589999 0.94160935511350485 0.94020362897916454 0.94274244588028611 0.94073815205510558 0.94259723533491813 0.94245550468731598 0.94057517498604037 0.94144106295796348 0.94142684517358222 0.9416977133765243 0.94183145104590982 0.94180236009587226 0.94148155806363432 0.942730540885103 0.94261412891335117 0.94024750383438516
leaf_weight=28357 115 105 413 100 300 47 418 469 1423 229 190 46 297 1550 153 378 51 203 158 75 58 84 229 226 99 62 35 28 65 1400
leaf_count=28357 115 105 413 100 300 47 418 469 1423 229 190 46 297 1550 153 378 51 203 158 75 58 84 229 226 99 62 35 28 65 1400
internal_value=0.940614 0.937279 0.972715 0.958426 0.95449 0.959126 0.952599 0.936273 0.941671 0.973639 0.962233 0.970319 0.974712 0.981858 0.975596 0.943588 0.961441 0.953764 0.958429 0.954502 0.945166 0.955331 0.948077 0.948783 0.935889 0.951149 0.951662 0.961856 0.969926 0.939082
internal_weight=37363 33847 3516 1372 1870 1312 992 31977 2121 380 432 425 344 2144 594 558 151 887 458 180 560 142 698 429 29856 177 81 181 255 1499
internal_count=37363 33847 3516 1372 1870 1312 992 31977 2121 380 432 425 344 2144 594 558 151 887 458 180 560 142 698 429 29856 177 81 181 255 1499
is_linear=0
shrinkage=1


Tree=1
num_leaves=31
num_cat=0
split_feature=4 6 6 4 4 6 5 4 4 5 5 0 0 7 7 0 0 4 5 0 4 7 4 6 6 0 6 2 4 5
split_gain=1524.12 215.76 182.989 47.2911 35.3319 31.1355 26.8278 24.6978 17.1129 19.4987 15.0678 14.5693 18.7982 14.2899 13.681 10.9742 10.3293 8.65896 14.2792 11.7782 7.57587 8.90269 6.26358 6.0539 5.8516 5.804 5.32196 5.8293 5.24234 9.32089
threshold=0.9428421534857726 0.93683899714018659 0.93973203508158909 0.96823022549815818 0.88369373192643585 0.96827156319834662 0.95221176303095389 0.91257723468750951 0.965843461648631 0.95221176303095389 0.90306492200857447 -0.78656609248549303 0.37940952255126054 26.116666666666671 26.716666666666672 -0.91597561503675329 1.0000000180025095e-35 0.93067383478266241 0.93349894361999042 -0.78656609248549303 0.95868451373515906 25.383333333333336 0.86184844213881229 0.90841861232115384 0.95880132614475522 0.25881904510252091 0.89132728836089148 1.0000000180025095e-35 0.93678472009066971 0.94458795252962313
decision_type=2 2 2 2 2 2 2 2 2 2 2 2 2 2 2 2 2 2 2 2 2 2 2 2 2 2 2 2 2 2
left_child=1 7 3 6 15 17 14 23 9 -4 26 -7 -13 16 25 22 -5 19 -19 -6 -8 -22 -3 -1 -11 -2 -9 -28 -12 -30
right_child=2 4 8 13 5 11 20 10 -10 24 28 12 -14 -15 -16 -17 -18 18 -20 -21 21 -23 -24 -25 -26 -27 27 -29 29 -31
leaf_value=-0.0031137385962779263 0.00038739546510761503 0.00047712741841536289 0.0022366459988742296 0.00091692155553291244 0.0016873634496640526 0.0028305135120713478 2.1461931067678908e-05 0.00012392573732263878 0.0028208951652050011 0.00097509214635536641 -0.00045030339068189345 0.00073137469463091217 0.0023209145920819185 0.002653001639939279 0.0013500256953590598 -0.00038864916569362752 0.0020077362355478802 0.0016031954780855507 0.00066138578782940502 0.00050469525039522419 -0.00014070534844153328 0.00070756401840989757 0.0018263614305457643 -0.00025149515883455821 0.0018293328462704187 0.0011788847021033 0.0016427580611875503 0.00063495359373490494 0.00056286809769249613 -0.00049807356903119882
leaf_weight=28268 111 118 448 101 159 157 391 159 1466 139 1447 145 123 227 236 378 52 189 79 460 72 123 62 1475 91 59 51 238 151 188
leaf_count=28268 111 118 448 101 159 157 391 159 1466 139 1447 145 123 227 236 378 52 189 79 460 72 123 62 1475 91 59 51 238 151 188
internal_value=-9.80929e-05 -0.00335288 0.0312344 0.0169752 0.0131551 0.0176372 0.0112298 -0.00431826 0.0403591 0.0337906 0.000752013 0.0287647 0.0216791 0.0319737 0.0211084 0.00261649 0.0201634 0.0123055 0.0198134 0.00905493 0.00438566 0.0124359 0.0127778 -0.00469909 0.0219565 0.0102941 0.00895089 0.0129931 -0.00130459 0.00429203
internal_weight=37363 33847 3516 1372 1870 1312 992 31977 2144 678 2234 425 268 380 406 558 153 887 268 619 586 195 180 29743 230 170 448 289 1786 339
internal_count=37363 33847 3516 1372 1870 1312 992 31977 2144 678 2234 425 268 380 406 558 153 887 268 619 586 195 180 29743 230 170 448 289 1786 339
is_linear=0
shrinkage=0.05


Tree=2
num_leaves=31
num_cat=0
split_feature=4 6 6 4 4 6 0 5 0 4 5 7 4 0 4 0 6 0 4 5 4 1 5 4 7 4 7 4 4 2
split_gain=1447.45 200.613 176.894 48.8281 32.4924 31.4644 29.9982 28.407 24.8931 17.3518 17.2021 13.3575 13.2791 12.6534 10.9775 10.8252 9.96994 8.51765 8.26537 8.87446 7.57931 7.47712 7.29089 6.79806 8.63665 5.42769 5.27681 4.75118 3.96204 3.6705
threshold=0.9428421534857726 0.94292823136039672 0.94292823136039672 0.96823022549815818 0.88369373192643585 0.91781062090345722 -0.78656609248549303 0.95424815977746325 0.37940952255126054 0.965843461648631 0.95221176303095389 26.116666666666671 0.9246916116844297 -0.78656609248549303 0.9217686693654118 1.0000000180025095e-35 0.95435699543380492 -0.91597561503675329 0.91123863654875104 0.9246916116844297 0.95626435696442946 0.37940952255126048 0.9217686693654118 0.95868451373515906 25.383333333333336 0.95626435696442946 28.183333333333341 0.9320643375827472 0.8579329415041429 1.0000000180025095e-35
decision_type=2 2 2 2 2 2 2 2 2 2 2 2 2 2 2 2 2 2 2 2 2 2 2 2 2 2 2 2 2 2
left_child=1 5 3 7 17 14 16 13 12 10 -4 15 -8 -2 -1 -5 -6 28 29 27 -15 -10 26 -9 -25 -12 -16 -20 -3 -7
right_child=2 4 9 11 6 18 8 23 21 -11 25 -13 -14 20 22 -17 -18 -19 19 -21 -22 -23 -24 24 -26 -27 -28 -29 -30 -31
leaf_value=-0.0025993787324156861 0.00097464483867790944 0.00040555058473492613 0.0021699931546534986 0.00085125335236380106 0.0016029953481662977 0.0016849812829081046 -0.00016431943764610437 1.3699865448546512e-05 0.001843806211245519 0.0026798504069447506 0.00090690886744729249 0.0025013157498267381 0.0007810970204410961 0.00093580673322221088 0.00014726289720893722 0.0017834241851790056 0.0026410036418816896 -0.00031561125169516925 0.00057362986343653666 6.7636619838639306e-05 0.0016763047329286741 -0.0009975220816662079 -0.00046836125643442592 -0.00014448653780996246 0.00071788081951301805 0.0015557650723186261 0.00083335249420263464 0.0013737887029497806 0.0019258173965461479 -0.00012156946329425658
leaf_weight=29477 120 82 418 109 79 65 237 385 296 1411 79 261 198 256 173 60 228 290 284 292 88 20 803 73 130 126 135 92 59 1037
leaf_count=29477 120 82 418 109 79 65 237 385 296 1411 79 261 198 256 173 60 228 290 284 292 88 20 803 73 130 126 135 92 59 1037
internal_value=-0.000195783 -0.00336766 0.0303385 0.0171997 0.0145769 -0.0041934 0.0192911 0.0113973 0.0139081 0.0399115 0.0329615 0.0313953 0.00614942 0.0206466 -0.00456846 0.0204438 0.0324593 0.00300464 0.00228813 0.00667665 0.0255233 0.0245886 0.00031053 0.00409864 0.0115025 0.0210976 0.00685065 0.0117553 0.0130851 -0.000372052
internal_weight=37363 33847 3516 1482 1489 32358 1058 1052 751 2034 623 430 435 464 30588 169 307 431 1770 668 344 316 1111 588 203 205 308 376 141 1102
internal_count=37363 33847 3516 1482 1489 32358 1058 1052 751 2034 623 430 435 464 30588 169 307 431 1770 668 344 316 1111 588 203 205 308 376 141 1102
is_linear=0
shrinkage=0.05


Tree=3
num_leaves=31
num_cat=0
split_feature=4 6 6 4 5 4 0 0 4 6 7 4 4 5 6 4 7 5 4 4 0 7 3 0 4 5 4 5 6 2
split_gain=1365.71 182.247 181.335 53.3728 29.1793 27.8309 35.3783 23.5924 22.5114 19.456 15.5888 14.3173 13.1855 12.37 11.9106 11.8613 10.0098 9.59842 8.3625 7.93031 7.83104 7.06952 6.82984 8.18734 6.18489 8.7955 6.06851 5.11315 5.02961 5.32187
threshold=0.9428421534857726 0.94855826096245177 0.93683899714018659 0.97363691349700432 0.95424815977746325 0.8630928080823923 -0.78656609248549303 0.37940952255126054 0.90437602305092801 0.95633817845855307 27.316666666666666 0.97363691349700432 0.96104794210756583 0.88990525082146898 0.97072700304155035 0.92911711195433155 26.316666666666666 0.93829253802678281 0.95626435696442946 0.95626435696442946 0.25881904510252091 26.250000000000004 10.500000000000002 1.0000000180025095e-35 0.93526686327178987 0.9428421534857726 0.91776712552045014 0.96823022549815818 0.88382109072119863 1.0000000180025095e-35
decision_type=2 2 2 2 2 2 2 2 2 2 2 2 2 2 2 2 2 2 2 2 2 2 2 2 2 2 2 2 2 2
left_child=2 3 8 4 10 -4 9 15 28 -7 20 17 -6 21 -9 -8 -14 -3 -12 -19 -2 -10 -5 -24 -15 -26 -23 -21 -1 -30
right_child=1 11 5 22 12 6 7 14 13 -11 18 -13 16 24 -16 -17 -18 19 -20 27 -22 26 23 -25 25 -27 -28 -29 29 -31
leaf_value=-0.0035744282786703109 0.0004594632760931219 0.0024688211211644053 -8.1222799898117079e-05 0.0023280059485097648 7.9475208282581795e-05 0.0013991898315990727 -0.00012008232316916646 0.0013561215108997661 0.0002238142843650648 0.0024572110701573608 0.001008477709728673 0.0025458578865975136 0.00019241637831233228 -0.00043248366217546317 0.002121940555115498 0.00077788561472060902 0.00096016852603297452 0.0011237989369751011 0.0019523681654864938 0.0020134156959200357 0.0013838237965594219 0.00065729374771319809 0.00094751413642091839 0.0018470712990976382 0.00050169885708881135 -0.00042779610145492479 0.0014581888749042923 0.0012807846034795568 0.00071609657720821953 -0.00069253945842304154
leaf_weight=26003 162 333 361 281 463 183 414 347 268 251 210 1090 108 2061 117 197 168 119 94 193 90 99 63 38 207 246 78 104 230 2785
leaf_count=26003 162 333 361 281 463 183 414 347 268 251 210 1090 108 2061 117 197 168 119 94 193 90 99 63 38 207 246 78 104 230 2785
internal_value=-0.00028812 0.0293714 -0.00336913 0.0174508 0.0126062 0.0117647 0.0147482 0.00988372 -0.00425415 0.0267972 0.021259 0.040242 0.00609607 -9.9697e-05 0.0183836 0.0034288 0.0147464 0.0349199 0.0288816 0.0298558 0.0120635 0.00758427 0.0338743 0.0227228 -0.00145983 0.00383002 0.015339 0.0342256 -0.00467779 -0.00274461
internal_weight=37363 3516 33847 1677 1295 1870 1509 1075 31977 434 556 1839 739 2959 464 611 276 749 304 416 252 445 382 101 2514 453 177 297 29018 3015
internal_count=37363 3516 33847 1677 1295 1870 1509 1075 31977 434 556 1839 739 2959 464 611 276 749 304 416 252 445 382 101 2514 453 177 297 29018 3015
is_linear=0
shrinkage=0.05


Tree=4
num_leaves=31
num_cat=0
split_feature=4 6 6 4 6 5 4 0 4 7 0 4 4 1 4 5 5 7 4 0 0 0 7 4 0 4 2 4 5 7
split_gain=1293.46 178.968 174.569 53.4442 36.4989 29.5553 24.2372 18.9902 17.1217 17.004 14.5902 14.1789 12.4316 11.8387 10.7258 11.0565 10.0043 9.59638 9.42862 8.53927 8.10116 6.98732 6.86246 5.27261 5.18939 5.1265 4.8138 4.5832 7.55247 4.56844
threshold=0.9428421534857726 0.95046381016586645 0.92924398466884239 0.97363691349700432 0.96827156319834662 0.95221176303095389 0.88489178637035315 -0.78656609248549303 0.90969951832858598 26.716666666666672 0.37940952255126054 0.965843461648631 0.96104794210756583 0.91597561503675351 0.91257723468750951 0.92621312667537337 0.89124378588004494 26.916666666666671 0.95626435696442946 0.25881904510252091 -0.91597561503675329 -0.78656609248549303 31.366666666666671 0.93067383478266241 -0.91597561503675329 0.96104794210756583 5.5000000000000009 0.93678472009066971 0.9428421534857726 22.783333333333339
decision_type=2 2 2 2 2 2 2 2 2 2 2 2 2 2 2 2 2 2 2 2 2 2 2 2 2 2 2 2 2 2
left_child=2 3 8 5 14 9 24 -8 -1 19 -9 13 -7 -3 20 23 22 -14 -11 -2 26 -5 -10 -16 -6 -15 -4 -18 -29 -22
right_child=1 11 4 21 6 12 7 10 16 18 -12 -13 17 25 15 -17 27 -19 -20 -21 29 -23 -24 -25 -26 -27 -28 28 -30 -31
leaf_value=-0.0024852957640726361 0.0004027911460610722 0.0019397617265987323 0.00092757214213236088 0.0012727068495948938 0.0018432109082241743 0.00010461540979615667 0.002434077100865828 0.0006203360947413571 0.00039402152919978587 0.00093094544552248552 0.0020089463390050521 0.0024185649922676359 0.0002970601032716803 0.00029150890649969004 0.001056283432482492 0.00028558566871238336 -0.00039292643801140767 0.0009544080957053794 0.0018468544197216029 0.0013271495764815102 0.00077205724896252685 0.0021774474654299098 0.0016054478389209157 0.0013872567958855908 -0.00017079010784171782 0.0010986728522974106 -0.0008816255246554503 0.00046723491803604602 -0.00043014192648995755 -0.00045542948467285353
leaf_weight=29178 140 419 235 79 47 502 155 143 243 219 122 1279 130 50 314 244 1666 162 96 87 222 326 57 193 119 27 50 132 182 545
leaf_count=29178 140 419 235 79 47 502 155 143 243 219 122 1279 130 50 314 244 1666 162 96 87 222 326 57 193 119 27 50 132 182 545
internal_value=-0.000360384 0.028504 -0.00335879 0.0171137 0.00967141 0.0122904 0.0205119 0.0269048 -0.00434834 0.0212915 0.0187736 0.0396761 0.00614609 0.0325 0.00614809 0.0107124 -0.00017544 0.0143493 0.0288095 0.010859 0.00288973 0.0330247 0.00833333 0.0149211 0.00433735 0.0144805 0.0100877 -0.00146465 0.00407643 0.000215123
internal_weight=37363 3516 33847 1741 2389 1336 586 420 31458 542 265 1775 794 496 1803 751 2280 292 315 227 1052 405 300 507 166 77 285 1980 314 767
internal_count=37363 3516 33847 1741 2389 1336 586 420 31458 542 265 1775 794 496 1803 751 2280 292 315 227 1052 405 300 507 166 77 285 1980 314 767
is_linear=0
shrinkage=0.05


Tree=5
num_leaves=31
num_cat=0
split_feature=4 6 6 6 4 4 4 4 5 5 0 5 0 6 0 4 4 6 2 0 0 7 0 5 4 7 4 5 1 4
split_gain=1211.35 221.956 107.033 47.3213 32.0468 27.3458 25.8273 23.0417 21.3087 19.7221 13.8243 12.6715 12.3418 11.6802 11.0788 11.7056 9.35156 8.25532 11.1536 12.0321 6.57937 6.16137 6.00623 5.92024 5.5752 6.99028 4.92459 4.9333 4.70859 4.48418
threshold=0.95221176303095389 0.92924398466884239 0.95046381016586645 0.97367028419768875 0.97363691349700432 0.91914503271351189 0.88489178637035315 0.93067383478266241 0.96356052410225645 0.9428421534857726 -0.78656609248549303 0.9320643375827472 -0.78656609248549303 0.96591663144128959 -0.78656609248549303 0.93067383478266241 0.86919224261708727 0.87765263579082109 1.0000000180025095e-35 -0.78656609248549303 0.37940952255126054 26.650000000000006 -0.78656609248549303 0.95221176303095389 0.9320643375827472 27.983333333333338 0.98805841618094103 0.98805841618094103 0.91597561503675351 0.965843461648631
decision_type=2 2 2 2 2 2 2 2 2 2 2 2 2 2 2 2 2 2 2 2 2 2 2 2 2 2 2 2 2 2
left_child=1 5 4 7 8 17 -5 12 10 28 -2 24 16 -4 -8 -16 -3 -1 19 -19 -14 -10 -6 -12 -7 -26 27 -24 -9 -23
right_child=2 3 13 6 22 11 14 9 21 -11 23 -13 20 -15 15 -17 -18 18 -20 -21 -22 29 26 -25 25 -27 -28 -29 -30 -31
leaf_value=-0.0032370023290991868 0.00094343073576841222 0.00020084690208676463 0.0017811090299681279 0.00087282938270304047 0.0012090715071151484 0.0001873667436526849 0.0023123732458225355 0.0012825695133735272 -1.0290358681124881e-05 0.0001580921318499823 0.0014839425990053224 -0.00028237055000958616 -0.00027971633265361408 0.0022976367426542524 0.0014568021892621076 0.001554949043175933 0.0012794430844657633 0.0018591856224134857 -0.00059986636732077265 0.00022166062431742311 0.00071266295950133199 0.00044559726818410085 0.0019483005497842266 0.0011526984194493329 0.00022668346018605261 0.00093512629794086739 0.0023471034521985014 0.0007529420399623399 0.00033772342936752461 0.00076396766419575162
leaf_weight=25988 97 199 427 126 79 437 148 418 188 191 171 1168 547 1162 150 115 308 80 3593 272 492 148 131 96 168 136 108 87 41 92
leaf_count=25988 97 199 427 126 79 437 148 418 188 191 171 1168 547 1162 150 115 308 80 3593 272 492 148 131 96 168 136 108 87 41 92
internal_value=-0.000446031 -0.00300156 0.0312706 0.0106673 0.0199791 -0.00417562 0.0239425 0.00740892 0.0141288 0.0153077 0.023022 0.0016265 0.00408797 0.0397766 0.0299879 0.0238679 0.0104832 -0.00454565 -0.00241445 0.00607954 0.000967275 0.00656542 0.0314198 0.0288951 0.00674089 0.0119408 0.0344172 0.0300917 0.0209259 0.011875
internal_weight=37363 34577 2786 2735 1197 31842 539 2196 792 650 364 1909 1546 1589 413 265 507 29933 3945 352 1039 428 405 267 741 304 326 218 459 240
internal_count=37363 34577 2786 2735 1197 31842 539 2196 792 650 364 1909 1546 1589 413 265 507 29933 3945 352 1039 428 405 267 741 304 326 218 459 240
is_linear=0
shrinkage=0.05


Tree=6
num_leaves=31
num_cat=0
split_feature=4 6 6 4 6 4 6 5 0 2 0 4 0 4 4 0 4 5 0 0 1 4 5 0 4 5 7 1 4 5
split_gain=1147.13 178.502 131.546 47.6251 36.3662 27.9966 28.7074 23.5736 14.0366 13.6292 10.2516 10.592 10.2262 9.80108 9.58937 8.38813 8.07977 12.1825 7.88392 7.69322 7.57934 6.98717 9.48555 6.61105 6.45425 9.36303 6.1582 5.86081 5.24905 5.11823
threshold=0.94851501414059947 0.94292823136039672 0.96109401971407882 0.97363691349700432 0.895163768042468 0.88369373192643585 0.97367028419768875 0.96356052410225645 -0.78656609248549303 1.0000000180025095e-35 -0.78656609248549303 0.93067383478266241 -0.78656609248549303 0.97363691349700432 0.95868451373515906 -0.78656609248549303 0.9320643375827472 0.94142375341951656 -0.78656609248549303 0.37940952255126054 1.0000000180025095e-35 0.89248790936644007 0.87045508613162059 -0.91597561503675329 0.98467401213647976 0.98805841618094103 26.650000000000006 -0.12940952255126037 0.96104794210756583 0.94458795252962313
decision_type=2 2 2 2 2 2 2 2 2 2 2 2 2 2 2 2 2 2 2 2 2 2 2 2 2 2 2 2 2 2
left_child=1 4 3 7 21 23 15 8 -2 12 -8 -12 -6 29 -10 27 -11 -18 -5 -17 -14 -1 -23 -3 25 -20 -9 -7 -28 -4
right_child=2 5 13 18 9 6 10 26 14 16 11 -13 20 -15 -16 19 17 -19 24 -21 -22 22 -24 -25 -26 -27 28 -29 -30 -31
leaf_value=-0.0032205305980854471 0.00094273641955858905 0.0010645764284635975 0.0021433817589338934 0.001229417837738478 0.0020497985946563899 -0.00057081353170607011 0.0021967545835314072 1.0836592903413172e-05 0.00088775375708005438 -0.00017080143900255544 0.0013633691826909267 0.0015001994833116635 0.00097116316301108167 0.0021827549055215391 0.0014700067796322369 0.00045735151060386382 0.00063157197183011447 -0.00022529056214351043 0.0017555316513217175 0.001263010557991457 -0.00036237693775790646 0.00068689286183630364 -0.00059247990731288111 -0.00041860732276461851 0.002208581291155848 0.00057308470933861765 0.00027689934610137037 0.0015138355999730155 0.00069933005902573359 0.0013972591783074841
leaf_weight=26025 136 141 244 99 71 20 144 228 289 3279 153 87 137 911 189 380 282 289 153 235 149 184 2244 290 206 103 161 175 166 193
leaf_count=26025 136 141 244 99 71 20 144 228 289 3279 153 87 137 911 189 380 282 289 153 235 149 184 2244 290 206 103 161 175 166 193
internal_value=-0.000549074 -0.00317413 0.0286907 0.0195665 -0.00397887 0.013 0.016943 0.0138195 0.02057 0.000360113 0.0282031 0.021875 0.00970588 0.0404006 0.0246025 0.0116049 -0.000506495 0.00498249 0.0315419 0.00873984 0.00548951 -0.00462043 -0.00205519 0.00207656 0.0342857 0.0289844 0.00635135 0.020641 0.0107492 0.0342449
internal_weight=37363 34285 3078 1730 32660 1625 1194 1169 614 4207 384 240 357 1348 478 810 3850 571 561 615 286 28453 2428 431 462 256 555 195 327 437
internal_count=37363 34285 3078 1730 32660 1625 1194 1169 614 4207 384 240 357 1348 478 810 3850 571 561 615 286 28453 2428 431 462 256 555 195 327 437
is_linear=0
shrinkage=0.05


Tree=7
num_leaves=31
num_cat=0
split_feature=4 6 6 6 4 4 4 4 7 0 5 5 5 0 4 5 4 0 4 0 0 0 4 0 7 0 6 2 0 7
split_gain=1106.02 220.276 87.6289 44.0138 27.8561 27.232 22.8227 22.4291 21.6959 17.7206 13.9511 13.5516 12.3192 11.2373 10.2662 13.4116 9.77448 7.48239 7.65662 7.33473 6.63979 6.05776 5.77438 5.43651 5.02466 4.73761 4.45321 6.4526 8.45898 4.32415
threshold=0.95626435696442946 0.92924398466884239 0.9635946565845811 0.97072700304155035 0.98467401213647976 0.89508151444268191 0.9320643375827472 0.89508151444268191 27.183333333333341 0.25881904510252091 0.94851501414059947 0.92621312667537337 0.88489178637035315 -0.78656609248549303 0.93067383478266241 0.9428421534857726 0.92911711195433155 -0.78656609248549303 0.86919224261708727 -0.78656609248549303 -0.37940952255126059 0.37940952255126054 0.97363691349700432 -0.91597561503675329 18.983333333333338 -0.78656609248549303 0.86823173255972008 1.0000000180025095e-35 -0.91597561503675329 28.050000000000001
decision_type=2 2 2 2 2 2 2 2 2 2 2 2 2 2 2 2 2 2 2 2 2 2 2 2 2 2 2 2 2 2
left_child=1 5 4 6 8 26 17 23 9 -2 -10 29 -7 -9 -14 -16 -15 18 -3 -12 -13 -19 -4 -5 -25 -6 -1 28 -28 -8
right_child=2 3 22 7 25 12 11 13 10 -11 19 20 14 16 15 -17 -18 21 -20 -21 -22 -23 -24 24 -26 -27 27 -29 -30 -31
leaf_value=-0.0036075244310184943 0.00044536996850451442 5.720384095078135e-05 0.0018620068307657494 0.0016989138450188958 0.0012155783034637274 0.00063956700823805288 0.0011911151384176298 0.0020869168543548367 0.0017901896644319305 0.0011497926837519411 0.00049560967370814173 0.00091185194951246972 -0.00053796538787781575 0.001421251873745022 0.00048924258738675867 -0.00014509307864482129 0.0014423778716025802 -0.00021214276235204861 0.0011025523051888969 0.0011737157329435397 0.00040857320372652856 0.00066937629887864043 0.0020736171602454613 0.00084373505128374502 -0.0011853667312486686 0.0020981522265980548 0.0017393015441722658 -0.00088502359122965679 -2.7715017337319211e-05 0.0013565213099929142
leaf_weight=24238 354 195 301 56 53 598 139 146 122 115 72 124 2462 134 435 694 180 553 307 380 288 499 871 28 99 226 60 3257 231 146
leaf_count=24238 354 195 301 56 53 598 139 146 122 115 72 124 2462 134 435 694 180 553 307 380 288 499 871 28 99 226 60 3257 231 146
internal_value=-0.000618661 -0.00291936 0.0315477 0.0102903 0.0227231 -0.00411493 0.00699467 0.0218274 0.0189693 0.0109915 0.0254878 0.0145122 -0.000356888 0.0277174 -0.00146338 0.0024845 0.0223885 0.00362291 0.00864542 0.0214381 0.00871359 0.00122623 0.0415017 0.00702186 0.00129921 0.0367563 -0.0046815 -0.00302706 0.00410653 0.0228947
internal_weight=37363 34869 2494 2894 1322 31975 2251 643 1043 469 574 697 4189 460 3591 1129 314 1554 502 452 412 1052 1172 183 127 279 27786 3548 291 285
internal_count=37363 34869 2494 2894 1322 31975 2251 643 1043 469 574 697 4189 460 3591 1129 314 1554 502 452 412 1052 1172 183 127 279 27786 3548 291 285
is_linear=0
shrinkage=0.05


Tree=8
num_leaves=31
num_cat=0
split_feature=4 6 6 6 4 4 4 4 5 5 0 0 4 5 0 6 2 0 4 0 4 5 0 5 4 7 0 1 1 5
split_gain=1029.02 205.596 92.7072 42.7046 28.7386 26.0893 21.3845 20.158 19.4566 13.7533 11.5184 11.3867 10.4368 9.94613 9.04486 8.93858 10.99 11.2795 7.25671 6.80044 6.66295 6.34332 6.27972 5.59114 5.37094 7.48503 5.19338 4.98825 4.96528 4.82337
threshold=0.95626435696442946 0.92924398466884239 0.9635946565845811 0.97072700304155035 0.98467401213647976 0.91776712552045014 0.89508151444268191 0.93067383478266241 0.96823022549815818 0.92316475451012969 -0.78656609248549303 -0.78656609248549303 0.97069372514258545 0.92753641623064353 0.37940952255126054 0.85194482735869326 1.0000000180025095e-35 -0.91597561503675329 0.97363691349700432 -0.78656609248549303 0.86919224261708727 0.94851501414059947 -0.37940952255126059 0.98805841618094103 0.9320643375827472 26.116666666666671 -0.78656609248549303 0.25881904510252057 -0.70710678118654757 0.94851501414059947
decision_type=2 2 2 2 2 2 2 2 2 2 2 2 2 2 2 2 2 2 2 2 2 2 2 2 2 2 2 2 2 2
left_child=1 5 4 7 8 15 27 19 10 -9 -2 -8 -10 24 -13 -1 17 -17 29 20 -3 -12 -11 -14 -7 -26 -6 28 -5 -4
right_child=2 3 18 6 26 13 11 9 12 22 21 14 23 -15 -16 16 -18 -19 -20 -21 -22 -23 -24 -25 25 -27 -28 -29 -30 -31
leaf_value=-0.003690204830301802 0.00093488403193691836 5.4343648903243393e-05 0.0019733895934774316 -0.0013842035570347899 0.0011547993882905399 0.00021151388344307524 0.0019825710116370965 0.0012397697882421399 0.00029823487648134256 0.00088053216450342635 0.0016218493685132428 0.00068025762732402051 0.00115628913563593 -0.00012448382727837446 0.0017814800376216022 0.001556411569171948 -0.00076163282520336467 6.6402006930592783e-05 0.0019699363022331884 8.9642602719814873e-05 0.0010871456921592929 0.001197620453477978 0.0003636094593840733 0.00048669813860368932 0.00021946069530862024 0.00091993267603456886 0.0019932446152681528 -0.0014308322563069938 0.0015462623493770517 0.0012747776348047836
leaf_weight=23312 113 195 166 33 53 453 146 296 292 132 161 190 122 1423 124 112 5865 543 871 1013 298 203 317 152 139 128 226 66 84 135
leaf_count=23312 113 195 166 33 53 453 146 296 292 132 161 190 122 1423 124 112 5865 543 871 1013 298 203 317 152 139 128 226 66 84 135
internal_value=-0.000701631 -0.00292079 0.0303248 0.00984105 0.0212481 -0.00407584 0.0212053 0.00659485 0.0174353 0.0133221 0.0248742 0.0269565 0.0111661 0.00125292 0.0215924 -0.00445864 -0.00282209 0.00332061 0.0405631 0.00326693 0.00808316 0.0292033 0.00780623 0.0181752 0.00604167 0.0116667 0.0355018 0.00674863 0.0129487 0.0338704
internal_weight=37363 34869 2494 2894 1322 31975 643 2251 1043 745 477 460 566 2143 314 29832 6520 655 1172 1506 493 364 449 274 720 267 279 183 117 301
internal_count=37363 34869 2494 2894 1322 31975 643 2251 1043 745 477 460 566 2143 314 29832 6520 655 1172 1506 493 364 449 274 720 267 279 183 117 301
is_linear=0
shrinkage=0.05


Tree=9
num_leaves=31
num_cat=0
split_feature=4 6 6 6 4 4 5 4 0 4 6 0 5 5 0 4 4 5 4 4 5 3 6 4 1 0 2 0 7 7
split_gain=982.33 164.15 116.246 41.0481 30.1879 21.4618 19.9051 19.5431 14.5746 14.566 13.8849 12.987 10.7887 10.7739 10.0434 7.79484 7.64845 10.1161 7.24074 7.09935 6.64217 5.2509 5.16511 5.15655 5.16112 5.13974 5.11194 6.46609 4.8168 4.68827
threshold=0.95221176303095389 0.92627277109169881 0.95633817845855307 0.97072700304155035 0.97363691349700432 0.89619739001883147 0.95221176303095389 0.89508151444268191 -0.78656609248549303 0.91377314661088638 0.97367028419768875 -0.78656609248549303 0.87645046035472574 0.9428421534857726 0.37940952255126054 0.98805841618094103 0.93678472009066971 0.9428421534857726 0.93966932688401272 0.98467401213647976 0.98467401213647976 10.500000000000002 0.86693583830043741 0.97363691349700432 0.91597561503675351 -0.78656609248549303 1.0000000180025095e-35 -0.91597561503675329 26.516666666666669 28.116666666666671
decision_type=2 2 2 2 2 2 2 2 2 2 2 2 2 2 2 2 2 2 2 2 2 2 2 2 2 2 2 2 2 2
left_child=1 5 4 9 6 22 8 -5 -2 21 19 -9 -7 18 -13 20 -14 -18 -11 29 25 -3 -1 24 -12 -6 27 -24 -8 -4
right_child=2 3 10 7 15 12 28 11 -10 13 23 14 16 -15 -16 -17 17 -19 -20 -21 -22 -23 26 -25 -26 -27 -28 -29 -30 -31
leaf_value=-0.0032824186234106656 0.00065887799020562235 1.1749695277105888e-05 0.001131717479163241 0.00078772864036276153 0.00093123773963255249 0.00065508271048134636 1.6276629540784013e-05 0.0018834424610552404 0.0012520261798995378 0.00080688262640286478 0.0018363895375124329 0.00058810448098073635 -0.00038412020271440684 -1.7211679339430816e-06 0.0016472412535884385 0.0019122486256841098 0.00048052008329720823 -0.00017335595746201758 0.00104669383609573 0.0016470149966770439 0.00050168822679000694 0.00085308079429756922 0.0015141652614619784 0.001871439487121529 0.00063996769081234859 0.0016052045846809727 -0.00081000419809921706 -5.5552285298979366e-05 0.00062037401309183494 0.0014660923858035857
leaf_weight=24186 84 1040 150 183 39 398 215 140 202 652 215 165 2738 245 114 174 254 408 217 174 137 207 61 691 34 139 3334 235 374 158
leaf_count=24186 84 1040 150 183 39 398 215 140 202 652 215 165 2738 245 114 174 254 408 217 174 137 207 61 691 34 139 3334 235 374 158
internal_value=-0.000772557 -0.00307387 0.0277889 0.00817921 0.0173607 -0.00412855 0.0118 0.0198339 0.0226224 0.00520754 0.0377918 0.0257876 -0.00060295 0.00936266 0.019552 0.0273108 -0.00151471 0.00330816 0.0119735 0.0308921 0.022619 0.00149559 -0.00460994 0.0413298 0.0351606 0.0289888 -0.00285124 0.00344594 0.00654499 0.0263312
internal_weight=37363 34577 2786 2963 1364 31614 875 602 286 2361 1422 419 3798 1114 279 489 3400 662 869 482 315 1247 27816 940 249 178 3630 296 589 308
internal_count=37363 34577 2786 2963 1364 31614 875 602 286 2361 1422 419 3798 1114 279 489 3400 662 869 482 315 1247 27816 940 249 178 3630 296 589 308
is_linear=0
shrinkage=0.05


Tree=10
num_leaves=31
num_cat=0
split_feature=4 6 6 6 4 4 5 4 4 5 0 0 5 0 0 4 5 5 0 6 4 2 0 4 5 0 2 5 7 0
split_gain=907.987 172.357 102.076 40.5452 31.9565 26.1972 20.3372 18.3762 17.3356 11.1553 10.9023 10.2601 10.2339 9.40074 8.99113 8.41474 11.2477 8.21398 7.22649 6.36744 6.31631 6.14851 8.56605 5.99538 5.49631 5.41111 5.30188 4.48994 4.27245 7.37337
threshold=0.95626435696442946 0.92924398466884239 0.96827156319834662 0.97367028419768875 0.98175152953572764 0.89508151444268191 0.96823022549815818 0.88489178637035315 0.93067383478266241 0.87645046035472574 -0.78656609248549303 -0.78656609248549303 0.9428421534857726 0.37940952255126054 -0.78656609248549303 0.93678472009066971 0.94659391068202148 0.95221176303095389 -0.78656609248549303 0.85194482735869326 0.97363691349700432 1.0000000180025095e-35 -0.98296291314453399 0.97069372514258545 0.965843461648631 0.37940952255126054 1.0000000180025095e-35 0.98467401213647976 28.650000000000006 -0.78656609248549303
decision_type=2 2 2 2 2 2 2 2 2 2 2 2 2 2 2 2 2 2 2 2 2 2 2 2 2 2 2 2 2 2
left_child=1 5 4 8 6 19 11 -5 18 28 -9 -2 -10 -12 -6 -11 -17 -13 26 -1 24 22 -21 -8 -4 -20 -3 -25 -7 -30
right_child=2 3 20 7 14 9 23 10 12 15 13 17 -14 -15 -16 16 -18 -19 25 21 -22 -23 -24 27 -26 -27 -28 -29 29 -31
leaf_value=-0.0035301204509684547 0.0010158235719137717 0.001968685596267508 0.0017355224026731652 0.00063277326247402851 0.0010356510678175674 0.00034042182500676488 0.00024786205056560596 0.0017892703380024801 0.0010127313752629921 -0.00036216712328990275 0.00057438969159704593 0.0013923429925758936 0.00036758529470682673 0.0015954983501053955 0.001732590701849552 0.00049890864041912436 -0.00012504290733962716 0.0010727578816333622 -0.00030187670850233972 0.0017492484530710383 0.0017778675127654521 -0.00090892005871565009 7.6309162149701155e-05 0.0010127901354423337 0.0010217871189079299 0.00053711737370725876 0.00056206824160043853 0.00042250160899877951 0.0016482618457944688 0.00061275142026328275
leaf_weight=22847 119 26 211 126 73 320 296 153 515 2916 170 222 257 127 341 327 490 171 547 35 786 4497 407 87 43 492 481 145 36 100
leaf_count=22847 119 26 211 126 73 320 296 153 515 2916 170 222 257 127 341 327 490 171 547 35 786 4497 407 87 43 492 481 145 36 100
internal_value=-0.000864894 -0.00294947 0.0282799 0.00873531 0.0197249 -0.00400704 0.0150481 0.0206076 0.00578516 -0.00032108 0.0253333 0.0221484 0.0119041 0.0197475 0.0314734 -0.00122288 0.00326193 0.0260433 0.00272962 -0.00456273 0.0402404 -0.00293481 0.00269231 0.00816288 0.0333858 0.000341673 0.00762327 0.014181 0.0070614 0.0144853
internal_weight=37363 34869 2494 2894 1454 31975 1040 576 2318 4189 450 512 772 297 414 3733 817 393 1546 27786 1040 4939 442 528 254 1039 507 232 456 136
internal_count=37363 34869 2494 2894 1454 31975 1040 576 2318 4189 450 512 772 297 414 3733 817 393 1546 27786 1040 4939 442 528 254 1039 507 232 456 136
is_linear=0
shrinkage=0.05


Tree=11
num_leaves=31
num_cat=0
split_feature=4 6 6 6 4 4 6 7 0 2 0 5 4 5 4 4 0 0 4 0 1 5 0 4 5 0 4 7 1 4
split_gain=840.831 158.967 111.32 42.0149 31.3153 21.6277 22.0358 17.124 17.3343 15.6493 12.3612 10.7585 9.21523 8.75717 8.08746 7.66559 7.55513 7.13635 6.8772 6.22925 5.696 5.39661 5.09572 6.66708 4.8105 4.656 4.5974 7.00592 4.52397 3.97727
threshold=0.95626435696442946 0.94464396630539382 0.96827156319834662 0.888915002283727 0.98805841618094103 0.88369373192643585 0.97367028419768875 27.250000000000004 0.25881904510252091 1.5000000000000002 -0.78656609248549303 0.94659391068202148 0.93526686327178987 0.95221176303095389 0.97363691349700432 0.97069372514258545 0.37940952255126054 -0.78656609248549303 0.85659330960367275 -0.78656609248549303 0.91597561503675351 0.8541927850382488 -0.78656609248549303 0.93067383478266241 0.95221176303095389 -0.91597561503675329 0.91123863654875104 31.283333333333339 -0.12940952255126037 0.89970948479116641
decision_type=2 2 2 2 2 2 2 2 2 2 2 2 2 2 2 2 2 2 2 2 2 2 2 2 2 2 2 2 2 2
left_child=1 3 4 18 7 25 22 8 -2 12 29 -9 17 -14 20 -13 -12 -5 -1 -6 -4 -20 28 -24 -10 -3 -11 -28 -7 -8
right_child=2 5 14 9 19 6 10 11 24 26 16 15 13 -15 -16 -17 -18 -19 21 -21 -22 -23 23 -25 -26 -27 27 -29 -30 -31
leaf_value=-0.0036244978506410177 0.00028959966485196968 0.00090134079429969995 0.0016577939405031539 0.0010261212851499003 0.0011159796615290095 -0.0010169744246581788 0.0013714788876686423 0.0014908971882822844 0.0013898463077270057 -0.00037165126870808982 0.00054452355828568395 0.00078033531140399293 0.0010802804466745035 4.2810325639810783e-05 0.0016889741371271805 0.0011092191623670107 0.0015108748916148884 7.1636399844416952e-05 0.00017674378130333714 0.0017113404181280656 0.0005675944437254953 -0.00074143161087567087 0.00043736797995378232 0.00090968722702992682 0.00086372427468332986 -0.00039485751960827094 -5.9356033154836792e-05 0.00043711380262221049 0.0012240781901911287 0.0016998068211023566
leaf_weight=22793 403 128 215 250 48 20 28 130 67 2581 172 263 154 90 786 266 128 694 574 205 39 4491 329 370 72 275 1071 426 169 126
leaf_count=22793 403 128 215 250 48 20 28 130 67 2581 172 263 154 90 786 266 128 694 574 205 39 4491 329 370 72 275 1071 426 169 126
internal_value=-0.000969276 -0.00297528 0.027077 -0.00375015 0.0181431 0.0117335 0.0147839 0.0147752 0.00819188 0.000345612 0.0237445 0.0201897 0.00539562 0.0140574 0.0395673 0.0170227 0.0178333 0.00315678 -0.00452437 0.0341304 0.031811 -0.00285785 0.0102027 0.00823319 0.0234173 0.00157568 -0.00112555 0.00107882 0.0174868 0.0352597
internal_weight=37363 34869 2494 33124 1454 1745 1342 1201 542 5266 454 659 1188 244 1040 529 300 944 27858 253 254 5065 888 699 139 403 4078 1497 189 154
internal_count=37363 34869 2494 33124 1454 1745 1342 1201 542 5266 454 659 1188 244 1040 529 300 944 27858 253 254 5065 888 699 139 403 4078 1497 189 154
is_linear=0
shrinkage=0.05


Tree=12
num_leaves=31
num_cat=0
split_feature=4 6 6 4 4 4 6 5 6 0 5 0 2 0 4 4 6 2 1 0 7 4 4 5 4 0 4 7 2 0
split_gain=798.616 168.026 90.2346 42.9811 25.6988 22.8671 23.6887 16.865 15.6009 11.6583 11.1685 11.0472 9.93102 8.36032 8.30155 7.09577 8.10069 6.69314 6.45573 6.42373 6.27215 5.79644 5.00614 4.59519 4.04991 3.75869 3.65994 3.62244 3.62052 3.56077
threshold=0.96104794210756583 0.94464396630539382 0.96827156319834662 0.86919224261708727 0.98805841618094103 0.88369373192643585 0.97367028419768875 0.97069372514258545 0.9165629712273623 -0.78656609248549303 0.84898146939660035 -0.78656609248549303 1.5000000000000002 0.25881904510252091 0.93067383478266241 0.98805841618094103 0.98476143141222894 2.5000000000000004 0.60355339059327384 -0.78656609248549303 27.050000000000001 0.97363691349700432 0.97864906588385847 0.95424815977746325 0.94142375341951656 -0.91597561503675329 0.89970948479116641 27.116666666666671 4.5000000000000009 -0.37940952255126059
decision_type=2 2 2 2 2 2 2 2 2 2 2 2 2 2 2 2 2 2 2 2 2 2 2 2 2 2 2 2 2 2
left_child=1 3 4 -1 7 25 17 11 10 26 -5 27 24 -11 -12 16 23 18 -7 -6 -9 -13 -22 -4 -10 -3 -8 -2 -14 -25
right_child=2 5 15 8 19 6 9 20 12 13 14 21 28 -15 -16 -17 -18 -19 -20 -21 22 -23 -24 29 -26 -27 -28 -29 -30 -31
leaf_value=-0.0027698054867656141 0.00030909838628870144 0.00085627375458471443 0.0016241937112602732 0.00061995161484789676 0.0010601806784525602 0.0012765696536862321 0.0013029049432852103 0.0002679458851160324 0.00077546841723608365 0.0005052368510803948 -0.00056762565204079146 0.0010718862456689968 0.00026781187726064213 0.0013709919738808861 0.00012134933456349404 0.0016045254302708202 0.0016045254302708202 0.00057184481268532025 0.00057541567424897189 0.0016257733972216638 0.00046430492936831177 0.0015014398119725838 0.0010866525266217751 0.00140893267017081 0.00075020876248589922 -0.00037511464362786017 0.0016148164800472377 0.0014221769401280926 -0.00013310241144016778 0.00096909814595113057
leaf_weight=25377 70 128 82 487 48 241 28 227 326 163 4563 218 861 183 1033 489 263 601 113 205 195 112 108 41 123 275 131 43 528 101
leaf_count=25377 70 128 82 487 48 241 28 227 326 163 4563 218 861 183 1033 489 263 601 113 205 195 112 108 41 123 275 131 43 528 101
internal_value=-0.00103619 -0.00286553 0.0281744 -0.00368311 0.0191436 0.0117472 0.0146575 0.0154522 -0.000467745 0.0234158 -0.00168749 0.0226524 0.0035691 0.0182659 -0.00231952 0.0395184 0.0352464 0.0100262 0.0154802 0.0333399 0.00943396 0.0272727 0.0141419 0.0282589 0.0100334 0.00120347 0.0346226 0.00915929 0.00147948 0.0228169
internal_weight=37363 35161 2202 33298 1226 1863 1460 973 7921 505 6083 443 1838 346 5596 976 487 955 354 253 530 330 303 224 449 403 159 113 1389 142
internal_count=37363 35161 2202 33298 1226 1863 1460 973 7921 505 6083 443 1838 346 5596 976 487 955 354 253 530 330 303 224 449 403 159 113 1389 142
is_linear=0
shrinkage=0.05


Tree=13
num_leaves=31
num_cat=0
split_feature=4 6 6 6 4 6 2 4 0 5 2 0 0 4 6 4 7 0 1 5 4 7 2 0 4 1 1 4 6 7
split_gain=745.629 158.605 92.6512 43.7341 24.832 21.0908 18.6637 18.2898 15.0036 14.1118 12.9241 9.76363 9.06477 8.34614 7.83405 7.41478 7.69873 6.98149 6.10007 5.74805 5.47202 5.19313 4.44807 4.22835 4.05689 3.75222 3.95121 3.52396 3.34444 3.27148
threshold=0.96104794210756583 0.91921760159513699 0.96827156319834662 0.96827156319834662 0.98805841618094103 0.85194482735869326 1.0000000180025095e-35 0.89508151444268191 -0.78656609248549303 0.97069372514258545 2.5000000000000004 -0.78656609248549303 0.37940952255126054 0.98805841618094103 0.98476143141222894 0.8579329415041429 13.750000000000002 -0.78656609248549303 0.25881904510252057 0.95424815977746325 0.97363691349700432 27.050000000000001 5.5000000000000009 -0.98296291314453399 0.97864906588385847 0.25881904510252057 -0.70710678118654757 0.94142375341951656 0.89389468500741387 34.550000000000011
decision_type=2 2 2 2 2 2 2 2 2 2 2 2 2 2 2 2 2 2 2 2 2 2 2 2 2 2 2 2 2 2
left_child=1 5 4 10 9 27 18 25 29 11 15 -2 -10 14 19 -3 -17 -6 23 -4 -13 -11 -12 -7 -23 26 -5 -1 -8 -9
right_child=2 3 13 7 17 6 28 8 12 21 22 20 -14 -15 -16 16 -18 -19 -20 -21 -22 24 -24 -25 -26 -27 -28 -29 -30 -31
leaf_value=-0.002859242859045423 0.00085475700029770049 -0.00041385240367443051 0.0015429840256972569 -0.001184637334381203 0.0010071716445299304 0.0018578062827493771 -0.0007745265153415639 0.0015340756560448755 0.00053067424870147399 0.00025454859086023103 0.00026222265287840731 0.0010182919333855465 0.0014844308016647054 0.0015242991587572808 0.0015242991587572808 0.001418196733983857 0.00075417105913525755 0.0015444847273605789 -0.00010722381444310073 0.0011194642918222022 0.0014263678213739541 0.00044108968289989525 -0.00030152379849917275 0.0005717378947667158 0.0010323199002906867 -0.0013880302337226751 0.0013029452915660469 0.00023915327338432433 -0.00015398514940157882 0.00066346417788284116
leaf_weight=23531 113 130 82 40 48 43 4197 153 253 227 1491 218 155 489 263 89 935 205 296 142 112 195 515 575 108 76 98 70 2494 20
leaf_count=23531 113 130 82 40 48 43 4197 153 253 227 1491 218 155 489 263 89 935 205 296 142 112 195 515 575 108 76 98 70 2494 20
internal_value=-0.00107232 -0.00283994 0.0271526 0.00659292 0.0180016 -0.00403544 -0.00174556 0.0170755 0.0216781 0.0143731 0.0039557 0.0209594 0.0164461 0.0386475 0.0340144 0.00817158 0.00959961 0.0319565 0.00495624 0.0271429 0.025303 0.00886792 0.00153041 0.00778317 0.0131518 0.00457944 0.00949275 -0.00477332 -0.00266104 0.0340173
internal_weight=37363 35161 2202 3955 1226 31206 7605 795 581 973 3160 443 408 976 487 1154 1024 253 914 224 330 530 2006 618 303 214 138 23601 6691 173
internal_count=37363 35161 2202 3955 1226 31206 7605 795 581 973 3160 443 408 976 487 1154 1024 253 914 224 330 530 2006 618 303 214 138 23601 6691 173
is_linear=0
shrinkage=0.05


Tree=14
num_leaves=31
num_cat=0
split_feature=4 6 6 6 4 4 4 5 2 5 4 5 4 2 0 6 0 0 6 0 2 7 5 5 2 7 0 7 6 4
split_gain=700.127 144.525 93.6221 39.5539 22.3523 22.0669 16.9328 15.0702 13.4104 11.6794 11.6646 12.1021 9.69793 9.37296 8.58937 8.08051 8.06597 7.23153 7.16741 6.26949 8.37895 6.16467 5.88034 5.73763 5.08645 4.67646 5.31852 4.61762 3.24671 3.2161
threshold=0.96104794210756583 0.91921760159513699 0.96827156319834662 0.96827156319834662 0.85298535928980013 0.98805841618094103 0.88489178637035315 0.97363691349700432 5.5000000000000009 0.76538424303944175 0.9320643375827472 0.94851501414059947 0.98805841618094103 1.0000000180025095e-35 -0.78656609248549303 0.98476143141222894 -0.78656609248549303 -0.78656609248549303 0.84905423868826424 -0.78656609248549303 1.0000000180025095e-35 16.216666666666672 0.97069372514258545 0.94851501414059947 1.5000000000000002 31.450000000000006 -0.60355339059327362 28.916666666666671 0.92766216036755511 0.97363691349700432
decision_type=2 2 2 2 2 2 2 2 2 2 2 2 2 2 2 2 2 2 2 2 2 2 2 2 2 2 2 2 2 2
left_child=1 4 5 10 -1 7 -5 14 16 -6 19 24 15 18 -2 22 -8 -7 -11 20 -3 -21 -4 -16 -12 28 -27 -15 -9 -24
right_child=2 3 12 6 9 17 8 25 -10 13 11 -13 -14 27 23 -17 -18 -19 -20 21 -22 -23 29 -25 -26 26 -28 -29 -30 -31
leaf_value=-0.0030856461505116175 0.00080134616785817168 0.0017245484497841847 0.0014461665434229388 0.00040827774306740689 0.00109563052730604 0.00095681306230343535 0.00145737187324263 -6.6821810700703854e-06 0.00019383102356362883 -0.00024858505684821841 0.0010288439577350419 0.00016180828456397364 0.0014480842008194163 -0.00074087993953507274 0.001297576573154156 0.0014480842008194163 0.0010649059761623824 0.0014672604909925502 0.00039901493547755355 0.00066028828975788151 0.00035542402596982944 -0.00013003843867747769 -8.3726015445560125e-06 0.00099154681203319855 0.00061480470261533445 0.00020191524032677632 0.0012313907992111707 -0.00013110978106784725 0.00041310203112760661 0.0011179018344578406
leaf_weight=23247 115 37 130 166 52 48 178 162 105 648 171 391 489 4080 134 263 346 205 751 277 619 1229 22 228 436 46 53 2428 235 72
leaf_count=23247 115 37 130 166 52 48 178 162 105 648 171 391 489 4080 134 263 346 205 751 277 619 1229 22 228 436 46 53 2428 235 72
internal_value=-0.00112852 -0.00284136 0.0262216 0.00616308 -0.00398257 0.0170228 0.0161321 0.0136023 0.0198808 -0.00169557 0.00365506 0.00812625 0.0377766 -0.00185089 0.0199476 0.0327823 0.0231489 0.0301779 0.00186204 0.00159112 0.00567073 -0.000185924 0.0258036 0.0237293 0.0125453 0.0075 0.0172222 -0.00264905 0.00507557 0.0162766
internal_weight=37363 35161 2202 3955 31206 1226 795 973 629 7959 3160 998 976 7907 477 487 524 253 1399 2162 656 1506 224 362 607 496 99 6508 397 94
internal_count=37363 35161 2202 3955 31206 1226 795 973 629 7959 3160 998 976 7907 477 487 524 253 1399 2162 656 1506 224 362 607 496 99 6508 397 94
is_linear=0
shrinkage=0.05


Tree=15
num_leaves=31
num_cat=0
split_feature=4 6 6 6 4 4 4 5 4 2 5 5 4 3 4 0 6 5 0 0 2 5 7 4 5 2 7 0 2 6
split_gain=662.958 137.18 91.2055 36.7974 20.8916 20.3142 15.0396 14.7883 12.597 11.7648 11.6235 11.4961 10.9388 9.46819 8.83349 8.73588 7.31416 7.19111 7.11272 6.5305 9.31871 6.19586 5.15016 4.96986 4.80249 4.77061 4.57634 5.06149 3.97103 3.40474
threshold=0.96104794210756583 0.9165629712273623 0.96827156319834662 0.96827156319834662 0.84263803571802309 0.98805841618094103 0.88489178637035315 0.97069372514258545 0.9320643375827472 5.5000000000000009 0.94851501414059947 0.81665207118537231 0.98805841618094103 10.500000000000002 0.93067383478266241 -0.78656609248549303 0.98476143141222894 0.9428421534857726 -0.78656609248549303 -0.78656609248549303 1.0000000180025095e-35 0.95424815977746325 16.216666666666672 0.97363691349700432 0.74701497611924206 1.5000000000000002 31.366666666666671 -0.60355339059327362 1.0000000180025095e-35 0.92766216036755511
decision_type=2 2 2 2 2 2 2 2 2 2 2 2 2 2 2 2 2 2 2 2 2 2 2 2 2 2 2 2 2 2
left_child=1 4 5 8 -1 7 -5 15 19 13 25 24 16 -8 28 -2 21 -16 -7 20 -3 -4 -21 -17 -6 -10 29 -28 -13 -9
right_child=2 3 12 6 11 18 9 26 10 -11 -12 14 -14 -15 17 23 -18 -19 -20 22 -22 -23 -24 -25 -26 -27 27 -29 -30 -31
leaf_value=-0.0032970520285969698 0.00077195184188990555 0.0016370058427601414 0.0013935264972412473 0.00038786385591403698 0.00093830454766858035 0.00090897240918826321 0.0010576467587269714 -6.3480732375420169e-06 0.00094517144151884305 0.0001841394723854474 0.00015826472712630261 -5.68190717165041e-05 0.0013756799907784446 0.0014012585393090174 0.00042605807390423624 0.00090839504435063589 0.0013756799907784446 -0.00014036238467753651 0.0013938974664429228 0.00060638668887216546 0.00033509022137953733 0.00099282412878117952 -0.00014636418455540463 0.0012917007909477212 0.00032740436012035671 0.00057988592845994861 0.0002098048903446254 0.0011684760150198841 -0.00072255498015325807 0.00043530093538380032
leaf_weight=22149 113 40 82 166 47 48 393 172 181 105 419 1199 489 131 429 218 263 620 205 299 689 142 1342 112 473 457 51 61 6022 246
leaf_count=22149 113 40 82 166 47 48 393 172 181 105 419 1199 489 131 429 218 263 620 205 299 689 142 1342 112 473 457 51 61 6022 246
internal_value=-0.00116466 -0.00283141 0.0254496 0.00562293 -0.0039851 0.0163703 0.0153145 0.0130884 0.00337467 0.0188474 0.00791391 -0.00192264 0.0368545 0.0219084 -0.00237606 0.0198307 0.0315503 0.00191134 0.0289921 0.00135021 0.00528806 0.0249107 -0.000399148 0.0239394 0.00528846 0.012163 0.00745283 0.0164286 -0.00299889 0.00504785
internal_weight=37363 35161 2202 4222 30939 1226 795 973 3427 629 1057 8790 976 524 8270 443 487 1049 253 2370 729 224 1641 330 520 638 530 112 7221 418
internal_count=37363 35161 2202 4222 30939 1226 795 973 3427 629 1057 8790 976 524 8270 443 487 1049 253 2370 729 224 1641 330 520 638 530 112 7221 418
is_linear=0
shrinkage=0.05


Tree=16
num_leaves=31
num_cat=0
split_feature=4 6 6 6 6 4 2 4 0 4 5 4 2 1 0 0 7 4 3 4 4 5 7 6 6 1 2 2 4 7
split_gain=613.034 128.623 91.8884 38.3096 18.9039 17.9511 15.7546 14.3905 15.5724 13.4373 13.3055 10.9434 10.4581 8.65722 8.62988 6.69012 6.5612 6.14412 5.52792 5.36873 5.07357 4.84311 4.46273 4.25523 3.91534 4.20176 3.84153 3.80073 3.52229 3.07032
threshold=0.96104794210756583 0.91134036892446157 0.96827156319834662 0.96109401971407882 0.84776089185950632 0.99121237011568009 1.0000000180025095e-35 0.8630928080823923 -0.91597561503675329 0.93526686327178987 0.97069372514258545 0.98467401213647976 2.5000000000000004 0.91597561503675351 -0.78656609248549303 -0.98296291314453399 20.450000000000006 0.97864906588385847 10.500000000000002 0.97363691349700432 0.93678472009066971 0.99511659748063075 31.283333333333339 0.98178878628031796 0.99128563555039706 -0.9159756150367534 5.5000000000000009 1.0000000180025095e-35 0.89970948479116641 16.083333333333339
decision_type=2 2 2 2 2 2 2 2 2 2 2 2 2 2 2 2 2 2 2 2 2 2 2 2 2 2 2 2 2 2
left_child=1 4 5 12 -1 10 15 -5 28 -10 14 13 18 24 -2 -6 -7 -12 20 -16 -3 -19 -17 -13 25 -4 29 -20 -9 -14
right_child=2 3 11 7 6 16 -8 8 9 -11 17 23 26 -15 19 22 -18 21 27 -21 -22 -23 -24 -25 -26 -27 -28 -29 -30 -31
leaf_value=-0.0026057128182919889 0.00075245730946746575 0.00030054833327235327 0.0010283695167033105 -0.00030989685797483011 0.0018963906632291268 0.00076942163623856276 -0.00044897537979263213 0.0012581347787436505 0.00066028252345288574 0.0010091908589094196 0.00024066605183345639 0.0013068959912395208 0.00035328269651975703 0.00072071946327606994 0.00086297529213310664 0.00019220990827168409 0.0013453695815535073 0.001100170329984269 0.0017303225828173942 0.0011992829586789412 0.00056916066102595292 0.00024644271774102632 0.00061450597394512713 0.0013068959912395208 0.0013068959912395208 0.0013244491878653176 -0.00041813093139176917 0.00082026617527768098 0.0013316209416441461 7.696998265746465e-05
leaf_weight=23167 119 853 60 139 44 51 6327 57 415 340 350 178 276 75 218 665 130 146 42 118 346 94 196 379 143 141 597 143 105 1449
leaf_count=23167 119 853 60 139 44 51 6327 57 415 340 350 178 276 75 218 665 130 146 42 118 346 94 196 379 143 141 597 143 105 1449
internal_value=-0.00121016 -0.00281292 0.0243824 0.0048278 -0.00400984 0.0152692 -0.00177821 0.0132292 0.0155016 0.0124834 0.0127512 0.0358299 0.00243389 0.0297255 0.0191758 0.00439226 0.0298066 0.00779661 0.00587428 0.0232738 0.00463303 0.0139583 0.00342044 0.0404219 0.0330814 0.0285821 0.000383289 0.0139189 0.0295679 0.00157971
internal_weight=37363 35161 2202 4762 30399 1226 7232 1056 917 755 1045 976 3706 419 455 905 181 590 1384 336 1199 240 861 557 344 201 2322 185 162 1725
internal_count=37363 35161 2202 4762 30399 1226 7232 1056 917 755 1045 976 3706 419 455 905 181 590 1384 336 1199 240 861 557 344 201 2322 185 162 1725
is_linear=0
shrinkage=0.05


Tree=17
num_leaves=31
num_cat=0
split_feature=4 6 6 6 4 4 4 0 5 3 4 5 7 4 0 7 2 7 1 0 7 7 0 7 0 4 6 1 7 6
split_gain=567.526 113.457 96.1646 35.0457 19.9756 18.1455 14.825 17.8592 13.7558 10.9736 10.8736 10.7288 7.1057 7.2191 6.87262 11.1737 6.83418 6.60318 6.39296 6.0998 5.97755 5.68668 5.25291 4.91871 4.65826 4.27206 3.70698 3.70226 3.54233 3.16179
threshold=0.96104794210756583 0.90983177000618298 0.97367028419768875 0.95227561877677303 0.83767751952998126 0.99121237011568009 0.8644745017890797 -0.78656609248549303 0.97069372514258545 10.500000000000002 0.98467401213647976 0.82470420499821684 28.366666666666671 0.91507996356716081 0.25881904510252091 27.450000000000006 4.5000000000000009 31.366666666666671 0.91597561503675351 -0.98296291314453399 13.916666666666668 35.916666666666679 -0.70710678118654735 20.450000000000006 0.60355339059327384 0.91123863654875104 0.99128563555039706 -0.9159756150367534 29.550000000000001 0.92766216036755511
decision_type=2 2 2 2 2 2 2 2 2 2 2 2 2 2 2 2 2 2 2 2 2 2 2 2 2 2 2 2 2 2
left_child=1 4 5 16 -1 8 -5 21 14 -9 18 24 19 -14 15 -2 20 29 26 -13 -3 -8 -19 -7 -6 -22 27 -4 -26 -10
right_child=2 3 10 6 11 23 7 9 17 -11 -12 12 13 -15 -16 -17 -18 22 -20 -21 25 -23 -24 -25 28 -27 -28 -29 -30 -31
leaf_value=-0.0032360382306117156 0.00040665887808463724 0.00086071920030453644 0.0010125239030854625 -0.00039845981581972817 0.00011296023558806852 0.00073200320578524145 0.00126111578040512 0.00045614267079082294 -2.0624538805963751e-05 0.0012339606394068418 0.0012415511916775424 0.002162621307055326 -0.00030126248286527874 0.00024761173973263627 0.0012161639973310276 0.00097625751271293863 -0.00019119599071382723 9.9316634050377668e-05 0.00070031593824040189 -0.00084521618089999624 -1.7046483463069541e-05 -0.00010797185571191416 0.0010658176912357344 0.0012727742229543602 0.00069859967021356233 0.00032430089930439465 0.0012415511916775424 0.0012406735318462537 0.0016822898400573134 0.00050660074816594484
leaf_weight=21504 132 212 46 192 499 62 318 714 177 192 491 29 2581 723 113 249 1104 46 60 4709 1000 21 88 164 201 1142 143 112 20 319
leaf_count=21504 132 212 46 192 499 62 318 714 177 192 491 29 2581 723 113 249 1104 46 60 4709 1000 21 88 164 201 1142 143 112 20 319
internal_value=-0.00128643 -0.00282856 0.0233379 0.00423391 -0.00397079 0.015037 0.0107968 0.0127912 0.0124377 0.00912803 0.0364906 -0.00195846 -0.00248197 -0.00070218 0.0186842 0.0154724 0.00150665 0.00753968 0.029903 -0.00372309 0.00302889 0.0225811 0.0173881 0.0279646 0.00388889 0.00223623 0.0328738 0.0275949 0.00993213 0.00487903
internal_weight=37363 35161 2202 4895 30266 1350 1437 1245 1124 906 852 8762 8042 3304 494 381 3458 630 361 4738 2354 339 134 226 720 2142 301 158 221 496
internal_count=37363 35161 2202 4895 30266 1350 1437 1245 1124 906 852 8762 8042 3304 494 381 3458 630 361 4738 2354 339 134 226 720 2142 301 158 221 496
is_linear=0
shrinkage=0.05


Tree=18
num_leaves=31
num_cat=0
split_feature=4 6 6 6 6 2 4 4 0 5 4 4 6 2 0 7 7 7 7 0 5 5 0 7 2 7 5 4 4 5
split_gain=526.523 122.557 78.9485 39.5015 17.2545 17.0437 15.9481 14.4875 15.0192 12.5825 10.7367 8.70045 9.08857 8.33326 6.65304 5.52081 5.17607 5.01002 4.98268 4.95149 4.87558 4.61392 4.59225 4.56257 4.54618 4.44444 4.31721 3.87558 3.48067 3.13945
threshold=0.965843461648631 0.90194096976399651 0.97367028419768875 0.95227561877677303 0.83266219878351178 1.0000000180025095e-35 0.99121237011568009 0.8644745017890797 -0.78656609248549303 0.97363691349700432 0.93678472009066971 0.99121237011568009 0.98476143141222894 1.5000000000000002 -0.98296291314453399 35.916666666666679 11.783333333333337 31.450000000000006 20.450000000000006 -0.78656609248549303 0.88632918600382127 0.97069372514258545 -0.37940952255126059 20.450000000000006 5.5000000000000009 24.283333333333339 0.95042738657874848 0.88369373192643585 0.95042738657874848 0.87045508613162059
decision_type=2 2 2 2 2 2 2 2 2 2 2 2 2 2 2 2 2 2 2 2 2 2 2 2 2 2 2 2 2 2
left_child=1 4 6 13 27 14 9 -5 15 19 -10 12 21 18 25 -9 -16 -11 -3 20 -2 -4 -20 -8 28 -6 -21 -1 -15 -29
right_child=2 3 11 7 5 -7 23 8 10 17 -12 -13 -14 24 16 -17 -18 -19 22 26 -22 -23 -24 -25 -26 -27 -28 29 -30 -31
leaf_value=-0.0031383352301894763 0.0015514544741069692 0.00096147476176252082 0.0011760925092215544 -0.00037853682502874005 0.0020290001042786504 -0.00056533402757298742 0.00069540304549597844 0.0011997417355016306 0.00041758998873256111 0.00031033257175903662 0.00079776851830859095 0.001179473632093664 0.001179473632093664 3.7468340078603307e-05 0.00078900868616752341 -0.00011177177998257352 0.00016153352004132101 0.00095689939036852861 0.00056199870085866762 0.0011478800455385061 0.00034804727197389581 0.00085428622123388451 -1.6831203850159387e-05 0.0012091355118066425 -0.00043984670729851856 0.00015371948018446291 0.000889383954908864 0.00090676725324502776 0.00035756969669224281 -0.00032752734597072628
leaf_weight=20813 21 262 79 192 36 6980 62 325 519 402 491 370 269 2456 45 22 972 106 303 113 72 79 415 164 692 24 173 44 296 566
leaf_count=20813 21 262 79 192 36 6980 62 325 519 402 491 370 269 2456 45 22 972 106 303 113 72 79 415 164 692 24 173 44 296 566
internal_value=-0.00130517 -0.00268285 0.024267 0.00384815 -0.00400611 -0.00203364 0.0156649 0.0107198 0.0125387 0.0126437 0.00945544 0.0362798 0.0314169 0.00144213 0.0038208 0.021513 0.00286627 0.0075 0.0055102 0.0195383 0.00951613 0.0218987 0.00335654 0.0275221 0.000284552 0.02 0.0227972 -0.00474794 0.00119549 -0.000819673
internal_weight=37363 35453 1910 5973 29480 8057 1113 1549 1357 887 1010 797 427 4424 1077 347 1017 508 980 379 93 158 718 226 3444 60 286 21423 2752 610
internal_count=37363 35453 1910 5973 29480 8057 1113 1549 1357 887 1010 797 427 4424 1077 347 1017 508 980 379 93 158 718 226 3444 60 286 21423 2752 610
is_linear=0
shrinkage=0.05


Tree=19
num_leaves=31
num_cat=0
split_feature=4 6 6 6 4 4 4 0 5 2 4 2 5 4 7 6 4 6 3 5 7 5 4 2 0 7 5 0 5 1
split_gain=490.29 113.867 78.6322 34.889 18.5683 15.5184 12.9239 13.0334 12.1695 11.8663 8.94201 8.63435 8.43333 7.92015 7.29152 6.31103 6.09049 5.86886 5.6226 5.47852 4.00741 3.86265 3.85487 3.8301 3.71898 4.37322 3.48834 3.33203 3.29299 3.14325
threshold=0.965843461648631 0.90194096976399651 0.97602642438526799 0.95880132614475522 0.82199913324753737 0.99121237011568009 0.89970948479116641 -0.91597561503675329 0.97601873040911369 1.0000000180025095e-35 0.98805841618094103 4.5000000000000009 0.76678768023173605 0.92911711195433155 13.750000000000002 0.99128563555039706 0.91123863654875104 0.80145912995107393 4.5000000000000009 0.81056590763083736 30.983333333333338 0.89741901341426744 0.92621312667537337 4.5000000000000009 -0.91597561503675329 14.783333333333337 0.97864906588385847 -0.78656609248549303 0.98467401213647976 -0.60355339059327384
decision_type=2 2 2 2 2 2 2 2 2 2 2 2 2 2 2 2 2 2 2 2 2 2 2 2 2 2 2 2 2 2
left_child=1 4 5 11 -1 8 24 -8 18 12 15 14 -6 -9 -3 26 -16 -14 21 -11 -10 -2 -21 -20 -5 -26 -4 -7 -29 -22
right_child=2 3 10 6 9 27 7 13 20 19 -12 -13 17 -15 16 -17 -18 -19 23 22 29 -23 -24 -25 25 -27 -28 28 -30 -31
leaf_value=-0.0035106418403103969 0.0011914116204595393 0.00074578735407727524 0.0011171211299430773 0.0010409367470170484 0.0012396671897133703 0.0010115197261323918 0.0011419970187665997 0.00057563792904174777 0.00022005979506852424 0.00015486294616183602 0.001120499950488979 -0.00015925560734318022 -0.00064717601969540726 0.00083179249692270311 -1.4503108138304492e-05 0.001120499950488979 0.00037768159997457728 0.00022137611366575052 0.0010168378419095573 -0.00082492555762813324 0.0010747567487387854 0.00035452580032117794 5.064891522875832e-06 0.00051296931346028393 0.00067159106076412705 -0.00075457566891818826 0.0010223345860702233 0.0011540056157377798 0.0011235290064349312 0.00043524564387431558
leaf_weight=19813 24 256 130 107 39 43 112 235 355 599 401 1503 533 535 1369 158 1604 1239 252 6542 36 119 715 49 45 207 51 62 146 84
leaf_count=19813 24 256 130 107 39 43 112 235 355 599 401 1503 533 535 1369 158 1604 1239 252 6542 36 119 715 49 45 207 51 62 146 84
internal_value=-0.00135201 -0.00268144 0.0233246 0.00361376 -0.00395692 0.0152564 0.0110757 0.0143311 0.012247 -0.00216044 0.0360811 0.0016568 0.00148813 0.012013 0.00311397 0.0301032 0.00241675 0.00098194 0.0181982 -0.00300153 0.00668421 0.010035 -0.00338087 0.0220764 0.00307799 -0.000238096 0.0237293 0.0262749 0.0288942 0.0145833
internal_weight=37363 35453 1910 5973 29480 1170 1241 882 919 9667 740 4732 1811 770 3229 339 2973 1772 444 7856 475 143 7257 301 359 252 181 251 208 120
internal_count=37363 35453 1910 5973 29480 1170 1241 882 919 9667 740 4732 1811 770 3229 339 2973 1772 444 7856 475 143 7257 301 359 252 181 251 208 120
is_linear=0
shrinkage=0.05


Tree=20
num_leaves=31
num_cat=0
split_feature=4 6 6 6 4 6 2 5 2 3 0 2 1 4 0 7 4 5 7 6 7 0 6 4 7 6 5 4 0 0
split_gain=464.289 106.231 78.9056 36.1187 16.7458 13.45 14.2726 12.8227 11.9395 13.3533 10.9501 9.65915 10.9289 8.62904 6.90637 6.103 6.07119 7.87227 5.93142 5.45887 5.10867 4.93118 4.78366 4.41325 4.3912 4.20172 3.74217 3.46594 3.26548 3.19828
threshold=0.965843461648631 0.89004026995371854 0.97865844127645996 0.95227561877677303 0.99121237011568009 0.8180722753821098 1.0000000180025095e-35 0.965843461648631 5.5000000000000009 10.500000000000002 -0.78656609248549303 1.0000000180025095e-35 0.25881904510252057 0.98805841618094103 -0.98296291314453399 23.616666666666671 0.93966932688401272 0.93966932688401272 30.616666666666671 0.99128563555039706 16.216666666666672 0.25881904510252091 0.98178878628031796 0.97864906588385847 12.85 0.92924398466884239 0.97864906588385847 0.88489178637035315 -0.37940952255126059 -0.78656609248549303
decision_type=2 2 2 2 2 2 2 2 2 2 2 2 2 2 2 2 2 2 2 2 2 2 2 2 2 2 2 2 2 2
left_child=1 5 4 11 7 27 14 18 9 10 -5 12 25 19 15 -7 20 -18 21 -4 -13 -2 -11 -9 -16 -3 -25 -1 -14 -6
right_child=2 3 13 8 29 6 -8 23 -10 22 -12 16 28 -15 24 -17 17 -19 -20 -21 -22 -23 -24 26 -26 -27 -28 -29 -30 -31
leaf_value=-0.0032647238392363776 0.0007102686741973915 0.00085700708428610047 0.0010619320920949101 0.0010848971678282693 0.0010520554061278929 0.0020538873899512084 -0.00066580793501173723 0.00026680208531224914 1.5967443718260166e-06 0.0010677165601713529 0.00040306904922565051 0.00024971866080540655 0.00061070260098080101 0.0010644749529645282 0.00075138271046625135 0.0001658536376529367 0.00052752085407562919 8.8978451780932652e-05 0.0010651390062335099 0.0010644749529645282 -0.00012451874548570027 0.0010314451536583271 0.0011540214668903516 0.00096599608304449207 6.8957821645415805e-05 0.0014558965331405488 0.00060457955816462189 -1.5869535160576295e-05 -0.00061896282889974477 0.0010715861726500872
leaf_weight=19451 153 221 143 295 45 34 7096 317 277 151 740 713 87 376 76 32 279 631 103 158 3694 74 86 82 1015 47 232 367 161 227
leaf_count=19451 153 221 143 295 45 34 7096 317 277 151 740 713 87 376 76 32 279 631 103 158 3694 74 86 82 1015 47 232 367 161 227
internal_value=-0.0013694 -0.0026631 0.022644 0.00267407 0.0151135 -0.00406665 -0.00237065 0.0120135 0.00946094 0.0115094 0.00905797 0.000871763 0.0074031 0.0363589 0.00277874 0.0184848 0.000237915 0.00395604 0.02 0.0300498 -0.00052984 0.0154846 0.0222152 0.00783677 0.0018286 0.014403 0.0120382 -0.00477293 -0.000161292 0.0260662
internal_weight=37363 35453 1910 7382 1233 28071 8253 961 1549 1272 1035 5833 516 677 1157 66 5317 910 330 301 4407 227 237 631 1091 268 314 19818 248 272
internal_count=37363 35453 1910 7382 1233 28071 8253 961 1549 1272 1035 5833 516 677 1157 66 5317 910 330 301 4407 227 237 631 1091 268 314 19818 248 272
is_linear=0
shrinkage=0.05


Tree=21
num_leaves=31
num_cat=0
split_feature=4 6 6 6 4 4 5 4 4 6 2 2 2 5 0 7 6 7 0 2 4 7 5 5 5 0 7 4 0 5
split_gain=431.978 98.2743 80.8412 32.4138 14.8166 11.6348 11.4957 10.979 10.6828 11.6775 9.33878 8.84035 7.43756 7.40905 6.98502 6.23479 6.0539 5.69008 4.80801 4.31152 3.8661 3.76475 3.6032 3.57375 3.36184 3.27271 2.95431 2.95077 2.89424 3.3889
threshold=0.965843461648631 0.89004026995371854 0.97602642438526799 0.95227561877677303 0.82057099720918847 0.99121237011568009 0.965843461648631 0.98805841618094103 0.8630928080823923 0.99128563555039706 1.0000000180025095e-35 1.5000000000000002 4.5000000000000009 0.78409957571209021 -0.91597561503675329 30.616666666666671 0.99128563555039706 13.750000000000002 0.25881904510252091 5.5000000000000009 0.97864906588385847 28.316666666666666 0.94851501414059947 0.81056590763083736 0.99511659748063075 -0.37940952255126059 16.083333333333339 0.88990525082146898 -0.78656609248549303 0.98467401213647976
decision_type=2 2 2 2 2 2 2 2 2 2 2 2 2 2 2 2 2 2 2 2 2 2 2 2 2 2 2 2 2 2
left_child=1 4 5 11 -1 6 15 16 -5 12 13 17 -10 -6 -11 18 22 -3 -2 26 -8 -15 -4 -12 -22 -19 -13 -25 -7 -30
right_child=2 3 7 8 10 28 20 -9 9 14 23 19 -14 21 -16 -17 -18 25 -20 -21 24 -23 -24 27 -26 -27 -28 -29 29 -31
leaf_value=-0.003334363589555698 0.00068696513035792486 0.00089546548199626952 0.0010164471065611975 -0.00039638039546399315 0.0010964451053873177 0.00090834096951938252 0.0002240005611114095 0.0010112512053162992 0.00079720526401199591 0.0010748009321539514 9.2282628149552374e-05 0.00022694459462653223 0.00023982939617914458 -0.0003116374416917173 0.00086493395782475399 0.0010171021772813506 0.0010112512053162992 0.00053465834739089841 0.0010103426221739059 -0.00048483374984251907 0.0008722346009661455 0.00016499058034912006 0.00073446242858237452 -0.0010787172380021407 0.00015481763714200148 0.00014211630966906789 -1.1256312341637834e-05 -0.00026222738280688376 0.0010427260263183857 0.0010137732474806759
leaf_weight=19459 146 105 58 187 71 43 310 401 747 48 520 520 388 854 179 94 158 490 66 907 196 769 123 4495 107 749 3062 1903 62 146
leaf_count=19459 146 105 58 187 71 43 310 401 747 48 520 520 388 854 179 94 158 490 66 907 196 769 123 4495 107 749 3062 1903 62 146
internal_value=-0.00143498 -0.00268285 0.0217277 0.00245055 -0.00403281 0.013547 0.0109412 0.0346622 0.00887992 0.0104185 -0.00230609 0.000743184 0.00834802 0.00102125 0.0207709 0.0188562 0.0280383 0.00430059 0.0141038 -0.000321899 0.00699021 0.000329635 0.0217956 -0.00312085 0.0110066 0.00335351 0.000457844 -0.00344483 0.0230876 0.0255288
internal_weight=37363 35453 1910 7382 28071 1170 919 740 1549 1362 8612 5833 1135 1694 227 306 339 1344 212 4489 613 1623 181 6918 303 1239 3582 6398 251 208
internal_count=37363 35453 1910 7382 28071 1170 919 740 1549 1362 8612 5833 1135 1694 227 306 339 1344 212 4489 613 1623 181 6918 303 1239 3582 6398 251 208
is_linear=0
shrinkage=0.05


Tree=22
num_leaves=31
num_cat=0
split_feature=4 6 6 6 4 4 4 4 5 5 4 5 5 7 0 0 2 7 0 7 1 7 0 6 2 7 0 1 5 7
split_gain=398.473 92.2981 78.606 32.2953 11.7764 11.5797 10.9871 10.4343 10.3896 10.3271 9.5733 9.9136 8.96095 6.94565 7.63254 6.21522 6.20792 5.55843 5.34052 5.2202 5.09683 4.87956 4.81795 4.46903 6.94098 8.84848 4.31695 3.75826 6.26804 3.68074
threshold=0.965843461648631 0.87652909271498902 0.97602642438526799 0.95227561877677303 0.99121237011568009 0.98805841618094103 0.87293601492673167 0.89970948479116641 0.86184844213881229 0.92039648592268719 0.93526686327178987 0.95221176303095389 0.965843461648631 14.083333333333336 -0.78656609248549303 -0.98296291314453399 4.5000000000000009 30.683333333333341 1.0000000180025095e-35 28.450000000000006 0.91597561503675351 27.366666666666671 -0.91597561503675329 0.82477761535511485 1.0000000180025095e-35 21.216666666666672 -0.37940952255126059 0.78656609248549303 0.94458795252962313 27.583333333333339
decision_type=2 2 2 2 2 2 2 2 2 2 2 2 2 2 2 2 2 2 2 2 2 2 2 2 2 2 2 2 2 2
left_child=1 6 4 10 12 20 23 22 21 15 13 29 18 16 -15 -9 -3 -10 19 -2 27 -8 -5 -1 25 -25 -11 28 -4 -12
right_child=2 3 5 7 -6 -7 8 9 17 26 11 -13 -14 14 -16 -17 -18 -19 -20 -21 -22 -23 -24 24 -26 -27 -28 -29 -30 -31
leaf_value=-0.0029572188232098668 0.00036802803531004466 0.00051345056923079752 0.00096068864505048375 0.00077054077557176426 0.00096823250813342647 0.00096068864505048375 0.00023856281803747993 0.0010771688250060419 -0.00061822800082179052 0.0006007305571611428 0.00020591195407531943 -2.4959171131964579e-05 0.00043163497726259189 0.00020707552856583683 -0.00028600384322619439 0.0008878790717173398 -0.00043078624422451654 0.00013222021191486709 0.00098538998737390587 0.0008953234853696948 0.00059658180785596398 0.0010924203454944186 -0.00014646131741926239 0.00094530119188579106 -0.0008981082509652076 -0.00020316623957339458 0.00020081253011516509 0.00096068864505048375 0.00089661107107922753 0.00055819044988466779
leaf_weight=19810 99 377 121 131 251 401 138 43 1985 173 356 686 613 1523 3882 594 175 700 106 101 52 110 316 107 3340 301 292 58 108 414
leaf_count=19810 99 377 121 131 251 401 138 43 1985 173 356 686 613 1523 3882 594 175 700 106 101 52 110 316 107 3340 301 292 58 108 414
internal_value=-0.00148717 -0.00268567 0.0207592 0.00170051 0.0126923 0.0335135 -0.00416953 0.00826662 -0.00128367 0.0108802 0.000328476 0.00396291 0.0100707 -0.000559847 -0.00110546 0.0150157 0.00478261 -0.00218808 0.0170588 0.01225 0.0267109 0.00850806 0.00182327 -0.00452882 -0.00294557 0.00321078 0.00521505 0.0293206 0.026441 0.00785714
internal_weight=37363 35453 1910 8962 1170 740 26491 1549 2933 1102 7413 1456 919 5957 5405 637 552 2685 306 200 339 248 447 23558 3748 408 465 287 229 770
internal_count=37363 35453 1910 8962 1170 740 26491 1549 2933 1102 7413 1456 919 5957 5405 637 552 2685 306 200 339 248 447 23558 3748 408 465 287 229 770
is_linear=0
shrinkage=0.05


Tree=23
num_leaves=31
num_cat=0
split_feature=4 6 6 6 6 4 2 4 5 4 5 2 1 0 0 7 1 4 5 7 0 6 1 2 1 5 7 4 5 0
split_gain=374.809 87.2093 77.3293 26.5985 13.6719 12.3465 11.4534 10.356 10.8718 10.0003 9.36502 8.31788 10.4479 6.38185 5.98213 7.05484 5.74665 5.35168 6.48938 4.88862 5.10442 4.58915 4.33988 4.26142 3.8724 6.06178 3.83853 3.75087 3.89796 3.33752
threshold=0.965843461648631 0.88647341587445705 0.97602642438526799 0.95227561877677303 0.8180722753821098 0.98805841618094103 1.0000000180025095e-35 0.90079318251404106 0.90969951832858598 0.99121237011568009 0.96356052410225645 1.0000000180025095e-35 0.25881904510252057 -0.98296291314453399 -0.98296291314453399 23.616666666666671 0.91597561503675351 0.93966932688401272 0.95221176303095389 29.683333333333341 0.25881904510252091 0.92924398466884239 0.91597561503675351 4.5000000000000009 -0.70710678118654757 0.96356052410225645 12.85 0.866799429652516 0.83642314039061816 -0.91597561503675329
decision_type=2 2 2 2 2 2 2 2 2 2 2 2 2 2 2 2 2 2 2 2 2 2 2 2 2 2 2 2 2 2
left_child=1 4 9 11 27 16 14 29 13 10 19 12 21 -9 15 -6 24 23 -19 20 -2 -3 -10 -13 25 -4 -16 -1 -29 -5
right_child=2 3 5 7 6 -7 -8 8 22 -11 -12 17 -14 -15 26 -17 -18 18 -20 -21 -22 -23 -24 -25 -26 -27 -28 28 -30 -31
leaf_value=-0.0030140227520389852 0.00052932592270829842 0.0007729278704706956 0.00091297459463328802 0.00072069793155599691 0.0020245729541526723 0.00091265421279795866 -0.00059176796148133421 0.0010233103837557378 0.0004914733361308176 0.00091982088272675737 0.00041318271366907918 3.3591991194525814e-05 -7.8634697637645535e-05 0.00091595292518089938 0.00068340311496542776 0.00015741851473036954 0.00056675271746316723 0.00040915515054445784 -1.8646182303384822e-05 0.00092230485956455071 0.00091404746809995027 0.0013578262026414031 -0.00025628029085947524 -0.00040231174997885531 0.00091265421279795866 0.00074609301603928814 6.7418714117631806e-05 0.001121752397640584 -0.00037409258768323727 -0.00013580601295879388
leaf_weight=19055 126 261 80 133 30 401 6727 35 477 251 629 3057 264 474 74 32 52 435 506 102 62 47 109 1688 150 57 965 44 719 321
leaf_count=19055 126 261 80 133 30 401 6727 35 477 251 629 3057 264 474 74 32 52 435 506 102 62 47 109 1688 150 57 965 44 719 321
internal_value=-0.0015233 -0.00268567 0.0200524 0.00198091 -0.00400347 0.0327027 -0.00223429 0.007847 0.0104795 0.0120513 0.00963547 0.000528922 0.00627622 0.0158251 0.00249319 0.0175806 0.0256785 -4.92449e-05 0.00339532 0.017069 0.0122872 0.0125325 0.00583618 -0.000732351 0.0284495 0.0223723 0.00159288 -0.00470229 -0.00126475 0.0014978
internal_weight=37363 35453 1910 7807 27646 740 7828 1549 1095 1170 919 6258 572 509 1101 62 339 5686 941 290 188 308 586 4745 287 137 1039 19818 763 454
internal_count=37363 35453 1910 7807 27646 740 7828 1549 1095 1170 919 6258 572 509 1101 62 339 5686 941 290 188 308 586 4745 287 137 1039 19818 763 454
is_linear=0
shrinkage=0.05


Tree=24
num_leaves=31
num_cat=0
split_feature=4 6 6 6 4 4 5 2 3 2 4 0 5 7 4 7 4 6 6 1 7 5 0 6 0 5 0 0 5 7
split_gain=352.545 87.2065 72.0739 28.9445 11.3373 10.1957 10.214 9.57356 11.2014 8.44876 7.65686 7.49445 7.47508 7.12003 6.1122 5.47331 5.89358 4.93347 4.78705 4.69789 3.58404 5.7237 3.63688 3.44043 3.20159 3.06357 3.98174 2.83986 4.83979 2.27665
threshold=0.96823022549815818 0.87526186373138637 0.97865844127645996 0.95046381016586645 0.82844499032479968 0.99121237011568009 0.97864906588385847 5.5000000000000009 10.500000000000002 4.5000000000000009 0.98805841618094103 -0.78656609248549303 0.82470420499821684 14.083333333333336 0.93678472009066971 28.316666666666666 0.8825385154659765 0.99128563555039706 0.99128563555039706 0.1294095225512602 29.083333333333339 0.95042738657874848 0.25881904510252091 0.98476143141222894 -0.91597561503675329 0.96356052410225645 -0.37940952255126059 -0.78656609248549303 0.97363691349700432 14.250000000000002
decision_type=2 2 2 2 2 2 2 2 2 2 2 2 2 2 2 2 2 2 2 2 2 2 2 2 2 2 2 2 2 2
left_child=1 4 5 9 -1 6 20 8 11 13 18 -5 29 19 -15 24 -17 -10 25 -3 22 -22 -2 -12 -14 -4 -27 -7 -29 -6
right_child=2 3 10 7 12 27 -8 -9 17 -11 23 -13 15 14 -16 16 -18 -19 -20 -21 21 -23 -24 -25 -26 26 -28 28 -30 -31
leaf_value=-0.0028223931586272562 0.00033401030597337308 0.00054038338401751426 0.00086603846839632733 0.0009006004463913476 0.0010663965312979089 0.00085698693134522393 0.00025947403313496422 -7.2639839255894673e-05 0.00089766373870234597 -0.00029470436275924226 0.00086702150215806073 0.00029993002219472789 0.00041253596539280227 -2.2237773606856212e-05 0.00028322316256748745 -0.00049500761494662346 0.00020875493559976722 0.00094011263279949586 0.00086702150215806073 -0.00035692072028016488 0.00088576594974489823 0.00077429131972078899 0.0008639807450284971 0.00086702150215806073 -0.0010243177937422543 0.00089400618483358131 0.00044839639695291731 0.00089618705545945756 0.00086893895578866163 0.00016406695507725723
leaf_weight=19898 176 359 52 322 57 45 400 303 204 2259 86 846 124 3754 1043 1386 832 56 146 98 57 119 87 290 3518 30 49 34 193 540
leaf_count=19898 176 359 52 322 57 45 400 303 204 2259 86 846 124 3754 1043 1386 832 56 146 98 57 119 87 290 3518 30 49 34 193 540
internal_value=-0.00156345 -0.0026446 0.0202551 0.00153397 -0.00411023 0.0125067 0.0097795 0.00736279 0.00907563 0.000191001 0.033438 0.0069863 -0.00228976 0.00129044 0.000722325 -0.00283277 -0.000874663 0.0184615 0.02713 0.00725383 0.0150456 0.0205682 0.0113498 0.0380851 -0.00402526 0.0201908 0.0139873 0.0209191 0.0231938 0.0030402
internal_weight=37363 35599 1764 9244 26355 1111 839 1731 1428 7513 653 1168 6457 5254 4797 5860 2218 260 277 457 439 176 263 376 3642 131 79 272 227 597
internal_count=37363 35599 1764 9244 26355 1111 839 1731 1428 7513 653 1168 6457 5254 4797 5860 2218 260 277 457 439 176 263 376 3642 131 79 272 227 597
is_linear=0
shrinkage=0.05


Tree=25
num_leaves=31
num_cat=0
split_feature=4 6 6 4 6 4 5 2 0 1 6 0 4 4 5 5 7 4 2 6 0 7 5 0 0 6 7 4 0 7
split_gain=315.234 95.5564 55.5991 19.3832 18.932 11.5978 12.8766 10.8938 8.85998 7.88448 7.86841 6.89442 7.12619 6.62075 7.34492 6.617 5.85341 5.35143 5.12185 4.61112 4.48233 4.3592 6.7887 4.176 4.02908 3.92732 3.75751 3.69805 3.56607 3.1566
threshold=0.94851501414059947 0.97602642438526799 0.84776089185950632 0.98805841618094103 0.94667843893610837 0.98805841618094103 0.965843461648631 1.0000000180025095e-35 -0.91597561503675329 0.25881904510252057 0.99128563555039706 0.60355339059327384 0.92316475451012969 0.8630928080823923 0.86919224261708727 0.92039648592268719 16.216666666666672 0.97069372514258545 4.5000000000000009 0.98476143141222894 -0.98296291314453399 27.916666666666671 0.9246916116844297 0.37940952255126054 0.25881904510252091 0.97865844127645996 29.483333333333338 0.97363691349700432 -0.37940952255126059 27.916666666666671
decision_type=2 2 2 2 2 2 2 2 2 2 2 2 2 2 2 2 2 2 2 2 2 2 2 2 2 2 2 2 2 2
left_child=2 5 13 15 7 6 21 9 10 20 -6 12 -10 -1 29 -3 18 23 -9 -5 -4 24 -23 -17 -2 -13 -18 -8 -19 -15
right_child=1 3 4 19 8 -7 27 16 11 -11 -12 25 -14 14 -16 17 26 28 -20 -21 -22 22 -24 -25 -26 -27 -28 -29 -30 -31
leaf_value=-0.0023132407754959884 0.00020008037358078452 0.00084064846977513962 0.0015069596524499621 0.00082367042705016051 0.00071122562095866937 0.00082741141034998837 -1.3020514828009133e-05 0.00035689637050415323 -0.00037138166543678087 -0.00026227429671546378 0.00087419391515652738 0.00075417948990051762 0.00042319636286502192 5.0473555193073538e-05 -0.0005010987293945767 0.00044767021627138606 -0.00043034813909013057 0.00082367042705016051 -0.00058279153354469284 0.00082367042705016051 0.00052702819113722012 0.00099161523077456845 0.00058114049364189023 0.00089110992955011088 0.00064696219412095168 0.0008464152939181885 -6.3978892089175659e-05 0.00041422452568788329 0.00081251817353091048 0.00072731073306490023
leaf_weight=21253 265 119 54 111 250 341 565 754 503 374 52 179 401 122 1628 125 4269 93 397 290 632 100 390 23 183 62 3214 338 135 141
leaf_count=21253 265 119 54 111 250 341 565 754 503 374 52 179 401 122 1628 125 4269 93 397 290 632 100 390 23 183 62 3214 338 135 141
internal_value=-0.00159824 0.0137297 -0.00297433 0.0274777 -7.22568e-05 0.00808433 0.00651548 -0.00086858 0.00526261 0.00391509 0.0128808 0.00325327 0.00125 -0.00437133 -0.00153623 0.0208586 -0.00145587 0.0176064 0.0018636 0.0356484 0.00709912 0.0106183 0.0138775 0.0102027 0.00705357 0.0107676 -0.00196646 0.0022536 0.0224123 0.00621673
internal_weight=37363 3078 34285 896 11141 2182 1841 9694 1447 1060 302 1145 904 23144 1891 495 8634 376 1151 401 686 938 490 148 448 241 7483 903 228 263
internal_count=37363 3078 34285 896 11141 2182 1841 9694 1447 1060 302 1145 904 23144 1891 495 8634 376 1151 401 686 938 490 148 448 241 7483 903 228 263
is_linear=0
shrinkage=0.05


Tree=26
num_leaves=31
num_cat=0
split_feature=4 4 6 6 6 5 0 2 4 5 7 6 7 4 4 2 2 1 0 4 0 0 1 7 4 6 1 0 7 4
split_gain=288.162 78.5405 65.4536 31.0541 16.6768 12.0054 11.9148 13.6909 10.1113 10.7109 9.94302 9.0902 8.34169 6.8957 6.54866 5.81274 5.58898 7.08732 5.37707 4.96965 4.59177 10.8442 4.15092 4.00476 5.14509 3.73641 3.60365 3.06646 2.87713 2.65455
threshold=0.96823022549815818 0.88134186935004122 0.98178878628031796 0.94292823136039672 0.8180722753821098 0.87645046035472574 -0.91597561503675329 1.0000000180025095e-35 0.99511659748063075 0.98467401213647976 29.016666666666669 0.99128563555039706 13.916666666666668 0.93526686327178987 0.98467401213647976 1.5000000000000002 4.5000000000000009 0.60355339059327384 -0.91597561503675329 0.81537479032755178 -0.60355339059327362 -0.37940952255126059 0.91597561503675351 28.783333333333339 0.9217686693654118 0.98811864634571889 1.0000000180025095e-35 -0.98296291314453399 30.550000000000001 0.99994393395340875
decision_type=2 2 2 2 2 2 2 2 2 2 2 2 2 2 2 2 2 2 2 2 2 2 2 2 2 2 2 2 2 2
left_child=1 4 8 5 -1 23 7 -6 9 20 27 16 15 -12 22 -8 17 -5 -13 -9 -2 -22 -4 26 -25 29 -3 -7 -10 -16
right_child=2 3 14 11 6 10 12 19 28 -11 13 18 -14 -15 25 -17 -18 -19 -20 -21 21 -23 -24 24 -26 -27 -28 -29 -30 -31
leaf_value=-0.0025263572720341516 0.00051747396322288856 0.00048850905841008139 0.00078248690569765467 0.00073624542853239475 0.0013994762224012552 0.0013491385533576268 0.00072390650206748976 -0.00026325588076207297 0.00078248690569765467 0.000194424341110778 -7.5138423140794211e-06 0.00081672841962389863 -0.00084474577377391879 0.00035247847271548355 0.00078248690569765467 -2.1253841677432033e-05 0.0001448820708041553 0.00011992294183230549 0.00066324223350797736 0.00029187358924566827 0.00095779195130362902 0.00063698835566209039 0.00051173451118354007 0.00059098397624596233 0.001659507085202511 0.00078248690569765467 -6.5189517667912594e-05 -0.00033131551539976285 0.00081036925566599003 0.00078248690569765467
leaf_weight=19384 189 324 169 756 126 21 155 738 137 397 1678 44 5409 630 57 498 523 280 183 821 43 352 29 324 29 275 360 3316 69 47
leaf_count=19384 189 324 169 756 126 21 155 738 137 397 1678 44 5409 630 57 498 523 280 183 821 43 352 29 324 29 275 360 3316 69 47
internal_value=-0.001625 -0.00260246 0.0181009 0.00160132 -0.00391453 3.59162e-05 -0.00195366 0.00176558 0.0113858 0.00927115 -0.000872455 0.00745801 -0.00298746 0.00165078 0.0319151 0.00235069 0.00609686 0.00822394 0.0168062 0.000484284 0.0135788 0.0166456 0.0245455 0.00498071 0.00930595 0.0357652 0.00274854 -0.00261762 0.0214563 0.0276923
internal_weight=37363 35599 1764 8468 27131 6682 7747 1685 1187 981 5645 1786 6062 2308 577 653 1559 1036 227 1559 584 395 198 1037 353 379 684 3337 206 104
internal_count=37363 35599 1764 8468 27131 6682 7747 1685 1187 981 5645 1786 6062 2308 577 653 1559 1036 227 1559 584 395 198 1037 353 379 684 3337 206 104
is_linear=0
shrinkage=0.05


Tree=27
num_leaves=31
num_cat=0
split_feature=4 6 6 4 6 4 5 2 0 7 5 0 1 6 0 4 4 1 1 4 5 1 1 6 7 1 4 2 2 7
split_gain=268.52 96.941 43.9986 22.58 12.8662 11.5383 13.7971 9.42219 9.33474 9.29678 7.72947 6.94266 6.866 6.71334 6.02615 5.74069 5.63332 5.27005 4.84606 5.52711 4.74373 4.64504 10.4976 4.09676 4.08188 3.98106 3.68829 3.5328 3.29595 3.83314
threshold=0.93966932688401272 0.97602642438526799 0.83266219878351178 0.98805841618094103 0.94855826096245177 0.97363691349700432 0.95221176303095389 1.5000000000000002 -0.91597561503675329 14.250000000000002 0.98467401213647976 -0.78656609248549303 0.91597561503675351 0.99128563555039706 0.60355339059327384 0.99994393395340875 0.80673972987268738 0.98296291314453421 -0.9159756150367534 0.97864906588385847 0.7815551623949587 0.91597561503675351 0.78656609248549303 0.9635946565845811 27.450000000000006 0.1294095225512602 0.91914503271351189 1.0000000180025095e-35 4.5000000000000009 16.216666666666672
decision_type=2 2 2 2 2 2 2 2 2 2 2 2 2 2 2 2 2 2 2 2 2 2 2 2 2 2 2 2 2 2
left_child=2 5 16 12 7 6 21 9 13 25 23 -11 18 -6 26 -12 -1 -5 -3 -20 27 22 -2 24 -7 -4 -10 -18 29 -9
right_child=1 3 4 17 8 10 -8 28 14 11 15 -13 -14 -15 -16 -17 20 -19 19 -21 -22 -23 -24 -25 -26 -27 -28 -29 -30 -31
leaf_value=-0.0034240164587177381 0.00048301934777703276 0.00051488335677771289 0.00082327414234525042 0.0007433625604127748 0.00070101102514524708 0.00040688090697351526 2.6173675022795074e-05 0.00016564501121242527 -0.00052042640970685736 0.00047912436547895959 0.00019394006699480855 -0.00011625843170356176 0.000303733921553735 0.0007610352069563381 0.00075202567629593616 0.00076434309870765708 0.0013012629115085521 0.00036855512716392762 0.0007651854902718956 0.0007433625604127748 -0.00076778676880059297 -3.3019357975625153e-05 0.00076759319995948051 0.00075550806798787542 0.00076962490471935542 -0.0006092096425165108 0.00025629540265572942 7.2978041336653601e-05 -0.00061253158961280512 -0.00022972191184742402
leaf_weight=16758 777 120 211 373 225 137 1062 635 419 642 342 1875 73 48 205 72 45 28 274 85 4446 122 66 117 160 41 281 133 3357 4234
leaf_count=16758 777 120 211 373 225 137 1062 635 419 642 342 1875 73 48 205 72 45 28 274 85 4446 122 66 117 160 41 281 133 3357 4234
internal_value=-0.0016424 0.0109401 -0.00307033 0.0247482 -0.000670748 0.006331 0.00429946 -0.00120282 0.00429541 0.00131997 0.0113043 0.000403257 0.0181884 0.0123993 0.00185083 0.00647343 -0.00443644 0.0337781 0.0203653 0.023273 -0.00289144 0.00862694 0.00994662 0.0161353 0.0130135 0.0104762 -0.000357144 0.00511236 -0.00205203 -0.00122099
internal_weight=37363 3808 33555 953 12173 2855 2027 10995 1178 2769 828 2517 552 273 905 414 21382 401 479 359 4624 965 843 414 297 252 700 178 8226 4869
internal_count=37363 3808 33555 953 12173 2855 2027 10995 1178 2769 828 2517 552 273 905 414 21382 401 479 359 4624 965 843 414 297 252 700 178 8226 4869
is_linear=0
shrinkage=0.05


Tree=28
num_leaves=31
num_cat=0
split_feature=4 4 6 6 5 6 7 5 4 4 4 6 0 0 2 7 4 2 2 1 0 0 0 7 1 7 5 0 4 3
split_gain=256.874 72.2054 60.6856 29.8314 15.6877 11.2311 11.0392 9.83495 8.29697 7.29992 7.22974 6.97163 7.48289 6.33611 11.5872 6.035 5.59062 5.40521 4.85302 6.17904 4.82943 4.65053 4.33035 4.25631 4.01148 3.21484 3.38987 3.3056 3.03513 2.96488
threshold=0.96823022549815818 0.85659330960367275 0.98178878628031796 0.94292823136039672 0.84898146939660035 0.8106549544358792 28.183333333333341 0.98467401213647976 0.99994393395340875 0.91123863654875104 0.98467401213647976 0.99128563555039706 -0.91597561503675329 -0.91597561503675329 1.0000000180025095e-35 17.283333333333339 0.99121237011568009 1.5000000000000002 4.5000000000000009 0.60355339059327384 -0.91597561503675329 -0.98296291314453399 -0.98296291314453399 28.366666666666671 0.91597561503675351 27.583333333333339 0.9246916116844297 0.25881904510252091 0.7988907156027828 11.500000000000002
decision_type=2 2 2 2 2 2 2 2 2 2 2 2 2 2 2 2 2 2 2 2 2 2 2 2 2 2 2 2 2 2
left_child=1 5 7 4 21 -1 22 16 -9 -8 24 18 -13 14 -7 17 25 -15 19 -5 -18 -3 -6 -23 -4 27 -27 -2 -16 -14
right_child=2 3 10 11 6 13 9 8 -10 -11 -12 12 29 15 28 -17 20 -19 -20 -21 -22 23 -24 -25 -26 26 -28 -29 -30 -31
leaf_value=-0.0026856557797377886 0.00018940938295265863 0.0013631070005889357 0.00070575478786392607 0.00066579706136037011 0.0011483035757951967 0.0013887574879730001 -0.00011455750279666926 0.00018401816669373172 0.00071485663276592477 0.00021799463019856141 0.00070619443239213766 0.00076314127931252987 0.00046716001041358633 0.00055562023059040901 -0.00062914514694326106 -0.0011140852563784054 0.00038857895269509853 -0.00019708279211162001 0.00010437638034980705 8.1088294283483914e-05 0.00073079206228618908 0.00018627253208661416 -0.00040837072823236273 0.00069649709353285466 0.00047096108954667627 0.00089630935303798391 0.0006218704766787098 0.00071865612376945782 0.00015022644654824838 0.00086388798957479573
leaf_weight=18118 144 36 169 825 46 92 2179 440 88 1606 379 49 156 180 598 3820 25 682 589 295 92 711 4488 372 29 28 268 102 721 36
leaf_count=18118 144 36 169 825 46 92 2179 440 88 1606 379 49 156 180 598 3820 25 682 589 295 92 711 4488 372 29 28 268 102 721 36
internal_value=-0.00165712 -0.00257999 0.0169671 0.000703371 -0.000459844 -0.00412437 -0.00120748 0.0105013 0.00541667 0.000785996 0.0302686 0.00633333 0.0142946 -0.00226736 0.000669737 -0.0031525 0.0145751 0.000626449 0.00521065 0.00714286 0.0244872 0.0050983 -0.00287164 0.00451062 0.0225253 0.0124354 0.0159459 0.00821138 -0.000526916 0.00984375
internal_weight=37363 35599 1764 11388 9438 24211 8319 1187 528 3785 577 1950 241 6093 1411 4682 659 862 1709 1120 117 1119 4534 1083 198 542 296 246 1319 192
internal_count=37363 35599 1764 11388 9438 24211 8319 1187 528 3785 577 1950 241 6093 1411 4682 659 862 1709 1120 117 1119 4534 1083 198 542 296 246 1319 192
is_linear=0
shrinkage=0.05


Tree=29
num_leaves=31
num_cat=0
split_feature=4 4 6 6 6 5 5 0 2 4 6 4 4 5 0 7 1 4 7 7 4 0 2 1 2 2 3 7 0 5
split_gain=244.616 72.4556 53.0224 24.2472 15.4182 11.3759 11.2581 10.9367 15.5176 8.89377 8.18282 7.02407 6.85902 6.84042 6.72403 6.55574 5.4838 5.44232 5.32577 4.54331 4.53311 4.82943 4.52602 4.5213 4.73424 3.61899 3.28788 3.23251 3.19507 2.77997
threshold=0.97069372514258545 0.87520228651505982 0.98178878628031796 0.94292823136039672 0.7896836924748557 0.87645046035472574 0.98467401213647976 -0.91597561503675329 1.0000000180025095e-35 0.93829253802678281 0.99128563555039706 0.99994393395340875 0.99994393395340875 0.95042738657874848 -0.91597561503675329 16.083333333333339 0.91597561503675351 0.81537479032755178 30.816666666666666 28.183333333333341 0.99121237011568009 -0.91597561503675329 1.5000000000000002 0.91597561503675351 3.5000000000000004 4.5000000000000009 11.500000000000002 25.916666666666671 0.37940952255126054 0.87645046035472574
decision_type=2 2 2 2 2 2 2 2 2 2 2 2 2 2 2 2 2 2 2 2 2 2 2 2 2 2 2 2 2 2
left_child=1 4 6 5 -1 25 20 8 29 18 23 -8 16 -11 -12 22 19 -10 -7 28 -2 -22 -9 24 -5 27 -16 -3 -4 -6
right_child=2 3 12 10 7 9 11 15 17 13 14 -13 -14 -15 26 -17 -18 -19 -20 -21 21 -23 -24 -25 -26 -27 -28 -29 -30 -31
leaf_value=-0.0030269425762891712 0.00061598523767484757 0.00028245603833491694 0.00067088471077252911 0.00061617983895610338 0.0013599370028188461 -0.0004230721764841793 0.00017551752111480756 0.00048593065516614977 -0.00043720650504431679 0.00039227530069870859 0.00069968317432925935 0.00067911380112762796 0.00067088471077252911 -1.6276740106709823e-05 0.00044773863839049307 -0.00088579732408699998 0.00050378094805081451 0.0002678428469132211 6.2565672939352484e-05 0.00067088471077252911 0.00036915000506034543 0.00069425245917187849 -0.00021292892692558043 -0.00013441273539849304 0.00023854732677112045 -9.6049619836673173e-05 0.00081647431167257531 0.00068888496029744688 0.00067275744110947139 -0.00034942453312831871
leaf_weight=16396 445 517 65 777 157 3337 419 251 1096 550 44 88 175 811 161 6862 72 814 1400 171 25 92 805 194 702 314 40 497 66 20
leaf_count=16396 445 517 65 777 157 3337 419 251 1096 550 44 88 175 811 161 6862 72 814 1400 171 25 92 805 194 702 314 40 497 66 20
internal_value=-0.00167318 -0.00253392 0.0173424 0.00125 -0.00387315 -4.44397e-05 0.0108559 -0.00232634 0.000893626 -0.000957692 0.00626173 0.00545365 0.0299727 0.0026047 0.0147959 -0.00317505 0.0261497 -0.000418849 -0.00198121 0.029106 0.0157295 0.0244872 0.000492423 0.00501195 0.00595335 0.0041491 0.0109204 0.00560158 0.0220992 0.0150565
internal_weight=37363 35745 1618 9344 26401 7426 1069 10005 2087 6098 1918 507 549 1361 245 7918 374 1910 4737 302 562 117 1056 1673 1479 1328 201 1014 131 177
internal_count=37363 35745 1618 9344 26401 7426 1069 10005 2087 6098 1918 507 549 1361 245 7918 374 1910 4737 302 562 117 1056 1673 1479 1328 201 1014 131 177
is_linear=0
shrinkage=0.05


Tree=30
num_leaves=31
num_cat=0
split_feature=4 4 6 5 4 5 0 5 1 4 0 7 1 5 7 4 4 6 4 0 6 2 0 1 5 0 7 5 7 4
split_gain=230.411 72.4366 48.2186 26.2996 25.9405 19.7651 13.6618 9.92873 9.55236 9.44999 7.94391 7.27502 8.64565 7.23089 6.46741 6.30149 6.29602 6.01331 5.98463 5.62879 4.58506 4.45337 4.37869 3.93994 3.37825 3.13777 3.13264 2.68421 2.47714 2.25333
threshold=0.97363691349700432 0.91123863654875104 0.98178878628031796 0.90969951832858598 0.80137727893110411 0.80004411234230399 -0.91597561503675329 0.98467401213647976 -0.12940952255126037 0.93966932688401272 -0.98296291314453399 28.250000000000004 -0.5 0.96104794210756583 29.683333333333341 0.99994393395340875 0.99994393395340875 0.9635946565845811 0.93678472009066971 0.91597561503675362 0.99994393395340875 4.5000000000000009 -0.98296291314453399 0.91597561503675351 0.96104794210756583 -0.37940952255126059 27.450000000000006 0.97601873040911369 20.783333333333339 0.98805841618094103
decision_type=2 2 2 2 2 2 2 2 2 2 2 2 2 2 2 2 2 2 2 2 2 2 2 2 2 2 2 2 2 2
left_child=1 4 7 10 -1 19 8 17 -7 -5 -3 12 -12 23 -8 20 -9 26 -13 22 24 -21 -6 -11 -4 -26 -2 -19 -17 -29
right_child=2 3 15 9 5 6 14 16 -10 13 11 18 -14 -15 -16 28 -18 27 -20 21 -22 -23 -24 -25 25 -27 -28 29 -30 -31
leaf_value=-0.0027739231404397212 0.00031799674500893098 0.00097280504966701592 0.0006373404752339052 -0.00020054276738659793 0.00073880504724230559 -0.00052762229712677322 -0.0008293575522788371 0.00016763619494412733 0.00046536188999436457 0.00045051622409650701 0.00075083835023997557 0.00055524669466188424 8.4862090121779913e-05 -1.4396969670915202e-05 -0.00016431615903509316 0.0006373404752339052 0.00064515811107124709 0.0006426924080912234 0.00085079009887673517 0.00065482153018142132 0.0006373404752339052 -0.00015698660090709385 0.00017021903677267715 -4.0958328914383302e-05 0.0006373404752339052 0.0006373404752339052 0.00066125700952529532 4.4470153545190118e-05 0.0006373404752339052 0.00063509746047593976
leaf_weight=17933 137 27 77 1893 99 559 6418 375 969 941 255 454 479 870 3128 25 88 138 142 224 109 64 1241 195 55 108 160 20 150 30
leaf_count=17933 137 27 77 1893 99 559 6418 375 969 941 255 454 479 870 3128 25 88 138 142 224 109 64 1241 195 55 108 160 20 150 30
internal_value=-0.00173206 -0.00252724 0.0176562 0.00289574 -0.00345765 -0.00172886 -0.0024851 0.0109283 0.00190445 0.000809181 0.00889093 0.00834586 0.00501362 0.0032004 -0.00318772 0.0298282 0.00569114 0.0159278 0.0124497 0.00341523 0.0259456 0.00975694 0.00205224 0.00582746 0.0220833 0.0180061 0.0114983 0.0229255 0.0375714 0.013
internal_weight=37363 35891 1472 5256 30635 12702 11074 948 1528 3899 1357 1330 734 2006 9546 524 463 485 596 1628 349 288 1340 1136 240 163 297 188 175 50
internal_count=37363 35891 1472 5256 30635 12702 11074 948 1528 3899 1357 1330 734 2006 9546 524 463 485 596 1628 349 288 1340 1136 240 163 297 188 175 50
is_linear=0
shrinkage=0.05


Tree=31
num_leaves=31
num_cat=0
split_feature=4 4 6 6 6 5 0 7 5 2 6 4 4 7 6 4 2 5 1 7 4 2 6 2 7 5 3 2 4 1
split_gain=214.352 67.2447 47.073 19.3436 16.0486 10.5211 9.55359 8.68085 8.4108 7.94991 7.23739 6.7886 6.524 6.41851 5.95689 5.8476 4.73316 4.44465 4.44187 4.34699 4.04189 3.91165 3.13638 3.09229 2.82431 2.77108 2.7133 2.7 2.6367 2.53873
threshold=0.97363691349700432 0.87520228651505982 0.98178878628031796 0.94292823136039672 0.79621222911041734 0.87645046035472574 -0.91597561503675329 28.183333333333341 0.98467401213647976 1.0000000180025095e-35 0.99128563555039706 0.93526686327178987 0.99994393395340875 17.283333333333339 0.9635946565845811 0.99994393395340875 2.5000000000000004 0.89848636526085823 0.91597561503675351 28.366666666666671 0.78541317737006977 1.5000000000000002 0.85673341857625085 4.5000000000000009 27.450000000000006 0.76538424303944175 5.5000000000000009 1.0000000180025095e-35 0.91257723468750951 0.37940952255126048
decision_type=2 2 2 2 2 2 2 2 2 2 2 2 2 2 2 2 2 2 2 2 2 2 2 2 2 2 2 2 2 2
left_child=1 4 8 5 -1 23 9 28 14 22 16 -9 -10 21 24 18 17 -5 29 -12 -11 -8 -6 25 -2 -3 -21 -26 -7 -4
right_child=2 3 15 10 6 7 13 11 12 20 19 -13 -14 -15 -16 -17 -18 -19 -20 26 -22 -23 -24 -25 27 -27 -28 -29 -30 -31
leaf_value=-0.0026024691623157737 0.00030209690775848168 0.0014628957837435994 0.00060547345147221045 0.00066077938082442225 0.001423699533395493 -0.00059646319013289444 0.00055327036172112703 -2.5936983323659308e-05 0.00015925438519692295 -0.0010551635928721078 0.00067244848743154681 0.00032055877020812132 0.00061290020551768489 -0.00082961548980069102 0.00060874694870349669 0.00060547345147221045 0.0001902192413422688 0.00038234685383035862 0.00045849961415654644 0.00061380771013427188 0.00015779971151718105 -0.00014561113010299066 0.00081951324227381636 -9.1935052987664393e-05 0.00071127760772839946 0.00040561328390847944 0.00019705997860495063 0.00057995121889827851 -9.6473250606095103e-05 0.00060547345147221045
leaf_weight=17070 137 24 167 215 103 1609 257 2060 375 590 108 753 88 6229 188 175 1116 411 67 63 1209 887 56 314 40 991 86 120 1740 115
leaf_count=17070 137 24 167 215 103 1609 257 2060 375 590 108 753 88 6229 188 175 1116 411 67 63 1209 887 56 314 40 991 86 120 1740 115
internal_value=-0.00175749 -0.00252445 0.0169429 0.00108535 -0.00382202 -8.07648e-05 -0.00215465 -0.000950991 0.0102954 0.000949948 0.00545523 0.00109669 0.00547516 -0.00297911 0.0148969 0.0289695 0.00429965 0.00777955 0.0252292 0.0132879 2.77813e-06 0.000463286 0.0116667 0.0039541 0.0104882 0.00529557 0.00775168 0.015 -0.00267095 0.0279787
internal_weight=37363 35891 1472 9490 26401 7491 9331 6162 948 1958 1999 2813 463 7373 485 524 1742 626 349 257 1799 1144 159 1329 297 1015 149 160 3349 282
internal_count=37363 35891 1472 9490 26401 7491 9331 6162 948 1958 1999 2813 463 7373 485 524 1742 626 349 257 1799 1144 159 1329 297 1015 149 160 3349 282
is_linear=0
shrinkage=0.05


Tree=32
num_leaves=31
num_cat=0
split_feature=4 4 6 6 5 6 6 7 5 2 0 4 6 2 4 4 6 1 0 5 2 2 7 7 5 7 4 4 0 6
split_gain=198.942 64.3174 49.432 20.4809 15.0317 11.4451 9.75595 9.31527 7.60471 6.90125 8.00273 6.46135 6.26738 5.35394 5.24409 5.02422 4.99494 4.20769 4.09646 4.04122 4.02353 3.93765 3.83884 3.53422 3.35823 4.14286 3.22346 2.76704 2.67809 2.51594
threshold=0.97363691349700432 0.85182560892402093 0.98178878628031796 0.92325345895215161 0.84898146939660035 0.7896836924748557 0.99128563555039706 29.016666666666669 0.97363691349700432 1.0000000180025095e-35 -0.91597561503675329 0.99994393395340875 0.9635946565845811 2.5000000000000004 0.93678472009066971 0.99511659748063075 0.99994393395340875 0.60355339059327384 -0.91597561503675329 0.96104794210756583 2.5000000000000004 1.0000000180025095e-35 20.783333333333339 17.283333333333339 0.73406903086000685 29.683333333333341 0.78282411903918137 0.91257723468750951 -0.25881904510252113 0.8554732160715236
decision_type=2 2 2 2 2 2 2 2 2 2 2 2 2 2 2 2 2 2 2 2 2 2 2 2 2 2 2 2 2 2
left_child=1 5 8 4 24 -1 13 27 12 10 29 16 21 17 -9 -10 19 -5 26 -4 -8 -2 -12 -20 -3 -26 -11 -6 -21 -7
right_child=2 3 11 6 7 9 20 14 15 18 22 -13 -14 -15 -16 -17 -18 -19 23 28 -22 -23 -24 -25 25 -27 -28 -29 -30 -31
leaf_value=-0.0027893040367113747 0.00085408874116315149 0.00063335908801028678 0.00057519977889859968 0.00052707433247548366 -0.00062293566891508383 0.0013479961863880692 0.00061664551067350129 -2.1027975783110285e-05 0.00030951356370892923 -0.0010678654556172714 0.00057266682329258189 0.00057519977889859968 0.00058129799813650415 9.1210075968027878e-05 0.0003741510845559004 0.00057380585520023489 0.00057519977889859968 0.00011360505683363344 -9.5170111071733461e-05 0.00057519977889859968 0.00051905083512829276 0.00049390553252947928 -0.00044165383404108389 -0.0011090955020965105 0.00021551507982495597 0.00055777052219807316 0.00011255730429143976 -9.8380065666694348e-05 0.00057519977889859968 0.00011481571788158246
leaf_weight=16115 54 20 77 906 3086 94 74 2485 472 633 121 175 119 2100 406 158 109 371 878 84 193 145 463 4351 706 330 945 1587 79 27
leaf_count=16115 54 20 77 906 3086 94 74 2485 472 633 121 175 119 2100 406 158 109 371 878 84 193 145 463 4351 706 330 945 1587 79 27
internal_value=-0.00175214 -0.00249102 0.0162636 0.000446835 -0.000881672 -0.00401596 0.00358946 -0.00166182 0.00945148 -0.00240415 0.00230496 0.0285878 0.0157547 0.00286201 0.000569006 0.00626984 0.0246562 0.00541503 -0.00289188 0.020625 0.0127903 0.0103266 -0.000119864 -0.00356569 0.00470644 0.00431467 -0.000659063 -0.00304194 0.0161656 0.0140083
internal_weight=37363 35891 1472 12264 8620 23627 3644 7564 948 7512 705 524 318 3377 2891 630 349 1277 6807 240 267 199 584 5229 1056 1036 1578 4673 163 121
internal_count=37363 35891 1472 12264 8620 23627 3644 7564 948 7512 705 524 318 3377 2891 630 349 1277 6807 240 267 199 584 5229 1056 1036 1578 4673 163 121
is_linear=0
shrinkage=0.05


Tree=33
num_leaves=31
num_cat=0
split_feature=4 4 6 6 5 4 5 5 4 7 0 5 6 6 1 4 5 3 7 6 2 1 3 0 7 4 0 3 0 2
split_gain=186.01 60.0471 53.6537 20.6392 15.0293 11.112 10.2108 7.59759 7.31712 6.35504 5.61025 5.60097 5.28719 5.04572 4.65941 4.59025 4.55054 3.93799 3.72827 3.6239 3.54369 4.74322 3.53141 3.51169 3.05494 3.15949 3.54174 3.00863 2.91904 4.5962
threshold=0.97069372514258545 0.81665207118537231 0.98178878628031796 0.94292823136039672 0.81665207118537231 0.91257723468750951 0.9217686693654118 0.97069372514258545 0.98805841618094103 29.683333333333341 -0.98296291314453399 0.71210382544704498 0.99128563555039706 0.79621222911041734 0.98296291314453421 0.99511659748063075 0.96104794210756583 11.500000000000002 28.366666666666671 0.9635946565845811 4.5000000000000009 0.60355339059327384 5.5000000000000009 -0.5 17.983333333333338 0.74213220235784816 0.98296291314453421 3.5000000000000004 -0.91597561503675329 1.0000000180025095e-35
decision_type=2 2 2 2 2 2 2 2 2 2 2 2 2 2 2 2 2 2 2 2 2 2 2 2 2 2 2 2 2 2
left_child=1 13 7 4 10 9 -7 19 16 -6 -3 -12 20 -1 18 -9 -4 22 -10 27 21 -5 -14 -18 25 -15 -27 -2 29 -26
right_child=2 3 8 12 5 6 -8 15 14 -11 11 -13 17 24 -16 -17 23 -19 -20 -21 -22 -23 -24 -25 28 26 -28 -29 -30 -31
leaf_value=-0.0029666186423474524 -4.1730089741397361e-06 0.0010395260322673765 0.00054637766773786274 0.00050276152959439786 -0.00059500729115608919 0.00030938735756767311 -6.0712795954296157e-05 0.00028874464850371656 0.00054643978995366771 -7.6674935531247608e-05 0.00077809397388189569 0.00026079515491805476 0.00062295300970233733 -0.0006700072839995741 0.00022331874609737292 0.00054504460809391686 0.0005454775411196306 0.0006210421751832848 0.00054643978995366771 0.00055233595062733818 3.2522035697939455e-05 -4.9358855390739602e-05 0.00012838572740378313 0.00042284335207965114 0.001012155342735619 6.7691479177574626e-05 0.00060079846231745487 0.00057169261601782405 -0.0014842784093196514 -0.00033198418310763345
leaf_weight=15594 51 85 102 911 5754 1055 2436 571 120 3101 65 1392 98 301 21 159 40 61 196 126 665 332 105 70 47 500 72 162 2342 829
leaf_count=15594 51 85 102 911 5754 1055 2436 571 120 3101 65 1392 98 301 21 159 40 61 196 126 665 332 105 70 47 500 72 162 2342 829
