tree
version=v4
num_class=1
num_tree_per_iteration=1
label_index=0
max_feature_idx=7
objective=quantile
feature_names=hour_sin hour_cos dayofweek month load_lag_1 load_lag_2 load_lag_24 Northern_Region_Avg_T2M
feature_infos=[-1:1] [-1:1] [0:6] [1:12] [0.38418797319346443:1] [0.38418797319346443:1] [0.38418797319346443:1] [2.2000000000000002:44.166666666666657]
tree_sizes=2719 2886 2899 2903 2909 2912 2910 2921 2923 2911 2911 2903 2927 2922 2907 2927 2926 2903 2935 2942 2942 2928 2928 2953 2925 2922 2935 2941 2946 2934 2919 2920 2943 2953 2933 2938 2939 2947 2956 2963 2964 2956 2924 2933 2943 2967 2942 2904 2944 2944 2953 2960 2957 2961 2978 2940 2967 2936 2964 2965 2959 2964 2972 2979 2948 2958 2970 2971 2985 2942 2954 2973 2982 2967 2988 2951 2960 2992 2968 2975 2964 2977 2985 2987 2980 2988 2953 3000 2989 2979 2986 2974 2982 2971 2977 2983 2959 2991 2972 2962 3014 2970 2973 2966 2970 2972 2986 2983 2999 2987 2984 2993 2977 2998 2979 2970 2990 2985 2975 2978 2988 2994 2999 2975 2996 2968 2982 2985 3014 2985 3001 2979 2996 2996 2990 2988 2996 2963 2977 2984 2981 2998 2967 2953 3011 2982 2964 2972 3000 2952 2978 3000 2994 3002 2977 2974 2982 2966 2969 2973 2972 2970 2971 2976 2963 2973 2990 2951 2984 2984 2983 2974 2976 2946 2971 2948 2950 3007 2990 2999 2962 2948 3000 2971 2980 2982 2969 2974 3008 2978 2952 2979 2977 2979 2949 3005 2958 2986 2948 2945 2980 2991 2984 2954 2988 3002 2982 2988 2977 2995 2994 2988 2972 2967 2987 2996 3003 2979 2968 2976 2992 3000 2990 2959 3002 3002 2955 2984 2994 2994 2987 2977 2978 2982 2991 2994 2965 2981 2989 2989 2958 2984 2948 2987 2997 2972 3017 2992 2969 2950 2954 2983 2976 2984 2989 2986 2962 2986 2999 2991 3003 2952 2978 2971 3000 2994 2961 2962 3003 2971 2974 2973 2985 2966 2995 2991 2972 2984 2980 2942 3007 2962 2973 3001 2997 2965 3002 2992 2970 2988 2973 2974 3004 2977 2988 3010 2977 2965 3007 2983

Tree=0
num_leaves=31
num_cat=0
split_feature=4 6 1 6 7 4 4 1 4 1 4 0 7 4 4 5 6 5 1 4 1 0 4 5 4 4 5 0 7 0
split_gain=2149.55 295.438 76.8893 52.655 40.231 33.4155 32.2644 31.6686 25.1082 17.1564 15.6671 11.6253 10.9706 10.2771 7.49881 13.4989 7.47387 6.24312 6.14458 5.04215 19.8738 4.2664 4.19283 3.81635 3.41811 2.77968 6.47395 2.70063 2.52083 2.48804
threshold=0.64555021857774531 0.63220953497095211 0.60355339059327384 0.63746503796140119 19.383333333333336 0.56235551158765384 0.62479704691258053 0.91597561503675351 0.67913975823199202 0.37940952255126048 0.62479704691258053 -0.91597561503675329 13.583333333333336 0.65928485891147159 0.66641681407293063 0.70676537514990012 0.60304665810160929 0.65928485891147159 0.91597561503675351 0.61883163840671085 0.60355339059327384 0.91597561503675362 0.57228613487181801 0.62978253964638076 0.65732820709176665 0.66641681407293063 0.69338158240519576 0.12940952255126045 16.983333333333338 0.60355339059327384
decision_type=2 2 2 2 2 2 2 2 2 2 2 2 2 2 2 2 2 2 2 2 2 2 2 2 2 2 2 2 2 2
left_child=1 9 4 7 5 -3 11 25 12 10 16 -6 27 -14 15 18 -1 -8 -5 -11 28 -7 -18 -12 -20 26 -2 -9 -21 -22
right_child=3 2 -4 14 6 21 17 8 -10 19 23 -13 13 -15 -16 -17 22 -19 24 20 29 -23 -24 -25 -26 -27 -28 -29 -30 -31
leaf_value=0.62490392390061955 0.63088895499981335 0.62632767598869921 0.62728685588384281 0.63127322793153628 0.62848074028057144 0.63038081407577584 0.63047944457645055 0.62931172490278831 0.63099767089541681 0.62510779649629833 0.6310877323166777 0.62821035208101583 0.62993089557089044 0.63075364828228708 0.63488774512532797 0.62958126962203986 0.62607788894632277 0.62966525555990915 0.63013508559651565 0.63097274422674554 0.6289724433424454 0.63175256997619811 0.6285374152664267 0.62968223720879235 0.63079304218486143 0.63176860690845937 0.62953124256301163 0.63010403692861283 0.63045236766338353 0.62995558351289882
leaf_weight=363 214 58 226 801 103 130 266 77 140 1766 26 245 76 90 30900 31 76 46 29 24 387 506 147 64 37 337 22 48 24 104
leaf_count=363 214 58 226 801 103 130 266 77 140 1766 26 245 76 90 30900 31 76 46 29 24 387 506 147 64 37 337 22 48 24 104
internal_value=0.630922 0.59876 0.616239 0.635394 0.620745 0.62915 0.611907 0.62412 0.613881 0.589495 0.596499 0.60144 0.60551 0.613935 0.63575 0.631245 0.593516 0.623583 0.632405 0.587441 0.591674 0.632463 0.600721 0.615923 0.617741 0.631821 0.62766 0.594323 0.622381 0.588672
internal_weight=37363 4561 1580 32802 1354 694 660 1004 431 2981 676 348 291 166 31798 898 586 312 867 2305 539 636 223 90 66 573 236 125 48 491
internal_count=37363 4561 1580 32802 1354 694 660 1004 431 2981 676 348 291 166 31798 898 586 312 867 2305 539 636 223 90 66 573 236 125 48 491
is_linear=0
shrinkage=1


Tree=1
num_leaves=31
num_cat=0
split_feature=4 6 1 6 7 4 4 1 4 1 4 7 4 5 0 7 0 7 4 5 7 0 0 6 0 4 0 4 0 4
split_gain=2053.79 299.193 79.2218 47.3856 38.2147 33.2477 27.1417 26.0265 17.0442 16.5721 14.6194 9.81747 9.50798 15.7447 9.28008 7.07755 7.04412 6.42691 12.3266 5.96969 5.7472 5.69265 5.51656 5.45875 7.34294 10.5022 4.31065 3.82904 5.60013 3.74269
threshold=0.64555021857774531 0.62725192204121949 0.60355339059327384 0.63220953497095211 19.383333333333336 0.62479704691258053 0.56716886566736491 0.91597561503675351 0.67659600875245685 0.37940952255126048 0.60304665810160929 17.983333333333338 0.66429372997703717 0.69338158240519576 -0.91597561503675329 21.083333333333336 0.91597561503675362 18.683333333333341 0.56716886566736491 0.65928485891147159 23.349999999999998 0.12940952255126045 -0.91597561503675329 0.61561700388111229 0.78656609248549325 0.60605938784595137 0.12940952255126045 0.63993782904581298 0.37940952255126054 0.54797484094917726
decision_type=2 2 2 2 2 2 2 2 2 2 2 2 2 2 2 2 2 2 2 2 2 2 2 2 2 2 2 2 2 2
left_child=1 9 4 7 6 14 29 -2 11 10 17 21 13 -5 -6 -12 -8 18 -1 -7 26 -9 -17 -11 -25 -26 -15 -4 -29 -3
right_child=3 2 27 12 5 19 16 8 -10 23 15 -13 -14 20 -16 22 -18 -19 -20 -21 -22 -23 -24 24 25 -27 -28 28 -30 -31
leaf_value=-0.0049268516075949183 1.6961956585822885e-05 -0.0066798339288340006 -0.0038083786741358698 0.00016931206030873502 -0.0024723503830345163 -0.00044194466973501711 -0.00062943660692933452 -0.0014050161174840453 -7.4717458760287242e-05 -0.0052835009007871862 0.00038336677127695441 -0.00028432696990475791 0.0036701690138623735 -0.0012742219863509708 -0.0026624836531908727 -0.00026812334696004847 0.00081210977174788206 -0.0058807620329388473 -0.00052022628604613181 -0.0011546492443946898 -2.7510507182193502e-06 -0.00056760796474812918 -0.001787145788326238 -0.0026537135733756159 -0.0022618309342967379 -2.0623276253600845e-05 -0.00019070541718181101 -0.0015535065711509051 -0.0004054995484502444 -0.001991917607012715
leaf_weight=99 475 36 223 766 106 277 153 114 119 2005 27 65 31120 31 266 23 512 287 46 48 23 68 138 161 34 30 21 26 24 40
leaf_count=99 475 36 223 766 106 277 153 114 119 2005 27 65 31120 31 266 23 512 287 46 48 23 68 138 161 34 30 21 26 24 40
internal_value=9.67537e-05 -0.0313407 -0.014813 0.00446802 -0.0101252 -0.0185294 -0.00221997 -0.00724732 -0.0172678 -0.0412632 -0.0340323 -0.0247571 0.00477629 -0.000469679 -0.0287366 -0.0223936 0.00101504 -0.0390972 -0.0305172 -0.00684615 -0.0223333 -0.0307143 -0.0263665 -0.0432735 -0.0358889 -0.0215625 -0.0315385 -0.0395055 -0.027 -0.0305263
internal_weight=37363 4561 1711 32802 1438 697 741 841 366 2850 620 247 31961 841 372 188 665 432 145 325 75 182 161 2230 225 64 52 273 50 76
internal_count=37363 4561 1711 32802 1438 697 741 841 366 2850 620 247 31961 841 372 188 665 432 145 325 75 182 161 2230 225 64 52 273 50 76
is_linear=0
shrinkage=0.05


Tree=2
num_leaves=31
num_cat=0
split_feature=4 6 1 6 4 1 4 0 7 4 1 7 4 4 0 0 4 5 7 0 4 4 7 0 5 4 4 5 7 0
split_gain=1919.62 299.979 72.8367 44.7739 34.568 25.6243 27.3651 25.402 21.0258 17.1471 29.6189 15.0468 10.2619 9.10819 10.4625 8.86959 8.48311 16.2136 7.16851 6.92075 13.8057 6.65482 10.4928 6.34615 5.88478 5.88802 5.27715 10.1539 5.00068 3.79925
threshold=0.64555021857774531 0.62479704691258053 0.60355339059327384 0.64555021857774531 0.60304665810160929 0.91597561503675351 0.65928485891147159 0.91597561503675362 18.983333333333338 0.61561700388111229 0.60355339059327384 18.550000000000001 0.62978253964638076 0.62978253964638076 0.60355339059327384 0.91597561503675362 0.68302837757218771 0.718633850134209 22.916666666666671 0.37940952255126054 0.63220953497095211 0.54797484094917726 18.383333333333336 -0.98296291314453399 0.69338158240519576 0.65020304486995906 0.68099669996448375 0.70676537514990012 19.916666666666668 0.12940952255126045
decision_type=2 2 2 2 2 2 2 2 2 2 2 2 2 2 2 2 2 2 2 2 2 2 2 2 2 2 2 2 2 2
left_child=1 9 4 5 7 -2 24 23 -6 15 18 -9 -10 -4 -15 -1 17 -8 -11 -12 -21 -17 -23 -3 25 -7 27 -5 29 -29
right_child=3 2 13 26 8 6 16 11 12 10 19 -13 -14 14 -16 21 -18 -19 -20 20 -22 22 -24 -25 -26 -27 -28 28 -30 -31
leaf_value=-0.0054296306486045108 0.0001161353224906514 -0.0017769180728196721 -0.0041041033922932825 0.00040322467441621383 0.00039628788914262243 -0.00087537015760064292 -9.7387851911429077e-05 -0.00091387622121452249 -0.0013678243903958054 5.3991213549497833e-05 -0.0018219262402600922 -0.0026686748433364252 -0.00043791921550627314 -0.0011123789612968674 -0.00019280304949189644 -0.0053157188121795663 0.00012066073202221394 -0.00093984167931790766 -0.0011198929320474841 -0.00095408493392083098 -0.00038205624800978223 -0.0007367141741081132 -0.0028613303874023815 -0.0030896985606039718 -0.0015181841591405062 -0.00025875896309873758 0.0040217089076047263 -0.0012286396401968132 0.00019237817546438528 -0.00011558071603853249
leaf_weight=1879 733 30 163 1467 466 21 132 236 265 48 263 50 264 99 47 102 173 99 106 136 80 71 91 165 77 45 29939 45 49 22
leaf_count=1879 733 30 163 1467 466 21 132 236 265 48 263 50 264 99 47 102 173 99 106 136 80 71 91 165 77 45 29939 45 49 22
internal_value=0.000214517 -0.0301787 -0.0141877 0.00444058 -0.0095664 -0.00472656 -0.0129159 -0.0205717 -0.00424623 -0.0404611 -0.0332306 -0.0110839 -0.0110681 -0.0362621 -0.0271918 -0.0425968 -0.00626238 -0.0125325 -0.0141558 -0.0393633 -0.0327315 -0.0340152 -0.027716 -0.0344872 -0.0317133 -0.0207576 0.00481283 0.00199937 -0.0122414 -0.0211194
internal_weight=37363 4561 1785 32802 1476 1280 547 481 995 2776 633 286 529 309 146 2143 404 231 154 479 216 264 162 195 143 66 31522 1583 116 67
internal_count=37363 4561 1785 32802 1476 1280 547 481 995 2776 633 286 529 309 146 2143 404 231 154 479 216 264 162 195 143 66 31522 1583 116 67
is_linear=0
shrinkage=0.05


Tree=3
num_leaves=31
num_cat=0
split_feature=4 6 4 1 0 4 1 4 1 7 7 4 7 5 7 4 0 4 6 3 4 0 4 6 4 4 0 1 0 0
split_gain=1831.01 263.716 67.5095 80.8325 56.3958 25.4909 24.8285 46.3569 20.9463 14.9979 13.2899 12.6555 12.2378 10.5295 8.86384 8.30711 11.8736 7.95006 7.69333 10.7195 9.52845 12.2564 6.96498 6.91961 6.43654 6.10826 5.55751 5.24417 5.22778 5.20856
threshold=0.63993782904581298 0.62725192204121949 0.66429372997703717 0.91597561503675351 0.78656609248549325 0.5851868930973102 0.60355339059327384 0.59656029101636487 0.78656609248549303 21.816666666666666 18.550000000000001 0.61561700388111229 19.383333333333336 0.68747471515225123 15.433333333333335 0.63220953497095211 0.60355339059327384 0.55495658542905746 0.65488470592465309 2.5000000000000004 0.69143230690909729 0.12940952255126045 0.60304665810160929 0.66200929049324742 0.65488470592465309 0.65020304486995906 -0.91597561503675329 0.37940952255126048 -0.91597561503675329 0.91597561503675362
decision_type=2 2 2 2 2 2 2 2 2 2 2 2 2 2 2 2 2 2 2 2 2 2 2 2 2 2 2 2 2 2
left_child=1 6 3 13 8 14 7 29 11 -9 -5 23 27 -2 17 -8 -17 -6 19 20 21 -4 -14 -3 -15 -12 -11 -7 -13 -1
right_child=2 4 18 10 5 12 15 9 -10 26 25 28 22 24 -16 16 -18 -19 -20 -21 -22 -23 -24 -25 -26 -27 -28 -29 -30 -31
leaf_value=-0.0053347983986319963 6.1075577292851022e-05 -0.0027874479444903212 -0.00076094248879236153 -0.0013886608199187331 -0.006546330119439398 0.0011214828700162082 -0.0048784762417014961 -0.00029414266585474081 -0.003523182895527905 -0.00042633343285365617 -0.00048205736259842853 -0.00019581649253529304 -0.0019252568179943461 -0.0017735031058136567 -0.0030144025857194948 -0.0015690757323868099 -0.00019002145105930594 -0.00084330794243506896 0.0036037429526004417 0.00035866292635694058 8.833253117563571e-05 7.4568342196288892e-05 -0.00055966204658846805 -0.0024045993876166739 -0.00044806878339589306 -0.00016352965539615484 -0.001605947852512492 -0.00032853884182844763 -0.00097175645245575087 -0.0042804207499234021
leaf_weight=550 1077 88 83 218 30 416 1515 134 153 27 26 73 38 31 64 112 31 82 30490 893 118 42 161 116 52 66 157 131 159 230
leaf_count=550 1077 88 83 218 30 416 1515 134 153 27 26 73 38 31 64 112 31 82 30490 893 118 42 161 116 52 66 157 131 159 230
internal_value=0.000309531 -0.0305168 0.0042839 -0.00619048 -0.0137293 -0.00600868 -0.0397206 -0.0338889 -0.0258149 -0.0177987 -0.028871 -0.0202294 -0.00197051 -0.00012931 -0.023125 -0.0435826 -0.0320629 -0.0146429 0.00477076 0.000730634 -0.00858025 -0.0182 -0.0125879 -0.0293137 -0.0172892 -0.0129348 -0.0270652 0.00189214 -0.0122414 -0.0404487
internal_weight=37363 4267 33096 1470 1511 922 2756 1098 589 318 310 436 746 1160 176 1658 143 112 31626 1136 243 125 199 204 83 92 184 547 232 780
internal_count=37363 4267 33096 1470 1511 922 2756 1098 589 318 310 436 746 1160 176 1658 143 112 31626 1136 243 125 199 204 83 92 184 547 232 780
is_linear=0
shrinkage=0.05


Tree=4
num_leaves=31
num_cat=0
split_feature=4 6 4 1 0 1 4 4 0 4 5 7 7 4 0 5 7 4 4 4 1 4 5 0 7 4 4 0 1 4
split_gain=1720.48 244.438 74.0429 76.5795 54.3065 29.3107 45.5272 21.3641 19.7577 17.2125 19.0275 13.0933 12.8801 12.7144 11.6566 9.73662 9.24734 8.20527 6.90609 6.69664 6.51866 6.50035 29.9172 5.90439 6.02079 5.83692 5.3896 15.1112 5.16479 5.0877
threshold=0.63746503796140119 0.62479704691258053 0.66855581719343504 0.91597561503675351 0.78656609248549325 0.60355339059327384 0.59304579066382501 0.5851868930973102 -0.91597561503675329 0.65020304486995906 0.70676537514990012 16.850000000000005 19.116666666666671 0.62479704691258053 0.25881904510252091 0.68747471515225123 16.216666666666672 0.53767001771298661 0.65488470592465309 0.60304665810160929 -0.12940952255126037 0.68972893966515014 0.73061837567437304 0.91597561503675362 16.083333333333339 0.60605938784595137 0.62479704691258053 0.60355339059327384 0.37940952255126048 0.67659600875245685
decision_type=2 2 2 2 2 2 2 2 2 2 2 2 2 2 2 2 2 2 2 2 2 2 2 2 2 2 2 2 2 2
left_child=1 5 3 15 8 6 23 16 20 -5 -11 -8 28 -10 -15 -2 17 -6 -17 -14 -3 22 -4 -1 -25 -13 -7 -28 -9 -24
right_child=2 4 21 9 7 26 11 12 13 10 -12 25 19 14 -16 18 -18 -19 -20 -21 -22 -23 29 24 -26 -27 27 -29 -30 -31
leaf_value=-0.0051347375840463177 7.2735674065307302e-05 -0.0026214321395924174 0.00042580841117373369 -0.0014123637644582584 -0.0063633030495736549 -0.0048001842294477792 1.8076512384728245e-05 0.0010570213314910289 -0.0033110591153641465 -0.00026502153361362973 -0.0011628207490630824 -0.0015991758616737972 -0.0018171044034898526 -0.0014492746844616711 -0.0002008862447732615 -0.0016019163999090496 -0.0028925656019453197 -0.00093732773601472958 -0.00043403360356714853 -0.00052528051142084517 -0.0005669633326628058 0.0036988609857037283 -0.0012157768874884447 -0.0032541749394500276 -0.0044770442733214179 -0.0013190748569799761 -0.001295446766512276 -0.00035504116340001211 -0.00036636322815440664 -0.00061671061742330099
leaf_weight=516 1368 51 1356 150 23 1360 82 389 268 173 87 76 40 85 81 33 60 103 100 167 96 29862 25 98 118 165 174 42 126 89
leaf_count=516 1368 51 1356 150 23 1360 82 389 268 173 87 76 40 85 81 33 60 103 100 167 96 29862 25 98 118 165 174 42 126 89
internal_value=0.000416589 -0.0300607 0.00419382 -0.00536107 -0.0138717 -0.0392227 -0.0327725 -0.00623348 -0.0258089 -0.0245122 -0.0167308 -0.0171362 -0.00234072 -0.0311751 -0.0203012 -0.000129913 -0.0213441 -0.0136508 -0.0130451 -0.0128744 -0.00996599 0.00477659 0.00153061 -0.0396721 -0.0327315 -0.0230083 -0.0435406 -0.0362037 0.0018932 -0.0230702
internal_weight=37363 4120 33243 1911 1489 2631 1055 908 581 410 260 323 722 434 166 1501 186 126 133 207 147 31332 1470 732 216 241 1576 216 515 114
internal_count=37363 4120 33243 1911 1489 2631 1055 908 581 410 260 323 722 434 166 1501 186 126 133 207 147 31332 1470 732 216 241 1576 216 515 114
is_linear=0
shrinkage=0.05


Tree=5
num_leaves=31
num_cat=0
split_feature=4 6 1 6 4 1 4 0 0 1 4 7 7 3 4 4 5 0 7 5 4 5 0 7 4 1 4 0 7 0
split_gain=1591.36 233.37 79.2579 71.5868 34.2476 32.6684 32.3573 28.0798 20.6207 17.5896 31.2742 15.4963 10.0552 10.0423 11.9438 9.95814 10.2843 8.61535 7.76926 7.71467 6.83789 10.1669 6.26873 5.27493 4.67168 4.22616 4.01246 13.1988 6.41324 3.98961
threshold=0.63746503796140119 0.60948700304810299 0.78656609248549303 0.64555021857774531 0.59990989468170408 0.91597561503675351 0.65488470592465309 0.91597561503675362 0.78656609248549325 0.60355339059327384 0.58140213082119219 21.366666666666671 21.216666666666672 1.5000000000000002 0.68099669996448375 0.68972893966515014 0.71715432614408403 -0.91597561503675329 19.116666666666671 0.68747471515225123 0.65488470592465309 0.68302837757218771 -0.91597561503675329 19.916666666666668 0.61883163840671085 -0.78656609248549325 0.60948700304810299 0.60355339059327384 18.833333333333336 0.12940952255126045
decision_type=2 2 2 2 2 2 2 2 2 2 2 2 2 2 2 2 2 2 2 2 2 2 2 2 2 2 2 2 2 2
left_child=1 9 4 5 7 20 19 22 17 10 -1 -9 -12 14 -8 16 -5 -6 -10 29 21 25 -3 -18 -14 -2 -11 -28 -29 -7
right_child=3 2 -4 15 8 6 13 11 18 26 12 -13 24 -15 -16 -17 23 -19 -20 -21 -22 -23 -24 -25 -26 -27 27 28 -30 -31
leaf_value=-0.0050556802847265183 -0.00097344106767269017 -0.0027289015874111091 -0.0029238753787927513 0.00025922454472735172 -0.00027326514902812417 -0.0007685463899433872 -0.001091154539492982 -0.00095710907473195428 0.0002057333984512663 -0.0049604982810821157 -0.00037244054818706072 -0.0026454220100957811 -0.001895326071711061 -0.00010621053644024327 -0.00017315686924507346 0.0036781731705065714 -0.0010785354243844554 -0.0011796320093349433 -0.00071858439262297838 -0.001442586511610406 0.00045720562799395569 -0.0011726565855559061 -0.0031694474821957136 -5.8490844297675173e-05 -0.00089995679419935422 -7.6921682055527648e-05 -0.0013687433793927513 -0.00017946487315149485 -0.00049637712656045439 -0.00032646016463229926
leaf_weight=538 22 63 268 2162 100 28 46 279 453 1041 119 36 127 352 57 29465 63 281 212 94 581 25 204 54 49 234 277 49 24 60
leaf_count=538 22 63 268 2162 100 28 46 279 453 1041 119 36 127 352 57 29465 63 281 212 94 581 25 204 54 49 234 277 49 24 60
internal_value=0.000537029 -0.0287743 -0.0158861 0.00416975 -0.0117383 -0.00650767 -0.0150942 -0.0214605 -0.00632887 -0.0397617 -0.0340156 -0.0113492 -0.0209322 -0.00796703 -0.021699 0.00467395 0.00148969 -0.0156037 -0.00101504 -0.0329121 -0.000162413 -0.00656584 -0.0333895 -0.0129487 -0.0285227 -0.00359375 -0.0432027 -0.0385714 -0.0196575 -0.0222727
internal_weight=37363 4120 1896 33243 1628 1499 637 582 1046 2224 833 315 295 455 103 31744 2279 381 665 182 862 281 267 117 176 256 1391 350 73 88
internal_count=37363 4120 1896 33243 1628 1499 637 582 1046 2224 833 315 295 455 103 31744 2279 381 665 182 862 281 267 117 176 256 1391 350 73 88
is_linear=0
shrinkage=0.05


Tree=6
num_leaves=31
num_cat=0
split_feature=4 6 4 1 0 4 0 7 7 1 4 4 0 0 4 5 7 4 6 7 4 0 7 7 4 0 5 4 6 1
split_gain=1501.52 206.275 87.72 78.8504 67.6189 27.1903 20.8513 19.4042 18.7779 16.7907 22.3315 13.3736 14.8569 10.0841 9.52265 9.1764 8.8138 8.77984 8.53281 12.0184 8.26984 10.3168 8.04072 6.83156 6.55389 10.5199 5.77377 8.36065 5.35428 5.18971
threshold=0.63220953497095211 0.60605938784595137 0.66855581719343504 0.91597561503675351 0.78656609248549325 0.58140213082119219 -0.91597561503675329 19.250000000000004 15.433333333333335 0.60355339059327384 0.5851868930973102 0.61561700388111229 0.25881904510252091 0.91597561503675362 0.60304665810160929 0.69338158240519576 21.816666666666666 0.65020304486995906 0.67271781159271316 16.850000000000005 0.65488470592465309 0.12940952255126045 16.550000000000004 20.183333333333341 0.71024429594946559 -1.0000000180025095e-35 0.65020304486995906 0.65020304486995906 0.58936910830199762 -0.12940952255126037
decision_type=2 2 2 2 2 2 2 2 2 2 2 2 2 2 2 2 2 2 2 2 2 2 2 2 2 2 2 2 2 2
left_child=1 9 3 15 6 13 29 -7 20 10 28 -8 -13 -6 -9 26 -12 -10 19 24 -5 -22 -15 -17 25 -4 -2 -28 -1 -3
right_child=2 4 18 8 5 7 11 14 17 -11 16 12 -14 22 -16 23 -18 -19 -20 -21 21 -23 -24 -25 -26 -27 27 -29 -30 -31
leaf_value=-0.0049868810200641659 0.00031698375354699792 -0.0024427268264093248 -0.0010243246566077543 -0.001365401857530868 -0.0034760143864448812 8.8061266543539867e-05 -0.0031650656357997287 -0.0015980072747876122 -0.00071497120877196988 -0.0043584336244134663 -0.00034272033200865573 -0.0013911874576954416 -0.00036667583139759401 -0.0010691447302346145 -0.00075814212576566053 -0.0015113613569974584 -0.0014943102253433672 -0.0002500427791283344 0.0034962639303690538 0.00065429264837869872 -0.00094971534339359563 -0.0001649176725554491 -0.0031418480910156959 -0.00034538304388636101 0.00031029941580546546 -0.0001507710744147628 -0.00041243001129112562 0.0001730236528894348 -0.0029012811016516926 -0.00053438247849903837
leaf_weight=439 757 51 86 141 53 572 328 58 91 1293 83 120 141 143 156 33 140 139 29600 1208 50 45 42 56 166 272 354 543 114 89
leaf_count=439 757 51 86 141 53 572 328 58 91 1293 83 120 141 143 156 33 140 139 29600 1208 50 45 42 56 166 272 354 543 114 89
internal_value=0.000653454 -0.0290398 0.004037 -0.00559303 -0.0164204 -0.00813477 -0.028059 -0.0036514 -0.0238627 -0.0397318 -0.0339175 -0.0321817 -0.0237356 -0.0229412 -0.0164953 -0.000708548 -0.0205605 -0.0136957 0.00471595 0.00130485 -0.0337712 -0.0223684 -0.0174324 -0.0163483 -0.00501908 -0.00882682 0.000133011 -0.00258082 -0.0393038 -0.0107143
internal_weight=37363 3822 33541 2209 1753 1024 729 786 466 2069 776 589 261 238 214 1743 223 230 31332 1732 236 95 185 89 524 358 1654 897 553 140
internal_count=37363 3822 33541 2209 1753 1024 729 786 466 2069 776 589 261 238 214 1743 223 230 31332 1732 236 95 185 89 524 358 1654 897 553 140
is_linear=0
shrinkage=0.05


Tree=7
num_leaves=31
num_cat=0
split_feature=4 6 4 1 1 7 4 4 4 1 4 5 0 1 4 1 3 0 1 0 0 7 0 0 7 4 5 3 7 4
split_gain=1354.31 187.691 83.1031 73.5303 64.9186 36.3186 27.5712 26.1935 23.752 27.4664 22.2802 15.469 14.9241 9.10614 10.1009 8.40514 7.59672 6.62101 6.38033 11.222 6.33349 6.28901 5.71538 5.09921 4.87322 4.36168 15.611 6.98725 3.9224 3.91113
threshold=0.63220953497095211 0.59990989468170408 0.67913975823199202 0.91597561503675351 0.78656609248549303 18.550000000000001 0.65270959649984228 0.56235551158765384 0.60304665810160929 0.91597561503675351 0.59990989468170408 0.718633850134209 0.91597561503675362 0.60355339059327384 0.56716886566736491 0.37940952255126048 2.5000000000000004 0.60355339059327384 0.37940952255126048 0.37940952255126054 0.60355339059327384 17.983333333333338 -0.91597561503675329 0.91597561503675362 21.366666666666671 0.71024429594946559 0.74524022135164514 1.5000000000000002 18.550000000000001 0.62182268923880357
decision_type=2 2 2 2 2 2 2 2 2 2 2 2 2 2 2 2 2 2 2 2 2 2 2 2 2 2 2 2 2 2
left_child=1 8 3 17 5 7 16 23 13 20 22 28 -9 14 -1 -12 -5 18 -2 -20 -10 -22 -7 -3 -16 26 -4 -28 -8 -6
right_child=2 4 25 6 29 10 11 12 9 -11 15 -13 -14 -15 24 -17 -18 -19 19 -21 21 -23 -24 -25 -26 -27 27 -29 -30 -31
leaf_value=-0.004926889820158189 -3.3066082323916545e-06 -0.0066921471751899804 0.00066314211878145345 -0.001558159755402204 -0.0032098971798154179 -0.0025893842988515678 -0.00027687246316312813 -0.00048202394412914719 -0.0010649391752161842 -0.0012822983805563133 -0.00088848869936814119 -0.0010085044560305548 0.00054580220952444485 -0.0048475622064386385 -0.00048908941801278916 -0.0012766660128104455 -0.00068059911696415119 0.00030714823288485033 -0.001044867485846981 -9.3757897782731733e-05 6.1077796978425974e-05 -0.00061348630652479025 -0.0023956902440372685 -0.0023480521675778624 -0.0021353225652472399 0.0039127940915331836 -0.00089468032717431858 -0.00018864906636265687 2.3523076805025005e-05 -0.00085845941260366272
leaf_weight=385 739 32 2118 99 192 67 172 342 130 161 388 104 445 899 114 68 139 1235 103 217 57 55 200 83 100 28245 65 169 136 104
leaf_count=385 739 32 2118 99 192 67 172 342 130 161 388 104 445 899 114 68 139 1235 103 217 57 55 200 83 100 28245 65 169 136 104
internal_value=0.000808688 -0.0273914 0.00402209 -0.00400136 -0.0163691 -0.0124462 -0.0188462 -0.00575388 -0.0385297 -0.0277543 -0.0207953 -0.0110194 -0.00249682 -0.0414286 -0.0366528 -0.0140789 -0.032395 0.000204882 -0.00269594 -0.00859375 -0.0171074 -0.00839286 -0.0322659 -0.0280435 -0.0279439 0.0047941 0.00272534 -0.00952991 -0.00538961 -0.0379054
internal_weight=37363 3822 33541 2944 1921 1625 650 902 1901 403 723 412 787 1498 599 456 238 2294 1059 320 242 112 267 115 214 30597 2352 234 308 296
internal_count=37363 3822 33541 2944 1921 1625 650 902 1901 403 723 412 787 1498 599 456 238 2294 1059 320 242 112 267 115 214 30597 2352 234 308 296
is_linear=0
shrinkage=0.05


Tree=8
num_leaves=31
num_cat=0
split_feature=4 6 4 1 1 4 0 3 7 4 1 7 4 5 7 4 5 5 4 4 0 0 4 0 4 5 4 7 7 5
split_gain=1257.95 188.132 80.1947 69.5071 67.0965 34.5729 31.9888 22.1143 18.8205 18.7359 20.9206 18.1397 8.89239 17.6243 9.82156 8.74213 8.6122 8.05043 7.87687 7.36132 7.34236 7.03821 9.81636 5.25566 7.24319 4.63385 6.79292 4.62648 4.41504 4.16919
threshold=0.63220953497095211 0.59304579066382501 0.66855581719343504 0.78656609248549303 0.91597561503675351 0.60304665810160929 0.91597561503675362 2.5000000000000004 19.250000000000004 0.60304665810160929 0.91597561503675351 21.816666666666666 0.71372339926464978 0.74071408313400144 14.616666666666669 0.65020304486995906 0.62978253964638076 0.68747471515225123 0.5851868930973102 0.65488470592465309 -1.0000000180025095e-35 0.37940952255126054 0.60605938784595137 0.78656609248549325 0.57228613487181801 0.65020304486995906 0.65020304486995906 16.550000000000004 13.916666666666668 0.64555021857774531
decision_type=2 2 2 2 2 2 2 2 2 2 2 2 2 2 2 2 2 2 2 2 2 2 2 2 2 2 2 2 2 2
left_child=1 9 4 5 17 6 18 -6 -7 23 29 -8 13 -4 20 -9 -10 25 -3 -19 -15 -5 -23 -1 -25 -2 -27 -26 -17 -11
right_child=2 3 12 21 7 8 11 15 16 10 -12 -13 -14 14 -16 28 -18 19 -20 -21 -22 22 -24 24 27 26 -28 -29 -30 -31
leaf_value=-0.0047484152274326974 0.00028871055905905601 -0.0031249439454874035 0.00050761099599299069 -0.0026303609472298262 -0.0012270949218464696 6.108753718424215e-05 -0.00070297502712488361 -0.00064725739524671214 -0.00073697909456220943 -0.0004728555667815781 -0.0012036125446630236 -0.0022761261009256527 0.0038531828984646136 -0.0010811961137336306 -3.2621831628976544e-05 -0.0002450146082883748 -0.0011568288341019617 -0.001374823193404228 -0.0009546351647132822 -0.00035790334543591015 -0.00024494046111709099 -0.0030510943324474201 -0.00025440243983326126 -0.0041815895184416146 -0.0001715007836204643 -0.00034719396294928236 0.00020127124270725869 -0.0013306810280968397 -0.00012780739318889495 -0.0012703513366927595
leaf_weight=966 757 227 2987 215 172 477 342 118 260 153 137 52 27951 65 209 40 153 35 235 100 120 59 102 322 38 350 501 56 136 28
leaf_count=966 757 227 2987 215 172 477 342 118 260 153 137 52 27951 65 209 40 153 35 235 100 120 59 102 322 38 350 501 56 136 28
internal_value=0.000925113 -0.0262533 0.00402209 -0.0163242 -0.0051856 -0.0121249 -0.0192991 -0.0220386 -0.00522472 -0.0386471 -0.0277044 -0.00883249 0.00467126 0.00224933 -0.00769035 -0.0137075 -0.0130387 -0.000679862 -0.0282251 -0.0124074 -0.0160811 -0.0358245 -0.0279193 -0.041165 -0.0364663 0.000304727 -0.00222679 -0.0242553 -0.00664773 -0.016547
internal_weight=37363 3822 33541 2122 2209 1746 856 466 890 1700 318 394 31332 3381 394 294 413 1743 462 135 185 376 161 1382 416 1608 851 94 176 181
internal_count=37363 3822 33541 2122 2209 1746 856 466 890 1700 318 394 31332 3381 394 294 413 1743 462 135 185 376 161 1382 416 1608 851 94 176 181
is_linear=0
shrinkage=0.05


Tree=9
num_leaves=31
num_cat=0
split_feature=4 6 1 4 1 4 0 3 4 1 7 7 0 7 4 5 0 1 4 5 7 4 5 1 6 3 4 0 0 4
split_gain=1146.34 204.515 85.8776 55.5056 45.9635 44.395 28.5183 24.4272 19.2394 23.7838 18.8289 18.7657 13.3917 10.7379 10.6087 9.77865 8.89668 6.82879 5.73016 5.45456 5.77031 5.30236 4.83381 4.74989 4.6558 8.40885 7.03077 6.37059 4.56316 3.94565
threshold=0.63746503796140119 0.5851868930973102 0.78656609248549303 0.67913975823199202 0.91597561503675351 0.59990989468170408 0.91597561503675362 2.5000000000000004 0.58936910830199762 0.78656609248549303 19.116666666666671 21.366666666666671 0.37940952255126054 19.516666666666669 0.56235551158765384 0.62479704691258053 0.12940952255126045 0.37940952255126048 0.65488470592465309 0.70676537514990012 20.050000000000001 0.65732820709176665 0.68747471515225123 0.60355339059327384 0.69541231760963484 2.5000000000000004 0.72721738680340697 -1.0000000180025095e-35 -0.78656609248549303 0.66641681407293063
decision_type=2 2 2 2 2 2 2 2 2 2 2 2 2 2 2 2 2 2 2 2 2 2 2 2 2 2 2 2 2 2
left_child=1 8 5 4 19 6 14 16 23 13 -7 -8 -4 -10 -3 -14 29 -12 -18 -2 -21 22 -9 -1 25 26 27 -5 -15 -6
right_child=3 2 12 24 7 10 11 21 9 -11 17 -13 15 28 -16 -17 18 -19 -20 20 -22 -23 -24 -25 -26 -27 -28 -29 -30 -31
leaf_value=-0.0043162084774287625 0.00011738284809359322 -0.0038102466292527174 -0.0020942327229883256 -0.00072034859776193413 -0.0011963808553280433 5.2600083882695418e-05 -0.00073003608887244476 -0.00025204333687762511 -7.2795466211417192e-05 -0.0011630574766246385 -0.00077386143102794232 -0.0023463432127939091 -0.0034041792151102285 -5.0412231801657843e-05 -0.0013596097204509267 -0.00026549625272417578 -0.00064048727958917703 -0.0010189019133183413 -4.7805527453251806e-06 -0.0012810657381773106 -0.0002207516310578747 -0.00011838059820638112 -0.00073101937651537515 -0.0049419111143914401 0.0036300431477716945 0.00059891553732037569 0.00057722961909594396 -7.7944682272576094e-05 -0.0015001066781550596 -0.00096571928691002902
leaf_weight=418 1978 102 319 135 92 621 330 113 75 273 498 49 54 20 395 169 28 84 36 26 48 247 32 637 28149 1993 167 153 76 46
leaf_count=418 1978 102 319 135 92 621 330 113 75 273 498 49 54 20 395 169 28 84 36 26 48 247 32 637 28149 1993 167 153 76 46
internal_value=0.00107901 -0.0237985 -0.0153739 0.00416223 -0.00278534 -0.0107528 -0.0193151 -0.0150337 -0.038529 -0.0297973 -0.00451787 -0.00898417 -0.0330996 -0.0151754 -0.0271932 -0.0236996 -0.0291584 -0.0109794 -0.01375 0.000760234 -0.0125676 -0.0077551 -0.0153448 -0.0422038 0.00476305 0.00267157 -0.00346154 -0.00819444 -0.02625 -0.0363043
internal_weight=37363 4120 2621 33243 2646 2079 876 594 1499 444 1203 379 542 171 497 223 202 582 64 2052 74 392 145 1055 30597 2448 455 288 96 138
internal_count=37363 4120 2621 33243 2646 2079 876 594 1499 444 1203 379 542 171 497 223 202 582 64 2052 74 392 145 1055 30597 2448 455 288 96 138
is_linear=0
shrinkage=0.05


Tree=10
num_leaves=31
num_cat=0
split_feature=4 6 6 0 4 1 4 0 4 7 4 0 1 0 1 0 3 4 7 1 0 4 3 3 7 4 1 4 5 0
split_gain=1044.29 144.244 96.4322 53.1221 30.5096 28.4436 27.5661 27.4212 25.4739 21.433 17.8694 27.1622 17.7847 13.5015 11.9987 11.3273 10.3933 9.40406 8.66605 8.58205 8.36143 12.9946 8.22533 7.33175 7.32946 6.59422 6.3985 6.39142 6.35955 6.00839
threshold=0.62479704691258053 0.5851868930973102 0.62725192204121949 0.60355339059327384 0.56716886566736491 0.91597561503675351 0.65732820709176665 -0.91597561503675329 0.70107289208020729 19.250000000000004 0.5851868930973102 0.60355339059327384 0.78656609248549303 0.91597561503675362 0.37940952255126048 0.25881904510252091 1.5000000000000002 0.59304579066382501 21.816666666666666 0.37940952255126048 0.78656609248549325 0.56235551158765384 1.5000000000000002 8.5000000000000018 16.716666666666672 0.65488470592465309 0.91597561503675351 0.59990989468170408 0.67659600875245685 0.12940952255126045
decision_type=2 2 2 2 2 2 2 2 2 2 2 2 2 2 2 2 2 2 2 2 2 2 2 2 2 2 2 2 2 2
left_child=1 10 5 7 14 25 23 -3 12 13 20 26 -4 -6 24 -9 -14 -17 -13 -11 -1 -22 -8 -7 -5 28 27 -12 -2 -18
right_child=2 3 8 4 9 6 22 15 -10 19 11 18 16 -15 -16 17 29 -19 -20 -21 21 -23 -24 -25 -26 -27 -28 -29 -30 -31
leaf_value=-0.0047866277227913206 -0.00020645068447477282 -0.0014661409068370689 0.00033923394327426169 -0.001969084391976413 -0.00033809323559447143 -0.0012279052809980266 -0.00050859036068811117 -0.0024730240166002111 0.0030991172234164301 -0.0010108725427378947 -0.00093140348886659513 -2.2173850636986372e-05 -0.0011049531938381629 0.00058599207611836467 -0.0036952905145999091 -0.0037689052705121811 -0.0003856627088818722 -0.00033081597092583413 -0.0011698916596638521 -0.0012900068918086337 -0.004255583356852422 -0.0010477279637694003 -1.0892385638992282e-05 -0.00040197320972220853 -0.0033161778357319416 0.0002689348569915016 -0.0011760775991782207 -0.0010354862446702348 -0.0012833583724827507 2.4684781695436092e-05
leaf_weight=686 335 137 3084 109 389 154 61 321 28869 206 73 88 87 383 80 45 421 151 40 80 233 89 157 111 49 287 155 67 32 384
leaf_count=686 335 137 3084 109 389 154 61 321 28869 206 73 88 87 383 80 45 421 151 40 80 233 89 157 111 49 287 155 67 32 384
internal_value=0.00124361 -0.0252573 0.00388029 -0.0164103 -0.0105478 -0.0104354 -0.0196377 -0.0280275 0.00437586 -0.00690926 -0.0373131 -0.0286879 0.000623743 -0.00257772 -0.0267227 -0.0332979 -0.00559417 -0.0238265 -0.00945312 -0.0186014 -0.0409325 -0.0342857 -0.00646789 -0.0304717 -0.0187342 -0.00363914 -0.0370339 -0.0292857 -0.00807902 -0.00381988
internal_weight=37363 3381 33982 1950 1296 1137 483 654 32845 1058 1431 423 3976 772 238 517 892 196 128 286 1008 322 218 265 158 654 295 140 367 805
internal_count=37363 3381 33982 1950 1296 1137 483 654 32845 1058 1431 423 3976 772 238 517 892 196 128 286 1008 322 218 265 158 654 295 140 367 805
is_linear=0
shrinkage=0.05


Tree=11
num_leaves=31
num_cat=0
split_feature=4 6 4 1 0 1 7 4 5 4 4 0 4 3 5 1 3 1 4 7 1 4 5 3 5 4 7 0 7 4
split_gain=955.195 120.026 111.632 76.6061 48.3436 19.8705 19.4807 19.093 21.4424 18.7616 18.4236 28.2168 15.5323 15.3482 15.0954 12.3531 12.8012 8.96759 11.6584 7.93225 7.69858 7.3164 8.90308 6.75927 6.40482 6.11057 5.58635 5.34626 5.5902 5.26434
threshold=0.61883163840671085 0.5851868930973102 0.65488470592465309 0.91597561503675351 0.91597561503675362 0.78656609248549303 21.366666666666671 0.71548149359661217 0.76094521630981204 0.5851868930973102 0.57726365286494608 0.60355339059327384 0.54797484094917726 8.5000000000000018 0.65020304486995906 0.91597561503675351 1.5000000000000002 0.60355339059327384 0.55495658542905746 18.683333333333341 -0.70710678118654757 0.63513692896071239 0.68302837757218771 9.5000000000000018 0.58140213082119219 0.59656029101636487 20.183333333333341 0.12940952255126045 16.083333333333339 0.56235551158765384
decision_type=2 2 2 2 2 2 2 2 2 2 2 2 2 2 2 2 2 2 2 2 2 2 2 2 2 2 2 2 2 2
left_child=1 10 3 14 5 9 12 8 15 29 17 -12 -6 27 -2 -4 -17 18 -1 -13 -11 -16 -23 -8 -20 -7 -15 -5 -29 -3
right_child=2 4 7 13 6 25 23 -9 -10 20 11 19 -14 26 21 16 -18 -19 24 -21 -22 22 -24 -25 -26 -27 -28 28 -30 -31
leaf_value=-0.0048942833360677007 5.3285416639789518e-05 -0.0034899717552724138 0.00054501367694642546 -0.0013880950377830666 -0.0038504031470878437 -0.0038743228146563336 -0.002213273774575615 0.0034130655917283983 -0.00075461838597245113 -0.0010694814210026227 -0.0012253648587907727 -0.00014322832043214598 0.00022109633938499152 -0.00053594302950050424 -0.00061961860746129031 -0.000709590964085432 -8.114415502910756e-05 -0.0048479097340772496 -0.00039817210298452311 -0.0011377323683885562 -0.00057050433957714461 -0.00024639967079352214 -0.001218475313836862 -0.00087459606237122109 -0.0021508060059895104 -0.00092817627166984185 -0.00012994806477351249 -0.0005105821199106864 -0.00019837725167628722 -0.001518842985403222
leaf_weight=263 1054 102 3450 116 63 110 52 27804 136 82 329 118 442 145 111 89 735 504 86 62 462 432 49 32 22 175 55 77 23 183
leaf_count=263 1054 102 3450 116 63 110 52 27804 136 82 329 118 442 145 111 89 735 504 86 62 462 432 49 32 22 175 55 77 23 183
internal_value=0.00131855 -0.0253207 0.00371776 -0.00756062 -0.0164328 -0.0225583 -0.0048472 0.00443968 0.00138322 -0.0186429 -0.0362572 -0.0286935 -0.00113861 -0.0267308 -0.00271567 0.00200515 -0.00349515 -0.0406571 -0.0347574 -0.0127778 -0.0131985 -0.00910473 -0.00643451 -0.0271429 -0.0209259 -0.0339474 -0.01675 -0.0359722 -0.0275 -0.0290351
internal_weight=37363 3087 34276 2062 1703 1114 589 32214 4410 829 1384 509 505 416 1646 4274 824 875 371 180 544 592 481 84 108 285 200 216 100 285
internal_count=37363 3087 34276 2062 1703 1114 589 32214 4410 829 1384 509 505 416 1646 4274 824 875 371 180 544 592 481 84 108 285 200 216 100 285
is_linear=0
shrinkage=0.05


Tree=12
num_leaves=31
num_cat=0
split_feature=4 6 4 1 0 3 4 7 0 4 0 6 7 0 4 0 0 4 0 0 1 0 4 4 0 4 4 1 0 4
split_gain=874.734 117.056 103.745 70.8147 52.346 24.7051 23.3407 21.8755 21.5997 17.5932 20.4792 13.1635 15.4359 12.4717 12.2329 12.1053 10.5271 9.35799 8.18203 7.84403 7.49233 7.4443 13.0967 7.10491 14.3601 7.0342 7.00514 7.68246 5.76282 8.67592
threshold=0.61883163840671085 0.58140213082119219 0.66855581719343504 0.91597561503675351 0.60355339059327384 2.5000000000000004 0.55495658542905746 22.250000000000004 -0.91597561503675329 0.56235551158765384 0.60355339059327384 0.69541231760963484 13.583333333333336 0.91597561503675362 0.59656029101636487 0.25881904510252091 0.60355339059327384 0.64272238140562055 -0.91597561503675329 0.91597561503675362 -0.37940952255126015 0.12940952255126045 0.73573269575761102 0.59656029101636487 0.37940952255126054 0.64272238140562055 0.57726365286494608 0.60355339059327384 0.12940952255126045 0.63513692896071239
decision_type=2 2 2 2 2 2 2 2 2 2 2 2 2 2 2 2 2 2 2 2 2 2 2 2 2 2 2 2 2 2
left_child=1 9 3 16 8 28 19 13 -3 -1 23 12 21 -8 -10 -16 18 -7 -2 -6 -9 22 -4 -11 -25 -20 27 -12 -5 -30
right_child=2 4 11 5 6 17 7 20 14 10 26 -13 -14 -15 15 -17 -18 -19 25 -21 -22 -23 -24 24 -26 -27 -28 -29 29 -31
leaf_value=-0.0048653014850420289 0.00039425457153279095 -0.0016373748994775292 -0.00063815764080964318 -0.001253241659537122 -0.0054371918280629603 -0.00049494040657291675 -0.00048182328116221486 -0.00062102504627232569 -0.0032030614865177693 -0.0013541939253255198 -0.00066386823671359693 0.0030526737639511806 0.00038867134787234697 0.0002062993717035644 -0.0011360371526160258 -0.00029295114486504992 0.00011866978918745626 -0.00013283259635531899 -0.00055718636726570828 -0.0033720928190996294 -0.0014474720746493594 0.00027267224903260054 0.00030584140551790382 -0.0012271465653926632 -5.8823879128498619e-05 -0.00023549170149852658 -0.00049703886903127402 -0.00066940391035124063 -0.00048519638096526933 -0.00030499484671797899
leaf_weight=611 243 120 259 132 62 161 442 70 187 247 55 28450 2394 442 169 116 1346 221 302 96 106 118 111 104 39 438 148 73 45 56
leaf_count=611 243 120 259 132 62 161 442 70 187 247 55 28450 2394 442 169 116 1346 221 302 96 106 118 111 104 39 438 148 73 45 56
internal_value=0.00140286 -0.0240897 0.0036988 -0.00527514 -0.0159116 -0.0203659 -0.00998358 -0.00731132 -0.0281081 -0.0356813 -0.0300601 0.004542 0.001322 -0.00410633 -0.0329237 -0.0264035 -0.00129025 -0.0125393 -0.0052238 -0.0279114 -0.0234091 -0.00678279 -0.0102703 -0.0374359 -0.0285664 -0.00783784 -0.0196377 -0.0282031 -0.0331974 -0.0242079
internal_weight=37363 3087 34276 2944 1810 615 1218 1060 592 1277 666 31332 2882 884 472 285 2329 382 983 158 176 488 370 390 143 740 276 128 233 101
internal_count=37363 3087 34276 2944 1810 615 1218 1060 592 1277 666 31332 2882 884 472 285 2329 382 983 158 176 488 370 390 143 740 276 128 233 101
is_linear=0
shrinkage=0.05


Tree=13
num_leaves=31
num_cat=0
split_feature=4 4 6 1 0 4 7 3 4 5 0 4 0 4 0 0 7 1 4 1 0 1 7 2 0 3 4 0 4 7
split_gain=795.626 106.095 105.524 71.9147 47.6337 22.0827 19.9845 19.8234 19.1847 24.7604 18.2143 15.4899 15.1769 14.4185 15.6235 12.5879 10.7517 10.2506 14.3059 10.2083 8.25871 8.15951 7.98199 6.77564 6.18802 5.45948 5.43273 11.8441 5.41875 5.18284
threshold=0.61561700388111229 0.65928485891147159 0.57726365286494608 0.91597561503675351 0.60355339059327384 0.54797484094917726 22.250000000000004 2.5000000000000004 0.72557124882138002 0.76094521630981204 -0.91597561503675329 0.57726365286494608 0.60355339059327384 0.58936910830199762 0.25881904510252091 0.91597561503675362 17.683333333333341 0.60355339059327384 0.54797484094917726 0.60355339059327384 0.12940952255126045 0.60355339059327384 17.683333333333341 4.5000000000000009 0.91597561503675362 2.5000000000000004 0.59656029101636487 0.37940952255126054 0.52257693429731555 21.950000000000006
decision_type=2 2 2 2 2 2 2 2 2 2 2 2 2 2 2 2 2 2 2 2 2 2 2 2 2 2 2 2 2 2
left_child=2 3 11 16 10 24 15 -5 9 19 -4 17 26 -12 -15 -7 -2 18 -1 -3 -21 -18 -20 -8 -6 -11 -13 -28 -26 -9
right_child=1 8 4 7 5 6 23 29 -10 25 13 12 -14 14 -16 -17 21 -19 22 20 -22 -23 -24 -25 28 -27 27 -29 -30 -31
leaf_value=-0.0046347855838319851 0.00011511450175775824 0.00072239505604735222 -0.001592456254840449 -0.0011364948021561751 -0.0054274710604927928 -0.00052800136251983918 -0.0010104952353617741 -0.00047218310449623891 0.003472634590414695 -0.00075562379511336249 -0.0031732940078907264 -0.0012129522649935863 -0.00049490205676924607 -0.0011333035744822684 -0.00028510795487764537 0.00014759419188526091 -0.00024299532005057759 -0.0044902785375331824 -0.000131326777909857 -0.00024283468788581909 0.00027281671007121168 -0.00044848884715870303 -0.0018498183996759289 -0.0014902290916490306 -0.0046685527583521956 -0.00020614782642596336 -0.0012677369377452877 2.5145761152412221e-05 -0.0007804652470877108 -3.7534356700055967e-06
leaf_weight=204 780 3363 106 204 48 462 115 249 26922 129 171 141 123 186 130 431 1009 469 61 748 617 212 49 63 32 141 74 27 48 49
leaf_count=204 780 3363 106 204 48 462 115 249 26922 129 171 141 123 186 130 431 1009 469 61 748 617 212 49 63 32 141 74 27 48 49
internal_value=0.00151393 0.00364625 -0.0234524 -0.00626648 -0.0158705 -0.0101376 -0.00779178 -0.0231873 0.00442356 0.00157863 -0.0274621 -0.0352875 -0.0267808 -0.0315503 -0.0252215 -0.00474244 -0.00202149 -0.0392529 -0.0322611 0.00241963 -0.00122711 -0.00495086 -0.0177273 -0.0230899 -0.0297656 -0.0131481 -0.0340496 -0.025198 -0.02125 -0.0149664
internal_weight=37363 34423 2940 2503 1792 1199 1071 502 31920 4998 593 1148 365 487 316 893 2001 783 314 4728 1365 1221 110 178 128 270 242 101 80 298
internal_count=37363 34423 2940 2503 1792 1199 1071 502 31920 4998 593 1148 365 487 316 893 2001 783 314 4728 1365 1221 110 178 128 270 242 101 80 298
is_linear=0
shrinkage=0.05


Tree=14
num_leaves=31
num_cat=0
split_feature=4 6 4 1 1 4 4 0 1 3 7 7 1 4 4 5 0 0 1 1 4 7 7 4 0 1 0 7 6 4
split_gain=711.602 121.37 65.6968 46.8854 40.8956 30.0477 26.778 27.8832 22.5278 19.7679 19.0824 18.8327 13.4926 13.7108 10.2238 24.6751 9.64171 9.62505 8.54079 7.75582 8.65089 7.15119 7.13072 6.89859 6.85998 12.0577 7.04903 6.59962 6.22181 6.04444
threshold=0.62725192204121949 0.57726365286494608 0.67913975823199202 0.91597561503675351 0.91597561503675351 0.5851868930973102 0.57228613487181801 0.60355339059327384 0.60355339059327384 2.5000000000000004 16.550000000000004 21.816666666666666 0.60355339059327384 0.53767001771298661 0.72905271196821897 0.75636863642410512 0.12940952255126045 -0.91597561503675329 0.37940952255126048 0.91597561503675351 0.59656029101636487 21.816666666666666 14.783333333333337 0.66641681407293063 1.0000000180025095e-35 0.37940952255126048 -0.5 15.916666666666668 0.64555021857774531 0.64272238140562055
decision_type=2 2 2 2 2 2 2 2 2 2 2 2 2 2 2 2 2 2 2 2 2 2 2 2 2 2 2 2 2 2
left_child=1 6 4 5 24 8 12 19 10 16 -3 18 13 -1 15 -4 23 -13 -7 20 -8 -9 28 -6 25 26 -2 -15 -17 -11
right_child=2 3 14 -5 9 11 7 21 -10 29 -12 17 -14 27 -16 22 -18 -19 -20 -21 -22 -23 -24 -25 -26 -27 -28 -29 -30 -31
leaf_value=-0.0046777177506119507 0.00014350691725650979 -0.00066248065235888828 0.000499962872272413 -0.0018128812585633703 -0.00112311588354836 0.00057459894929308821 -0.00083293105415022974 -7.3043194284072579e-05 -0.0028911423360905297 -0.00047414134675692653 -0.0022236274965466247 -1.8908622658253285e-05 -0.0043649163589712884 -0.00025422372311805218 0.0034146724283938279 -0.00010879877484747488 -0.00022427898015321414 -0.00090245271614060665 -0.00018219478616996224 -0.0011601829543955544 -0.0012658218728695738 -0.0010016214940332601 -0.00012648318883270136 -0.0007970975396122675 0.00013773814440294353 -0.0010431456025506436 -0.00071539509411679744 -0.0017624666440718868 -0.00078228006429096122 -0.00011087517961718708
leaf_weight=163 496 322 3572 251 116 372 109 130 118 114 235 92 419 69 26628 54 88 354 576 153 57 41 227 46 1780 109 138 67 116 351
leaf_count=163 496 322 3572 251 116 372 109 130 118 114 235 92 419 69 26628 54 88 354 576 153 57 41 227 46 1780 109 138 67 116 351
internal_value=0.00163839 -0.0197307 0.00386656 -0.0130388 -0.00290611 -0.0105631 -0.0325828 -0.0235714 -0.0192222 -0.0134615 -0.015018 -0.00637016 -0.0387326 -0.0306187 0.00458329 0.00221592 -0.0248 -0.014843 -0.00238397 -0.0323041 -0.0248193 -0.0072807 -0.00960957 -0.032037 8.52162e-05 -0.0039502 -0.00130915 -0.0188971 -0.0173529 -0.00736559
internal_weight=37363 3528 33835 2320 3238 2069 1208 490 675 715 557 1394 718 299 30597 3969 250 446 948 319 166 171 397 162 2523 743 634 136 170 465
internal_count=37363 3528 33835 2320 3238 2069 1208 490 675 715 557 1394 718 299 30597 3969 250 446 948 319 166 171 397 162 2523 743 634 136 170 465
is_linear=0
shrinkage=0.05


Tree=15
num_leaves=31
num_cat=0
split_feature=4 4 6 1 1 4 7 3 6 7 0 0 0 4 4 0 4 0 0 1 0 4 7 1 3 4 7 5 1 7
split_gain=643.465 114.802 72.9652 65.7408 47.4064 26.083 23.7507 21.4732 21.2908 20.3449 13.2952 18.7077 12.1104 11.1044 10.1972 8.58051 7.85203 14.2112 7.77346 6.93114 6.57265 6.47172 5.83721 13.0436 5.67196 5.403 5.25497 5.12732 3.88993 4.39565
threshold=0.60605938784595137 0.65488470592465309 0.55495658542905746 0.91597561503675351 0.78656609248549303 0.55495658542905746 17.683333333333341 3.5000000000000004 0.69914695707100771 13.583333333333336 1.0000000180025095e-35 -0.91597561503675329 0.12940952255126045 0.74369275238619448 0.58140213082119219 0.37940952255126054 0.55495658542905746 0.60355339059327384 0.78656609248549325 0.60355339059327384 0.12940952255126045 0.52257693429731555 21.816666666666666 1.0000000180025095e-35 3.5000000000000004 0.63513692896071239 24.550000000000001 0.59990989468170408 0.98296291314453421 17.283333333333339
decision_type=2 2 2 2 2 2 2 2 2 2 2 2 2 2 2 2 2 2 2 2 2 2 2 2 2 2 2 2 2 2
left_child=2 3 16 10 5 19 18 20 9 12 11 -2 13 -3 -6 24 -1 -18 -7 21 -5 -4 -12 -24 -16 -22 -13 -8 -9 -30
right_child=1 8 4 7 14 6 27 28 -10 -11 22 26 -14 -15 15 -17 17 -19 -20 -21 25 -23 23 -25 -26 -27 -28 -29 29 -31
leaf_value=-0.0047011323303538478 0.00024446448832408111 -0.00051092344389433843 -0.0047944773474787143 -0.0012030061671720275 -0.0035271996249445652 -0.00046839480559172008 -0.00099045278016448484 -0.00022185355850230985 0.0026658363006532683 0.00023180284671578822 5.9039947826243505e-05 -0.001164457585212858 0.00016614272592298319 0.00025389608498860148 -0.0011229300878625116 -0.00029878129836285577 -0.0013557923231991634 -0.00056552452514267997 -1.4362294298374862e-05 -0.0038826511803481418 -0.00035733079251812989 -0.0012323483559028496 9.4311809608331966e-05 -0.00054865992634838684 -0.00076057107686166399 -0.00030293591593889407 -0.00067987198242521873 -0.0011302461861579245 -0.00060783716454019512 -0.00019037752360512845
leaf_weight=384 184 324 67 132 166 182 307 176 28505 3090 1195 67 197 98 68 115 166 101 494 44 87 184 303 187 59 43 201 162 22 53
leaf_count=384 184 324 67 132 166 182 307 176 28505 3090 1195 67 197 98 68 115 166 101 494 44 87 184 303 187 59 43 201 162 22 53
internal_value=0.00173741 0.00349415 -0.0227711 -0.00650943 -0.0177002 -0.0134375 -0.0100218 -0.0225828 0.00431707 0.000753573 -0.00265091 -0.0102655 -0.00752019 -0.0122986 -0.0327451 -0.0261983 -0.0371659 -0.0305805 -0.00402367 -0.0266949 -0.0325954 -0.0234861 -0.000608308 -0.00520408 -0.0351575 -0.0246154 -0.018694 -0.0186674 -0.0121315 -0.0216667
internal_weight=37363 34864 2499 2650 1848 1440 1145 513 32214 3709 2137 452 619 422 408 242 651 267 676 295 262 251 1685 490 127 130 268 469 251 75
internal_count=37363 34864 2499 2650 1848 1440 1145 513 32214 3709 2137 452 619 422 408 242 651 267 676 295 262 251 1685 490 127 130 268 469 251 75
is_linear=0
shrinkage=0.05


Tree=16
num_leaves=31
num_cat=0
split_feature=4 4 4 0 1 1 4 0 3 7 1 3 1 4 5 4 7 4 7 0 5 0 1 4 4 0 0 0 4 3
split_gain=581.076 108.29 69.7001 68.1637 45.1669 39.6804 28.3955 28.2935 19.573 14.2065 14.4598 12.9186 11.4761 10.8701 20.2515 10.0943 9.95763 8.36128 8.32463 8.63073 7.38936 7.2811 13.8865 6.96203 5.61217 5.54867 5.11027 5.0933 4.6205 4.28768
threshold=0.62182268923880357 0.56716886566736491 0.68521714956956703 0.37940952255126054 0.60355339059327384 0.91597561503675351 0.53767001771298661 -0.91597561503675329 1.5000000000000002 21.816666666666666 0.60355339059327384 3.5000000000000004 -0.37940952255126015 0.73573269575761102 0.76094521630981204 0.64272238140562055 18.383333333333336 0.59304579066382501 14.616666666666669 -1.0000000180025095e-35 0.66641681407293063 1.0000000180025095e-35 0.60355339059327384 0.5851868930973102 0.66855581719343504 0.91597561503675362 -0.91597561503675329 0.12940952255126045 0.52257693429731555 9.5000000000000018
decision_type=2 2 2 2 2 2 2 2 2 2 2 2 2 2 2 2 2 2 2 2 2 2 2 2 2 2 2 2 2 2
left_child=1 4 5 7 6 21 25 -3 24 10 -5 -9 -11 14 -4 20 -8 -12 19 -16 -10 22 26 -13 -7 -1 -2 -17 -27 -14
right_child=2 3 13 9 -6 8 16 11 15 12 17 23 29 -15 18 27 -18 -19 -20 -21 -22 -23 -24 -25 -26 28 -28 -29 -30 -31
leaf_value=-0.004481351323354487 0.00051059460124682615 -0.0004034679602971496 0.00049931287112463631 1.2769293725093648e-05 -0.0041201318206832661 -0.0011428558605216883 -0.00025201094081501633 -0.0012624322759944887 -0.00010571540568533947 -0.00025678572732954342 -0.00039276997653345751 -0.001404961729475622 -0.0011570186535394991 0.0033616528643053093 -0.00071577701466252392 -0.0002885295448278135 -0.0015623262506048881 -0.00012368004776658434 -0.00010737959776733801 -0.00016205065245356858 -0.00047541412886191025 0.00011256073614638221 -0.00099038681262917294 -0.0009474343600383477 -0.00063139300687350475 -0.0041110111608323773 -0.00035111298953033982 1.5790128426915217e-05 -0.0010863500166092502 -0.00041997317768964113
leaf_weight=160 360 108 3663 733 456 102 210 231 86 99 267 53 112 26040 108 290 109 310 277 68 112 2219 111 234 41 63 429 223 31 58
leaf_count=160 360 108 3663 733 456 102 210 231 86 99 267 53 112 26040 108 290 109 310 277 68 112 2219 111 234 41 63 429 223 31 58
internal_value=0.00181771 -0.0184385 0.00373714 -0.0121882 -0.0318319 -0.00248804 -0.0224869 -0.0261502 -0.0120375 -0.00665294 -0.00450382 -0.0310039 -0.017119 0.0045573 0.00216958 -0.00864276 -0.0125549 -0.0104246 -0.00780353 -0.0163068 -0.0182323 0.000126643 -0.00366667 -0.0239199 -0.0289161 -0.0349606 -0.00133714 -0.00494152 -0.0253191 -0.025
internal_weight=37363 3234 34129 2205 1029 3973 573 626 854 1579 1310 518 269 30156 4116 711 319 577 453 176 198 3119 900 287 143 254 789 513 94 170
internal_count=37363 3234 34129 2205 1029 3973 573 626 854 1579 1310 518 269 30156 4116 711 319 577 453 176 198 3119 900 287 143 254 789 513 94 170
is_linear=0
shrinkage=0.05


Tree=17
num_leaves=31
num_cat=0
split_feature=4 4 1 4 7 1 4 1 0 3 0 4 4 7 3 0 5 0 0 4 4 4 7 6 0 1 4 6 3 4
split_gain=523.303 128.211 83.6807 32.5356 26.5724 24.9955 24.75 24.4883 20.8483 21.2192 20.4185 18.9046 18.0704 12.7762 12.2362 10.7976 8.65053 7.18301 6.98857 6.34908 6.33561 5.9749 5.67842 5.54179 3.36905 2.40048 2.23193 2.12232 2 1.97023
threshold=0.64272238140562055 0.55495658542905746 0.78656609248549303 0.73236927322490175 19.116666666666671 0.60355339059327384 0.59656029101636487 0.60355339059327384 0.12940952255126045 1.5000000000000002 0.12940952255126045 0.60948700304810299 0.52257693429731555 16.550000000000004 1.5000000000000002 0.37940952255126054 0.63513692896071239 0.78656609248549325 -0.91597561503675329 0.65488470592465309 0.59304579066382501 0.56716886566736491 16.216666666666672 0.65732820709176665 0.91597561503675362 -0.5 0.57726365286494608 0.75174292470368242 5.5000000000000009 0.65928485891147159
decision_type=2 2 2 2 2 2 2 2 2 2 2 2 2 2 2 2 2 2 2 2 2 2 2 2 2 2 2 2 2 2
left_child=1 7 4 5 17 29 15 12 9 23 13 18 -1 -8 -12 -4 -13 20 -6 -11 -3 -17 24 -7 -14 -24 -19 -10 -29 -2
right_child=3 2 6 -5 11 8 10 -9 27 19 14 16 22 -15 -16 21 -18 26 -20 -21 -22 -23 25 -25 -26 -27 -28 28 -30 -31
leaf_value=-0.0043332821119156442 0.00011213075720784929 -0.00053992317372547583 -0.001450424093634647 0.0030822594872427279 -0.0006118952333477465 -0.00067034038531783478 -0.0012361231107548068 -0.004448141926874513 0.00013094328323217815 -0.00071274165289422916 -0.00048448306398183726 -2.0705234665895212e-05 -0.00036378363736754298 -0.00044761467500591752 -0.00015085624115442899 -0.00044951512212626569 -0.00066760815585913417 -0.00017191492769309474 -0.0010300262914501057 -0.00017788711802334256 -5.4736200835610809e-05 -0.00027584646714373418 -0.0024062713977418956 -0.0010991696844289639 4.0942345761615494e-05 -0.0010329697311329874 0.00018706174202599623 0.00017931554048894997 -0.00046901520504141655 0.00060586072808200728
leaf_weight=165 648 189 164 26334 85 122 95 323 852 74 101 346 87 128 432 45 297 212 404 959 235 142 25 42 55 80 804 36 36 3846
leaf_count=165 648 189 164 26334 85 122 95 323 852 74 101 346 87 128 432 45 297 212 404 959 235 142 25 42 55 80 804 36 36 3846
internal_value=0.00193279 -0.0142343 -0.0104254 0.00409861 -0.00547823 0.000963719 -0.0219196 -0.0332993 -0.00351014 -0.0078655 -0.0168254 -0.0112102 -0.0252184 -0.0295291 -0.0115103 -0.0328917 -0.00557543 -0.000972222 -0.0186196 -0.00521297 -0.00643868 -0.0246791 -0.0166599 -0.0245732 -0.0101408 -0.0254762 0.00130906 0.00213203 -0.00611111 0.00307521
internal_weight=37363 4414 3679 32949 2572 6615 1107 735 2121 1197 756 1132 412 223 533 351 643 1440 489 1033 424 187 247 164 142 105 1016 924 72 4494
internal_count=37363 4414 3679 32949 2572 6615 1107 735 2121 1197 756 1132 412 223 533 351 643 1440 489 1033 424 187 247 164 142 105 1016 924 72 4494
is_linear=0
shrinkage=0.05


Tree=18
num_leaves=31
num_cat=0
split_feature=4 4 4 0 1 3 0 7 6 7 0 4 0 4 0 0 7 0 5 4 4 1 0 6 1 4 7 7 1 2
split_gain=477.775 88.5564 73.0489 68.4545 46.2991 20.9571 19.8326 17.0635 16.7072 16.732 15.1824 14.0592 10.4874 20.9106 9.81691 14.3189 9.08306 12.1228 8.44714 7.55581 7.3747 7.26062 6.7245 11.7512 6.27909 6.03494 5.38713 3.67062 5.29788 3.36103
threshold=0.60605938784595137 0.67056163489475529 0.54797484094917726 0.60355339059327384 0.91597561503675351 1.5000000000000002 0.91597561503675362 21.816666666666666 0.71864060148815423 14.616666666666669 -0.91597561503675329 0.58140213082119219 -1.0000000180025095e-35 0.75163987245925656 1.0000000180025095e-35 -0.91597561503675329 18.116666666666671 0.12940952255126045 0.63513692896071239 0.64789003973668635 0.49705848172959149 -0.37940952255126015 0.91597561503675362 0.62182268923880357 0.60355339059327384 0.53767001771298661 17.683333333333341 18.550000000000001 1.0000000180025095e-35 5.5000000000000009
decision_type=2 2 2 2 2 2 2 2 2 2 2 2 2 2 2 2 2 2 2 2 2 2 2 2 2 2 2 2 2 2
left_child=2 4 6 10 14 -6 24 22 9 12 -4 -12 13 -3 15 -2 17 -7 -13 -17 -8 -9 23 -5 25 -1 -22 -16 -29 -11
right_child=1 8 3 7 5 16 20 21 -10 29 11 18 -14 -15 27 19 -18 -19 -20 -21 26 -23 -24 -25 -26 -27 -28 28 -30 -31
leaf_value=-0.0040406196515909813 0.00032597088822843337 -0.00067900021490263271 -0.00061338713642156357 -0.00013977696142646254 -0.00097142540331537322 -0.0005852695135276641 -0.0038720852127061868 -0.0003368754868166787 0.0028616297311136185 0.00042586725919822399 -0.0013926253896660796 -0.00064746590117685206 1.4322224005667093e-05 0.00023915233727999716 0.00011287374182172475 -0.00092639512030057267 -6.8578956872483301e-05 -0.00012862384608081835 -0.0011238596842252512 -0.00026866218650485103 -9.7595026998298362e-05 -0.001071881507439488 0.00013541157141809976 -0.00075572376603556422 -0.0047143375359186314 -0.00064964331302223572 -0.0016085662146408117 0.0001728568136021778 -0.00020787538621423989 -0.00013204307233555617
leaf_weight=160 287 210 85 563 135 169 34 67 26836 3243 277 299 363 141 1193 215 235 208 95 215 64 127 335 63 251 44 35 494 528 392
leaf_count=160 287 210 85 563 135 169 34 67 26836 3243 277 299 363 141 1193 215 235 208 95 215 64 127 335 63 251 44 35 494 528 392
internal_value=0.001989 0.00350275 -0.0191297 -0.0143878 -0.00383392 -0.0149465 -0.0345408 -0.0067316 0.00436829 0.00149345 -0.0260847 -0.0286066 -0.0055042 -0.0116667 -0.00100273 -0.00608787 -0.0110131 -0.0158223 -0.0225381 -0.0118605 -0.0175564 -0.0202577 -0.00400104 -0.0070607 -0.0395055 -0.0329902 -0.0106566 0.000643341 -0.00155577 0.00286795
internal_weight=37363 34864 2499 1911 3679 747 588 1155 31185 4349 756 671 714 351 2932 717 612 377 394 430 133 194 961 626 455 204 99 2215 1022 3635
internal_count=37363 34864 2499 1911 3679 747 588 1155 31185 4349 756 671 714 351 2932 717 612 377 394 430 133 194 961 626 455 204 99 2215 1022 3635
is_linear=0
shrinkage=0.05


Tree=19
num_leaves=31
num_cat=0
split_feature=4 4 0 4 4 1 5 0 3 7 1 1 0 4 0 4 4 0 6 4 0 4 1 7 1 4 4 7 0 4
split_gain=425.985 109.422 77.5017 37.1292 36.3074 30.1215 22.4181 21.641 24.7657 14.3393 12.9104 12.2368 9.71103 9.14149 8.39804 8.00437 7.43711 7.36769 6.7206 6.32039 5.98025 5.13175 4.59003 4.20762 3.66792 3.9189 2.50013 2.67044 3.91205 2.35111
threshold=0.63993782904581298 0.53767001771298661 0.60355339059327384 0.59304579066382501 0.74523009969634912 0.60355339059327384 0.66200929049324742 0.12940952255126045 1.5000000000000002 21.816666666666666 0.91597561503675351 -0.37940952255126015 0.91597561503675362 0.56716886566736491 0.12940952255126045 0.59990989468170408 0.65488470592465309 -0.91597561503675329 0.67056163489475529 0.56716886566736491 0.78656609248549325 0.49705848172959149 0.37940952255126048 16.550000000000004 0.60355339059327384 0.52257693429731555 0.69735589749629401 19.916666666666668 0.98296291314453421 0.59990989468170408
decision_type=2 2 2 2 2 2 2 2 2 2 2 2 2 2 2 2 2 2 2 2 2 2 2 2 2 2 2 2 2 2
left_child=1 12 3 10 5 26 17 8 18 13 19 29 24 20 -8 -13 -10 -5 -7 -3 -4 -14 -15 -23 25 -1 27 -2 -29 -11
right_child=4 2 9 6 -6 7 14 -9 16 11 -12 15 21 22 -16 -17 -18 -19 -20 -21 -22 23 -24 -25 -26 -27 -28 28 -30 -31
leaf_value=-0.0040899123879565612 0.0016514049593839416 -0.0012223558071367895 -0.00050411466117592993 0.00017751709440014967 0.0032796062686585915 -0.00062942452882012783 -0.0010989867729501157 9.2055323706029577e-05 -0.00060838489192080578 -0.00037470330700664644 -0.0016204248755575389 -0.0010980906893805623 -0.0036784809520708766 0.00043257549614814138 -0.00021851389165262124 -0.00064305996554498345 -0.00016220645824210466 -0.00045499417700637458 -0.00087831968029594264 -0.00089252374649344312 -0.00028518199877638383 -4.6707616141056299e-05 -7.9360668740676048e-05 -0.0015281379058613388 -0.0046575262919529552 -0.0016577573054481398 0.00085525603696071518 0.00020861202444951056 -0.00030216914953860538 0.00058644317650256264
leaf_weight=102 648 133 115 138 25158 153 127 1036 94 60 165 109 34 607 133 164 1140 724 46 232 231 35 798 25 187 58 2991 1726 104 90
leaf_count=102 648 133 115 138 25158 153 127 1036 94 60 165 109 34 607 133 164 1140 724 46 232 231 35 798 25 187 58 2991 1726 104 90
internal_value=0.00206929 -0.0127994 -0.010081 -0.0182446 0.00398628 0.00103805 -0.0130927 -0.00354597 -0.00752617 -0.00387764 -0.0291509 -0.0121395 -0.0363832 -0.00188178 -0.0259615 -0.0184432 -0.00488655 -0.00921114 -0.0238945 -0.0239041 -0.00916185 -0.0221277 -8.89678e-05 -0.0133333 -0.040245 -0.0346875 0.00310752 0.00193301 0.000956284 -0.000666666
internal_weight=37363 4267 3826 1652 33096 7938 1122 2469 1433 2174 530 423 441 1751 260 273 1234 862 199 365 346 94 1405 60 347 160 5469 2478 1830 150
internal_count=37363 4267 3826 1652 33096 7938 1122 2469 1433 2174 530 423 441 1751 260 273 1234 862 199 365 346 94 1405 60 347 160 5469 2478 1830 150
is_linear=0
shrinkage=0.05


Tree=20
num_leaves=31
num_cat=0
split_feature=4 4 0 4 1 0 0 4 3 7 4 1 1 7 4 6 7 4 0 1 3 4 3 7 4 6 7 1 3 4
split_gain=377.841 87.905 63.1849 57.0271 25.2981 23.7201 21.8104 15.7586 15.1968 14.6873 14.1339 15.2409 12.3471 10.2378 9.39573 9.36925 15.5416 9.33801 5.81101 5.36508 5.33203 6.30865 4.92357 4.58504 4.56531 4.31963 5.38009 3.9336 3.98706 4.05831
threshold=0.61883163840671085 0.53767001771298661 0.37940952255126054 0.70107289208020729 0.60355339059327384 -0.91597561503675329 0.12940952255126045 0.65488470592465309 3.5000000000000004 16.550000000000004 0.56716886566736491 0.78656609248549303 0.60355339059327384 18.683333333333341 0.49705848172959149 0.71210382544704498 16.850000000000005 0.58936910830199762 0.78656609248549325 -0.12940952255126037 2.5000000000000004 0.76231666856539892 4.5000000000000009 16.083333333333339 0.59990989468170408 0.73066870727490307 11.933333333333335 -0.70710678118654757 4.5000000000000009 0.65270959649984228
decision_type=2 2 2 2 2 2 2 2 2 2 2 2 2 2 2 2 2 2 2 2 2 2 2 2 2 2 2 2 2 2
left_child=1 12 5 4 27 -3 7 9 -7 -6 11 23 14 18 -1 16 20 -10 -12 -16 21 -5 -9 -4 -15 26 -8 28 29 -2
right_child=3 2 10 15 6 8 25 22 17 -11 13 -13 -14 24 19 -17 -18 -19 -20 -21 -22 -23 -24 -25 -26 -27 -28 -29 -30 -31
leaf_value=-0.0041680286891452416 -0.00083721884976008145 -0.00048352574930402042 -0.00023548301965124402 -0.00049726630897742232 -0.00095062592606351068 -0.001335908665036589 -0.0001405145187494451 -0.00049447183227247632 -0.0015565881472046068 -0.00035240810117718514 -0.00014522382695119805 -0.0006571944548286893 -0.0044246499773553088 -0.0007002017599513395 -0.0022997551113962504 0.0026444804258685395 0.00056558988349619441 -0.00076003153054804255 7.318446942643507e-05 -0.00083454297848971565 -3.7811933589709237e-05 0.00036818349315720996 -8.1762115126719174e-05 -0.00082859018069374136 -0.00037482265892039364 -0.00058717196260877486 3.1968417342241138e-05 0.00033396338312071321 8.6546057559247212e-05 -0.00022315989875195094
leaf_weight=86 56 121 265 240 110 261 275 253 116 135 502 85 187 198 42 26498 1922 189 596 126 248 72 345 128 185 41 805 2640 486 150
leaf_count=86 56 121 265 240 110 261 275 253 116 135 502 85 187 198 42 26498 1922 189 596 126 248 72 345 128 185 41 805 2640 486 150
internal_value=0.00217234 -0.0145821 -0.0111376 0.00368129 -0.0010895 -0.0241849 -0.00559063 -0.0116667 -0.0284806 -0.0223469 -0.00656202 -0.0140377 -0.0352494 -0.00414922 -0.0280709 0.00455314 0.00161563 -0.0209016 -0.00169399 -0.0211905 -0.00571429 -0.0100641 -0.00729097 -0.0098855 -0.011188 -0.00102141 -0.000416666 0.00156363 -0.00179191 -0.00762136
internal_weight=37363 3087 2646 34276 5296 687 1964 843 566 245 1959 478 441 1481 254 28980 2482 305 1098 168 560 312 598 393 383 1121 1080 3332 692 206
internal_count=37363 3087 2646 34276 5296 687 1964 843 566 245 1959 478 441 1481 254 28980 2482 305 1098 168 560 312 598 393 383 1121 1080 3332 692 206
is_linear=0
shrinkage=0.05


Tree=21
num_leaves=31
num_cat=0
split_feature=4 4 0 3 4 1 0 0 3 4 4 4 0 7 0 4 7 0 1 3 5 6 0 7 1 7 4 4 7 4
split_gain=343.883 110.804 60.2804 31.5487 29.7628 24.4066 24.2898 17.27 20.0473 16.3595 13.5856 11.8095 11.5665 10.2885 10.6201 10.0485 8.69252 5.67044 5.13477 4.95143 4.29639 3.98234 3.92104 3.59005 3.31361 2.98916 2.96533 2.48 1.85441 1.81912
threshold=0.64789003973668635 0.54797484094917726 0.37940952255126054 3.5000000000000004 0.75163987245925656 0.60355339059327384 0.78656609248549325 -1.0000000180025095e-35 1.5000000000000002 0.52257693429731555 0.59990989468170408 0.58936910830199762 -0.78656609248549303 19.116666666666671 0.78656609248549325 0.60605938784595137 19.916666666666668 -0.91597561503675329 -0.37940952255126015 4.5000000000000009 0.66429372997703717 0.65270959649984228 -0.91597561503675329 11.933333333333335 0.37940952255126048 21.816666666666666 0.66200929049324742 0.49705848172959149 19.650000000000006 0.69735589749629401
decision_type=2 2 2 2 2 2 2 2 2 2 2 2 2 2 2 2 2 2 2 2 2 2 2 2 2 2 2 2 2 2
left_child=1 6 3 12 5 29 22 8 21 24 13 19 -3 14 -4 -14 -10 -13 -15 -5 25 -7 -1 26 27 -12 -9 -8 -11 -2
right_child=4 2 10 11 -6 7 9 23 16 28 20 17 15 18 -16 -17 -18 -19 -20 -21 -22 -23 -24 -25 -26 -27 -28 -29 -30 -31
leaf_value=-0.0019753282923012688 0.00030342244470883727 -0.00019536791336399327 -0.0002671078211744553 -0.00073442814236651178 0.003225087327112615 -0.0006038887833139002 -0.0032861554700100697 -0.00026306742770421197 -0.00039052659556019088 -0.00022791288178963831 5.3571746238145847e-05 7.7742576529318794e-05 -0.0013216970154395137 -0.00031457947749139533 -2.3368295182476668e-05 -0.00073374261902336947 8.0043205686022436e-06 -0.00045819624864640361 -0.00084500968342648823 -0.0013026230502602219 -0.00038461921846571237 -0.0009439826346199524 -0.0038732400572852434 0.00010214573558477125 -0.004061445159708737 -0.00021234044597927767 -0.0001299091930946871 -0.0013144270059522636 -0.00089736923337950612 0.00073868106642548657
leaf_weight=29 2213 53 478 36 24570 50 34 63 433 126 1130 159 175 69 529 258 399 520 169 106 87 65 288 1219 59 351 222 32 20 3421
leaf_count=29 2213 53 478 36 24570 50 34 63 433 126 1130 159 175 69 529 258 399 520 169 106 87 65 288 1219 59 351 222 32 20 3421
internal_value=0.00222319 -0.0104099 -0.00751214 -0.0163849 0.00404456 0.00141311 -0.0307143 -0.00275194 -0.00804118 -0.0197232 -0.00338962 -0.010408 -0.0264815 -0.00728916 -0.00507944 -0.0291801 -0.00533654 -0.00766568 -0.0166387 -0.0235211 -0.000293367 -0.0276087 -0.0401104 0.000578458 -0.033 0.000340986 -0.00447368 -0.025303 -0.00835616 0.00322506
internal_weight=37363 4708 4120 1307 32655 8085 588 2451 947 271 2813 821 486 1245 1007 433 832 679 238 142 1568 115 317 1504 125 1481 285 66 146 5634
internal_count=37363 4708 4120 1307 32655 8085 588 2451 947 271 2813 821 486 1245 1007 433 832 679 238 142 1568 115 317 1504 125 1481 285 66 146 5634
is_linear=0
shrinkage=0.05


Tree=22
num_leaves=31
num_cat=0
split_feature=4 4 0 4 4 1 4 5 1 3 0 0 3 1 7 1 7 0 0 4 0 3 3 4 6 1 1 3 1 1
split_gain=307.561 96.1811 53.5302 31.9252 30.571 24.6693 22.929 17.9662 17.4825 16.6589 13.7901 11.2737 12.873 10.7714 8.27332 11.8488 5.9417 5.59507 5.40517 4.5667 4.49481 4.30766 3.86358 2.32461 2.2787 2.24659 2.15621 5.92022 2.33611 1.97645
threshold=0.64789003973668635 0.52257693429731555 0.37940952255126054 0.59304579066382501 0.75636180984750678 0.60355339059327384 0.57228613487181801 0.79751154179068207 0.78656609248549303 3.5000000000000004 -0.78656609248549303 0.12940952255126045 1.5000000000000002 0.98296291314453421 21.816666666666666 1.0000000180025095e-35 16.083333333333339 0.78656609248549325 0.91597561503675362 0.55495658542905746 -0.91597561503675329 3.5000000000000004 2.5000000000000004 0.49705848172959149 0.67056163489475529 -0.12940952255126037 -0.9159756150367534 4.5000000000000009 -0.98296291314453399 0.60355339059327384
decision_type=2 2 2 2 2 2 2 2 2 2 2 2 2 2 2 2 2 2 2 2 2 2 2 2 2 2 2 2 2 2
left_child=1 18 3 10 5 26 8 11 16 13 25 12 -7 -5 17 -16 -4 -8 29 -10 -11 -12 24 -20 -9 -3 27 28 -2 -1
right_child=4 2 6 9 -6 7 14 22 19 20 21 -13 -14 -15 15 -17 -18 -19 23 -21 -22 -23 -24 -25 -26 -27 -28 -29 -30 -31
leaf_value=-0.003474884103044413 1.995926964404583e-05 -0.0011864764114017958 -0.00015435296914650346 -0.00049926943234077244 0.00323068356950988 -0.00063228554923805966 -7.5773999182597563e-05 -0.00032662741745194624 -0.00085858589574390692 8.4177134637460161e-05 -0.0015789215448175397 0.00014800496797019543 -0.00012669789950314194 -0.00080177599294235639 -3.4579030257474615e-05 -0.00065822609240527986 -0.00079503193928659596 0.00012834254560180694 -0.0031218476965095649 -0.00023864009922789408 -0.00042928193086009029 -0.0013332822439580663 -0.00026010379070527228 -0.0012772165897624746 -0.00067359623617221204 -0.00030333643366004892 0.00062347788056651835 0.00037512666192393812 -0.00062268859757191983 -0.0046360196504942556
leaf_weight=102 60 61 411 274 24129 163 792 24 60 151 129 990 1250 91 285 224 190 1036 34 59 502 116 70 29 58 33 5266 525 120 129
leaf_count=102 60 61 411 274 24129 163 792 24 60 151 129 990 1250 91 285 224 190 1036 34 59 502 116 70 29 58 33 5266 525 120 129
internal_value=0.00229144 -0.0096559 -0.00781151 -0.0160759 0.00401393 0.0014403 -0.00414295 -0.00267123 -0.0119444 -0.0116503 -0.0293658 -0.00161673 -0.00448337 -0.0202055 -0.00173941 -0.00737721 -0.00847754 -0.000169584 -0.0373469 -0.0294538 -0.0068683 -0.0356122 -0.0193421 -0.0243651 -0.0267073 -0.0130851 0.00319963 0.000602837 -0.00722222 -0.0408874
internal_weight=37363 4708 4414 1357 32655 8526 3057 2555 720 1018 339 2403 1413 365 2337 509 601 1828 294 119 653 245 152 63 82 94 5971 705 180 231
internal_count=37363 4708 4414 1357 32655 8526 3057 2555 720 1018 339 2403 1413 365 2337 509 601 1828 294 119 653 245 152 63 82 94 5971 705 180 231
is_linear=0
shrinkage=0.05


Tree=23
num_leaves=31
num_cat=0
split_feature=4 4 4 0 1 3 0 3 4 0 7 1 4 0 6 7 4 0 4 4 0 0 7 0 1 3 4 7 6 7
split_gain=281.223 75.0944 50.3698 42.9102 22.7156 17.7111 14.3641 16.2775 12.7289 16.7611 9.22105 10.1265 9.15878 7.77285 7.25735 16.3308 13.8225 7.18367 6.99749 6.19452 5.44722 5.15753 4.33066 3.80817 3.77423 6.06832 3.78417 3.70616 3.46906 3.99746
threshold=0.61883163840671085 0.52257693429731555 0.72557124882138002 0.37940952255126054 0.60355339059327384 3.5000000000000004 0.12940952255126045 3.5000000000000004 0.56716886566736491 0.60355339059327384 24.016666666666669 -0.37940952255126015 0.65488470592465309 -0.91597561503675329 0.74223476042995862 13.916666666666668 0.77552665078108074 0.91597561503675362 0.59304579066382501 0.56235551158765384 0.91597561503675362 1.0000000180025095e-35 16.083333333333339 -0.78656609248549303 -0.70710678118654757 4.5000000000000009 0.65270959649984228 21.550000000000001 0.73066870727490307 11.933333333333335
decision_type=2 2 2 2 2 2 2 2 2 2 2 2 2 2 2 2 2 2 2 2 2 2 2 2 2 2 2 2 2 2
left_child=1 17 4 5 24 13 7 12 9 -5 20 -12 -6 -3 15 16 -4 -1 -15 23 -10 -21 -11 -7 25 26 -2 -9 29 -8
right_child=2 3 14 8 6 19 28 27 10 22 11 -13 -14 18 -16 -17 -18 -19 -20 21 -22 -23 -24 -25 -26 -27 -28 -29 -30 -31
leaf_value=-0.0037852133261484021 -0.00078770511436446894 -8.7416929192483459e-05 -0.0004247903294075971 -0.00067693381881526744 -0.00084007018362009683 -0.0011865804225176201 -8.6968141044313745e-05 -0.00015262677383067716 -0.00014007694142319718 -0.00015124294405273629 -0.00017346460335813046 -0.00083584247065318423 -0.00048620460112418261 -0.0015024651356894219 0.003200663607768234 0.00053681602561740681 0.00051175262807541815 -0.0027824665961728766 -0.00063107143498654036 -0.00083629238808666261 0.00022149502840783719 -0.00012233112594123359 -0.00068877966406587037 -0.001782354972445326 0.00038856354668099076 0.00018494214371209318 -0.00031307039151608239 6.7610036686134367e-05 -0.00045928338451832322 7.3924111113800187e-05
leaf_weight=231 56 23 220 107 123 20 291 462 886 335 83 83 404 136 23768 2794 140 63 140 262 429 100 157 32 3676 814 259 262 78 929
leaf_count=231 56 23 220 107 123 20 291 462 886 335 83 83 404 136 23768 2794 140 63 140 262 429 100 157 32 3676 814 259 262 78 929
internal_value=0.00233426 -0.0121202 0.00363607 -0.00959005 -3.12753e-05 -0.0201753 -0.00384661 -0.00766986 -0.00596154 -0.0121119 -0.003474 -0.0145783 -0.0143548 -0.0294482 0.00463784 0.00238427 -0.00763889 -0.0361565 -0.0317754 -0.0134783 -0.00207224 -0.0111602 -0.00821138 -0.0296154 0.00199272 -0.000535872 -0.00642857 -0.00280387 -0.000161787 0.000491803
internal_weight=37363 3087 34276 2793 7354 713 2549 1251 2080 599 1481 166 527 299 26922 3154 360 294 276 414 1315 362 492 52 4805 1129 315 724 1298 1220
internal_count=37363 3087 34276 2793 7354 713 2549 1251 2080 599 1481 166 527 299 26922 3154 360 294 276 414 1315 362 492 52 4805 1129 315 724 1298 1220
is_linear=0
shrinkage=0.05


Tree=24
num_leaves=31
num_cat=0
split_feature=4 4 4 1 0 3 0 3 4 1 7 0 1 0 7 4 0 4 7 0 0 0 0 1 7 4 7 1 4 7
split_gain=256.78 69.9683 57.6715 34.6777 32.3153 24.1123 12.8112 11.8894 9.66769 15.0628 8.97382 8.2549 8.16325 7.84657 9.21005 7.68307 6.48627 5.31815 6.93298 5.21342 5.10695 5.88205 5.03226 4.90805 4.81083 4.00547 2.48889 2.46281 4.09413 2.45614
threshold=0.60948700304810299 0.52257693429731555 0.75779596182466091 0.60355339059327384 0.37940952255126054 1.5000000000000002 0.12940952255126045 3.5000000000000004 0.55495658542905746 0.78656609248549303 22.783333333333339 0.91597561503675362 -0.37940952255126015 0.12940952255126045 20.783333333333339 0.65488470592465309 -0.91597561503675329 0.65928485891147159 20.316666666666666 0.98296291314453421 1.0000000180025095e-35 -0.91597561503675329 1.0000000180025095e-35 0.60355339059327384 16.38333333333334 0.65020304486995906 16.716666666666672 0.60355339059327384 0.49705848172959149 8.0500000000000025
decision_type=2 2 2 2 2 2 2 2 2 2 2 2 2 2 2 2 2 2 2 2 2 2 2 2 2 2 2 2 2 2
left_child=1 11 3 17 7 6 15 16 9 24 23 27 -12 14 -7 -5 -3 18 -2 -20 21 -9 -18 -10 -6 -8 -13 28 -1 -15
right_child=2 4 -4 5 8 13 25 20 10 -11 12 26 -14 29 -16 -17 22 -19 19 -21 -22 -23 -24 -25 -26 -27 -28 -29 -30 -31
leaf_value=-0.0035107959555339763 0.00049300930374246465 -0.00011899312772091706 0.0029980843277142124 -0.0015191263801893609 -0.00013390353014469317 -0.00025967314992373443 -0.00018049243153200485 -0.0006536944804611249 -1.3106422742548754e-05 -0.00078180991001594547 -0.00021832520665098908 -0.0023816432252071668 -0.00091349202124409732 -0.00021972951996611403 3.1790011492845154e-05 -0.00056281558972127077 -0.0016857599497052255 0.00049341236792160446 -0.00013153310735670258 -0.00076434136591281619 -0.00023432761137465478 -0.0011789894292168574 -0.00082428478553377084 -0.00021778878004295212 -0.000578488954406131 0.000199799656698769 -0.0025994876973488216 -0.0042149580016621222 -0.0012745727194326596 3.3150240831754353e-05
leaf_weight=52 678 21 23982 48 218 1029 99 78 681 60 84 35 113 21 535 210 84 5599 903 69 87 159 134 549 84 82 28 129 50 1462
leaf_count=52 678 21 23982 48 218 1029 99 78 681 60 84 35 113 21 535 210 84 5599 903 69 87 159 134 549 84 82 28 129 50 1462
internal_value=0.00236504 -0.0126493 0.00350938 0.000463438 -0.00977466 -0.00363454 -0.01459 -0.020222 -0.00648686 -0.0137845 -0.0046356 -0.0356463 -0.0145431 -0.00205612 -0.00452685 -0.0217442 -0.028682 0.00243413 -6.06059e-05 -0.00276749 -0.0139815 -0.0177848 -0.0312385 -0.00304878 -0.00923841 -0.00439226 -0.0196032 -0.0400216 -0.0342157 0.000549562
internal_weight=37363 2646 34717 10735 2352 3486 439 563 1789 362 1427 294 197 3047 1564 258 239 7249 1650 972 324 237 218 1230 302 181 63 231 102 1483
internal_count=37363 2646 34717 10735 2352 3486 439 563 1789 362 1427 294 197 3047 1564 258 239 7249 1650 972 324 237 218 1230 302 181 63 231 102 1483
is_linear=0
shrinkage=0.05


Tree=25
num_leaves=31
num_cat=0
split_feature=4 4 0 4 3 1 5 4 0 4 4 0 7 0 7 7 0 0 6 0 7 1 7 6 0 3 2 1 4 1
split_gain=237.026 84.5273 34.3284 30.8405 22.3139 22.2733 20.999 15.3411 15.2546 13.4516 11.378 8.64067 11.7883 6.74476 6.402 6.15318 5.78323 5.75089 5.71713 5.18 5.0484 9.35938 3.80534 3.71939 3.71439 3.59511 3.28695 3.14908 3.1796 2.7882
threshold=0.65020304486995906 0.53767001771298661 0.25881904510252091 0.77115808060666924 1.5000000000000002 0.60355339059327384 0.80278414232580297 0.59304579066382501 0.78656609248549325 0.49705848172959149 0.5851868930973102 -1.0000000180025095e-35 16.550000000000004 -0.91597561503675329 18.983333333333338 13.916666666666668 -0.78656609248549303 0.12940952255126045 0.5851868930973102 0.78656609248549325 21.816666666666666 1.0000000180025095e-35 15.750000000000002 0.67056163489475529 0.91597561503675362 2.5000000000000004 2.5000000000000004 0.78656609248549303 0.49705848172959149 -0.37940952255126015
decision_type=2 2 2 2 2 2 2 2 2 2 2 2 2 2 2 2 2 2 2 2 2 2 2 2 2 2 2 2 2 2
left_child=1 8 4 5 17 -2 11 16 27 -10 14 12 -7 -9 19 23 -6 -3 -19 -4 24 -22 -11 -8 -12 -17 -16 28 -1 -30
right_child=3 2 10 -5 7 6 15 13 9 22 20 -13 -14 -15 26 25 -18 18 -20 -21 21 -23 -24 -25 -26 -27 -28 -29 29 -31
leaf_value=-0.0040758176650498804 0.00050615116854670539 -0.0015823815577400029 -0.00024584022721140073 0.0033523731033220372 -0.00078867281659589445 -0.00052613791617624227 -0.00026546288670018279 0.00013472076305253304 -0.0033198282321789336 -8.9678139153505997e-05 -3.3792931215931214e-05 8.0933847135097577e-05 -2.9954706914487723e-05 -0.00036319753475611591 -0.00051005190067922031 -0.00059743450180907865 -0.0011793250382306679 -0.00050097212840515026 -0.00019478693739070289 -0.00010669368501594706 3.7793712215768948e-05 -0.00052717449770970314 -0.00088227494696813092 -0.0006449668651405553 0.00078078004946527358 -0.00012709529006917354 -0.00088567463379899704 -0.0034074731554819093 -0.0017262784811249926 -0.00087814848597313688
leaf_weight=46 6983 58 366 22659 87 316 28 186 69 75 1003 1613 675 731 69 41 183 57 49 410 308 215 54 98 595 95 97 107 21 69
leaf_count=46 6983 58 366 22659 87 316 28 186 69 75 1003 1613 675 731 69 41 183 57 49 410 308 215 54 98 595 95 97 107 21 69
internal_value=0.00239047 -0.00791452 -0.00582918 0.00392949 -0.0124685 0.00159356 -0.00211793 -0.01008 -0.0287868 -0.0184848 -0.00290075 -0.000760368 -0.00443491 -0.00699564 -0.00747346 -0.0156107 -0.0205556 -0.0297561 -0.0228302 -0.00556701 -0.000869872 -0.00513384 -0.00895349 -0.0235714 0.000525657 -0.00823529 -0.0163855 -0.0371811 -0.0321324 -0.0266667
internal_weight=37363 4855 4414 32508 1351 9849 2866 1187 441 198 3063 2604 991 917 942 262 270 164 106 776 2121 523 129 126 1598 136 166 243 136 90
internal_count=37363 4855 4414 32508 1351 9849 2866 1187 441 198 3063 2604 991 917 942 262 270 164 106 776 2121 523 129 126 1598 136 166 243 136 90
is_linear=0
shrinkage=0.05


Tree=26
num_leaves=31
num_cat=0
split_feature=4 4 0 4 3 5 4 7 4 1 0 3 0 0 0 1 0 7 1 6 7 0 4 0 6 4 4 5 4 4
split_gain=213.551 81.8914 32.2623 31.2483 21.5053 20.9653 17.1613 15.4845 12.5325 11.3694 8.09659 11.4924 7.90858 6.55648 6.12255 6.01344 5.85083 5.76388 9.01274 5.40428 4.97809 4.72969 3.69807 4.28808 3.38734 2.88279 2.64353 3.53735 2.2158 1.9651
threshold=0.65020304486995906 0.52257693429731555 0.37940952255126054 0.77115808060666924 1.5000000000000002 0.80813714236565415 0.59304579066382501 16.216666666666672 0.57228613487181801 0.60355339059327384 0.12940952255126045 1.5000000000000002 0.91597561503675362 0.12940952255126045 -0.91597561503675329 0.78656609248549303 -0.91597561503675329 21.816666666666666 1.0000000180025095e-35 0.5851868930973102 18.383333333333336 0.91597561503675362 0.49705848172959149 0.78656609248549325 0.67056163489475529 0.55495658542905746 0.70676537514990012 0.718633850134209 0.49705848172959149 0.75005951864047982
decision_type=2 2 2 2 2 2 2 2 2 2 2 2 2 2 2 2 2 2 2 2 2 2 2 2 2 2 2 2 2 2
left_child=1 12 4 5 13 9 14 24 15 26 11 -11 22 -3 -6 20 -8 21 -19 -15 -4 -10 -1 -24 -7 -17 27 -2 -14 -26
right_child=3 2 8 -5 6 7 16 -9 17 10 -12 -13 28 19 -16 25 -18 18 -20 -21 -22 -23 23 -25 29 -27 -28 -29 -30 -31
leaf_value=-0.004516132216467985 0.00027920628375400846 -0.0015032624798530009 -0.00014980783360709517 0.0031847544481559357 -0.00078635958702066898 -0.00035321683532371184 0.0001279847248999059 -3.7605189028677392e-05 -4.0262320673300598e-05 -0.0004968335390183855 0.00018516259855661335 -7.6696983830342849e-05 -0.0025306661853990537 -0.00052870276753027201 -0.0011454742336781034 -0.00058295896419492796 -0.00036765700080796114 4.2642097622274565e-07 -0.00053414690693174302 -0.00018504759052116672 -0.00068548675500361737 0.00059504361350715042 -0.0016937688585330784 -0.00045416407513116855 -0.00075396387703389567 -0.00016967995296301487 0.00074213538040580928 -0.00022382093832895136 -0.00090014429824986 -0.00056931617896202971
leaf_weight=113 2418 58 487 22659 62 27 186 169 1220 184 1050 1405 34 60 233 60 762 306 235 49 114 670 91 27 27 59 4265 221 29 83
leaf_count=113 2418 58 487 22659 62 27 186 169 1220 184 1050 1405 34 60 233 60 762 306 235 49 114 670 91 27 27 59 4265 221 29 83
internal_value=0.00243329 -0.00734809 -0.00569941 0.00389412 -0.0119858 0.0015428 -0.00972245 -0.0113399 -0.00288639 0.00195588 -0.000835544 -0.00308685 -0.0329252 -0.0288323 -0.0202542 -0.00868056 -0.00644515 -0.0011703 -0.00572089 -0.0216055 -0.00664725 0.000132275 -0.0372078 -0.0310169 -0.0238321 -0.0189496 0.00302289 0.00177908 -0.0172222 -0.0277273
internal_weight=37363 4855 4561 32508 1410 9849 1243 306 3151 9543 2639 1589 294 167 295 720 948 2431 541 109 601 1890 231 118 137 119 6904 2639 63 110
internal_count=37363 4855 4561 32508 1410 9849 1243 306 3151 9543 2639 1589 294 167 295 720 948 2431 541 109 601 1890 231 118 137 119 6904 2639 63 110
is_linear=0
shrinkage=0.05


Tree=27
num_leaves=31
num_cat=0
split_feature=4 4 6 0 4 3 7 0 4 4 6 7 0 0 0 0 2 0 4 1 0 4 1 5 0 2 7 1 2 7
split_gain=199.855 78.5905 31.6739 28.8445 20.8649 16.4703 16.3895 13.1217 12.2757 11.8989 8.56531 8.11377 7.85158 6.90874 6.87267 5.8935 5.76367 11.3993 4.19824 5.15918 4.19153 3.79818 4.70023 3.49295 3.2984 3.88341 3.20087 4.0434 3.09193 2.85479
threshold=0.65020304486995906 0.52257693429731555 0.7437869067168098 0.37940952255126054 0.56235551158765384 1.5000000000000002 13.216666666666669 -1.0000000180025095e-35 0.78282411903918137 0.59304579066382501 0.64789003973668635 18.550000000000001 0.91597561503675362 -0.91597561503675329 0.12940952255126045 0.78656609248549325 5.5000000000000009 -1.0000000180025095e-35 0.49705848172959149 0.78656609248549303 -0.78656609248549303 0.72557124882138002 0.60355339059327384 0.68972893966515014 0.37940952255126054 1.0000000180025095e-35 19.250000000000004 -0.37940952255126015 2.5000000000000004 14.616666666666669
decision_type=2 2 2 2 2 2 2 2 2 2 2 2 2 2 2 2 2 2 2 2 2 2 2 2 2 2 2 2 2 2
left_child=1 12 6 4 20 14 7 8 10 11 -2 15 18 -7 -6 -5 -8 23 -1 29 -3 22 -4 -18 25 -9 -11 -28 -13 -20
right_child=2 3 21 9 5 13 16 24 -10 26 -12 28 -14 -15 -16 -17 17 -19 19 -21 -22 -23 -24 -25 -26 -27 27 -29 -30 -31
leaf_value=-0.0042903256056445868 -0.00021381564739082347 -0.0010389717506393409 0.00052079235447415008 -0.0002341710787582135 -0.001294201399600528 4.8820644880566946e-05 0.00022797315857120881 -0.00033187257085492738 0.00025360311644254889 5.5772799664470106e-05 -0.00055570034620546882 -0.00048118164174536541 -0.0022295579384972548 -0.00046386774271907084 -0.00020875503717934104 -6.4674901021932545e-05 -1.77229516257564e-05 0.00024077364313342993 -0.0003029963705164877 -0.0018564018048575161 -0.0015550279937222144 0.0027046408633861086 -0.00050305501288479618 -0.00043153864246256137 0.00061441223127712142 -6.7454906665223864e-05 0.00027386320180213295 -0.00024186355523171237 -0.00070333909742226598 -0.0011986338398994824
leaf_weight=113 55 29 1320 470 54 230 5726 29 99 1236 197 107 63 919 95 557 85 487 28 42 83 23669 110 256 183 292 186 451 144 48
leaf_count=113 55 29 1320 470 54 230 5726 29 99 1236 197 107 63 919 95 557 85 487 28 42 83 23669 110 256 183 292 186 451 144 48
internal_value=0.002444 -0.00701854 0.0038572 -0.00540342 -0.0113475 -0.00956086 0.000984613 -0.00552632 -0.0129487 -0.00274357 -0.0188095 -0.00646322 -0.0320748 -0.00753264 -0.0252013 -0.00449367 0.00183399 -0.00206522 -0.036342 -0.0297458 -0.0320536 0.00470517 0.0022028 -0.00907625 -0.000357143 -0.00341121 -0.000205552 -0.00308477 -0.0145219 -0.0219737
internal_weight=37363 4855 32508 4561 1410 1298 7409 855 351 3151 252 1278 294 1149 149 1027 6554 828 231 118 112 25099 1430 341 504 321 1873 637 251 76
internal_count=37363 4855 32508 4561 1410 1298 7409 855 351 3151 252 1278 294 1149 149 1027 6554 828 231 118 112 25099 1430 341 504 321 1873 637 251 76
is_linear=0
shrinkage=0.05


Tree=28
num_leaves=31
num_cat=0
split_feature=4 4 4 1 0 3 0 0 3 4 0 1 0 7 7 6 4 4 7 1 6 1 1 3 1 1 1 7 0 4
split_gain=181.663 60.499 48.4402 25.4182 25.3201 23.0317 15.5048 12.0952 9.2473 8.92559 11.6266 8.53446 7.6641 9.21458 6.20653 5.86462 5.85529 5.449 5.29844 5.52568 4.56032 4.50655 4.22971 7.85046 4.96591 3.95571 3.46219 2.87262 2.84041 2.29661
threshold=0.61883163840671085 0.52257693429731555 0.76676609496685411 0.60355339059327384 1.0000000180025095e-35 1.5000000000000002 -0.91597561503675329 -1.0000000180025095e-35 3.5000000000000004 0.56235551158765384 0.60355339059327384 0.60355339059327384 -0.60355339059327362 20.316666666666666 12.683333333333335 0.65732820709176665 0.49705848172959149 0.65928485891147159 21.816666666666666 -0.37940952255126015 0.57726365286494608 0.37940952255126048 -0.70710678118654757 4.5000000000000009 -0.9159756150367534 -0.12940952255126037 0.91597561503675351 16.38333333333334 -0.60355339059327362 0.70676537514990012
decision_type=2 2 2 2 2 2 2 2 2 2 2 2 2 2 2 2 2 2 2 2 2 2 2 2 2 2 2 2 2 2
left_child=1 11 3 22 6 7 -3 15 28 10 20 16 13 -7 -14 -5 -1 -9 21 -20 -6 -11 23 24 -2 -18 -10 -12 -8 -24
right_child=2 4 -4 5 9 12 8 17 26 18 27 -13 14 -15 -16 -17 25 -19 19 -21 -22 -23 29 -25 -26 -27 -28 -29 -30 -31
leaf_value=-0.0026572117451436577 -0.00060662925596486651 -0.00026305572054425062 0.0027617767773957971 -0.00053668896869232807 -0.00050213827287516892 -0.00082363655528270143 -0.001494046040436108 -0.000312262727369736 -0.0009696922593694225 0.00019486324590383127 -0.00010019519970858086 -0.0033868301139774412 -0.00018499799675926446 -0.00016608310215716085 1.8259023267286314e-05 -0.00078246109533988489 -0.0014457413362471251 -5.5026453505445875e-05 -0.00014503407530339676 -0.00064771544699985476 -0.0014542847976046016 -0.00012105538609870218 0.00023506956837681571 0.00028570795966297079 -6.7639775069628277e-05 -0.00036198757858261002 -0.00088082152252262798 -0.00048793967944717951 -0.0012361832514726501 0.000805761094116342
leaf_weight=86 216 125 23100 64 95 54 24 115 128 423 290 129 409 143 2469 93 22 156 127 175 22 1114 2868 1460 343 57 73 108 89 2786
leaf_count=86 216 125 23100 64 95 54 24 115 128 423 290 129 409 143 2469 93 22 156 127 175 22 1114 2868 1460 343 57 73 108 89 2786
internal_value=0.00247745 -0.00913994 0.00352375 0.000821403 -0.00686896 -0.00270768 -0.0178929 -0.0135748 -0.0238217 -0.00481308 -0.0106311 -0.0307143 -0.00119512 -0.010736 -0.000542043 -0.0246178 -0.0231818 -0.00717712 -0.0031838 -0.00923841 -0.0244872 -0.00199414 0.00243256 0.000468054 -0.00457066 -0.0133544 -0.0173881 -0.00655779 -0.0352655 0.00313406
internal_weight=37363 3087 34276 11176 2793 3503 439 428 314 2354 515 294 3075 197 2878 157 165 271 1839 302 117 1537 7673 2019 559 79 201 398 113 5654
internal_count=37363 3087 34276 11176 2793 3503 439 428 314 2354 515 294 3075 197 2878 157 165 271 1839 302 117 1537 7673 2019 559 79 201 398 113 5654
is_linear=0
shrinkage=0.05


Tree=29
num_leaves=31
num_cat=0
split_feature=4 4 4 0 5 0 4 3 7 1 3 0 0 0 4 6 4 3 7 0 6 7 1 0 0 2 1 5 0 4
split_gain=168.566 63.3693 32.037 25.1221 20.6612 20.1761 13.0534 12.5196 12.3789 11.3188 8.75151 9.05968 7.48023 7.25146 6.62781 6.43834 5.74649 4.80996 4.73278 3.82157 3.74182 3.59019 11.7016 4.98727 3.50067 2.55292 3.03981 2.48721 3.51169 2.12541
threshold=0.65020304486995906 0.52257693429731555 0.77709194924115244 1.0000000180025095e-35 0.81665207118537231 -0.78656609248549303 0.57228613487181801 6.5000000000000009 14.933333333333335 0.60355339059327384 2.5000000000000004 -1.0000000180025095e-35 0.78656609248549325 0.60355339059327384 0.6125657845477922 0.58936910830199762 0.49705848172959149 10.500000000000002 18.383333333333336 -0.60355339059327362 0.68099669996448375 24.283333333333339 1.0000000180025095e-35 0.91597561503675362 -0.91597561503675329 5.5000000000000009 -0.5 0.52257693429731555 0.37940952255126054 0.58936910830199762
decision_type=2 2 2 2 2 2 2 2 2 2 2 2 2 2 2 2 2 2 2 2 2 2 2 2 2 2 2 2 2 2
left_child=1 12 4 5 9 29 13 14 20 25 11 -11 24 15 -7 -5 -14 -9 -15 -12 -6 23 -23 -8 -1 -2 -27 -26 -29 -3
right_child=2 3 -4 6 8 7 21 17 -10 10 19 -13 16 18 -16 -17 -18 -19 -20 -21 -22 22 -24 -25 27 26 -28 28 -30 -31
leaf_value=-0.0013538684286655952 0.00056890633565261886 -0.00082432933862479894 0.0029958911476486005 -0.00038960284703918674 -0.00034728092455116061 -0.0012520659012522123 -5.8660087975284132e-05 -0.00022385936958768242 -0.00022240131366347001 -0.00045077128298784375 -0.00030836849488651339 -9.4601554642710352e-06 -0.0025806533422071784 -0.00012807535844154905 -0.00060252495281134741 -0.0013825909878933023 -0.000507641036775408 -0.00094346956693208803 -0.00059103731425176869 8.4961704217256017e-05 -0.00078400955706913085 -8.7768986454145478e-05 -0.00054036447663327158 0.00044223369660547978 -0.0038902448019098399 -0.00014528426210802024 0.00043761102789772034 -0.0018851379275858335 -0.00074975907439135962 -6.9244661260606591e-05
leaf_weight=21 6074 81 22071 159 29 118 1688 174 154 306 190 346 69 487 169 22 56 102 111 1971 75 314 113 754 85 560 732 33 30 269
leaf_count=21 6074 81 22071 159 29 118 1688 174 154 306 190 346 69 487 169 22 56 102 111 1971 75 314 113 754 85 560 732 33 30 269
internal_value=0.00251626 -0.00617405 0.00381414 -0.00472374 0.00153157 -0.0121413 -0.00286732 -0.0180018 -0.0124419 0.00188575 -0.0008123 -0.00588957 -0.0286735 -0.00860719 -0.0253136 -0.0173757 -0.0194 -0.0103986 -0.00595318 0.000719574 -0.0257692 -0.00130882 -0.00553864 -0.000569205 -0.0355325 0.0029161 0.000897833 -0.0382432 -0.0307143 -0.00271429
internal_weight=37363 4855 32508 4561 10437 913 3648 563 258 10179 2813 652 294 779 287 181 125 276 598 2161 104 2869 427 2442 169 7366 1292 148 63 350
internal_count=37363 4855 32508 4561 10437 913 3648 563 258 10179 2813 652 294 779 287 181 125 276 598 2161 104 2869 427 2442 169 7366 1292 148 63 350
is_linear=0
shrinkage=0.05


Tree=30
num_leaves=31
num_cat=0
split_feature=4 6 4 0 0 7 2 4 1 7 4 3 4 6 4 1 0 0 3 2 1 6 5 4 1 4 1 4 7 0
split_gain=155.227 51.8165 43.6282 19.8474 17.6162 28.7421 12.3864 10.0586 9.0753 9.04888 8.8231 6.79115 6.06556 6.01561 5.99863 5.44661 5.05182 4.16638 3.93805 3.6206 3.48646 12.2214 3.47637 3.37119 3.52574 3.3593 3.24948 2.66727 2.60357 2.3297
threshold=0.60948700304810299 0.7437869067168098 0.52257693429731555 0.37940952255126054 1.0000000180025095e-35 14.783333333333337 5.5000000000000009 0.56235551158765384 0.60355339059327384 18.550000000000001 0.65488470592465309 1.5000000000000002 0.66855581719343504 0.64555021857774531 0.73236927322490175 0.37940952255126048 -0.78656609248549303 1.0000000180025095e-35 9.5000000000000018 2.5000000000000004 0.37940952255126048 0.62182268923880357 0.52257693429731555 0.49705848172959149 -0.12940952255126037 0.68747471515225123 -0.37940952255126015 0.67913975823199202 11.933333333333335 0.37940952255126054
decision_type=2 2 2 2 2 2 2 2 2 2 2 2 2 2 2 2 2 2 2 2 2 2 2 2 2 2 2 2 2 2
left_child=2 4 8 7 5 10 12 16 23 20 -2 28 -7 -12 15 -3 -4 -13 -18 -11 -5 -22 -10 -1 -25 -6 -21 -17 -9 -24
right_child=1 14 3 9 25 6 -8 11 22 19 13 17 -14 -15 -16 27 18 -19 -20 26 21 -23 29 24 -26 -27 -28 -29 -30 -31
leaf_value=-0.0023625787081234958 -0.00056677301879948813 0.0005358058444143532 -0.00092399609114412811 0.00015860742229996126 5.4528314431982665e-05 -0.00023284211028729926 -0.00027632221791336011 -0.00028064781178148976 -0.0037511369127577101 -0.00033577616356220607 -4.9568083650379636e-05 -0.000592635276550162 0.00016841640761973675 -0.00041881208374059591 0.0024117206809975869 -0.00051444962701269951 -0.001348455955168178 -0.00018463714358819881 -0.00091940979371242222 -0.00023051901848816734 -8.3430802850677493e-05 -0.00068685690063857979 -0.0017720251009820662 -0.0011972666270086139 -0.00030158160350764158 0.00058872994585563922 -0.00065856031136964142 -0.00020161800015821245 -0.0010218587259337006 -0.00071227112067179243
leaf_weight=86 92 1618 29 378 2727 572 493 36 74 175 199 255 2711 557 23422 44 56 140 27 65 931 82 25 22 57 2109 158 173 20 30
leaf_count=86 92 1618 29 378 2727 572 493 36 74 175 199 255 2711 557 23422 44 56 140 27 65 931 82 25 22 57 2109 158 173 20 30
internal_value=0.00252027 0.00341 -0.00915344 -0.0068835 0.0002537 -0.00195285 -8.47456e-05 -0.015071 -0.0273129 -0.00430688 -0.0102712 -0.0117406 0.00102498 -0.00849206 0.00459219 0.00183924 -0.0284821 -0.00943038 -0.034759 -0.0109548 -0.00240474 -0.00393386 -0.0372481 -0.0195455 -0.0120886 0.00236352 -0.0151794 -0.00559908 -0.0280357 -0.0277273
internal_weight=37363 34717 2646 2352 9460 4624 3776 563 294 1789 848 451 3283 756 25257 1835 112 395 83 398 1391 1013 129 165 79 4836 223 217 56 55
internal_count=37363 34717 2646 2352 9460 4624 3776 563 294 1789 848 451 3283 756 25257 1835 112 395 83 398 1391 1013 129 165 79 4836 223 217 56 55
is_linear=0
shrinkage=0.05


Tree=31
num_leaves=31
num_cat=0
split_feature=4 4 4 5 0 0 7 1 1 0 7 4 3 4 1 7 4 0 2 5 0 3 4 5 2 1 3 7 3 4
split_gain=140.881 49.767 34.2725 22.3884 19.6643 17.4594 16.0988 13.0076 11.18 11.0729 13.9474 9.97041 9.82932 8.55862 8.32912 7.54765 6.11897 4.75512 3.96474 3.96328 5.81633 3.56105 3.5058 3.54772 3.21078 2.94838 2.67172 2.02989 1.93828 2.07545
threshold=0.65020304486995906 0.53767001771298661 0.78960670725643567 0.82335803291507892 1.0000000180025095e-35 -0.78656609248549303 14.933333333333335 0.78656609248549303 0.37940952255126048 -1.0000000180025095e-35 20.783333333333339 0.49705848172959149 6.5000000000000009 0.59304579066382501 -0.5 18.550000000000001 0.5851868930973102 0.37940952255126054 1.5000000000000002 0.6125657845477922 0.98296291314453421 10.500000000000002 0.73911831653517834 0.76232480069306507 2.5000000000000004 0.37940952255126048 11.500000000000002 18.983333333333338 4.5000000000000009 0.60948700304810299
decision_type=2 2 2 2 2 2 2 2 2 2 2 2 2 2 2 2 2 2 2 2 2 2 2 2 2 2 2 2 2 2
left_child=1 7 3 8 5 28 18 11 22 10 -10 25 16 15 -13 17 -7 -6 -5 -15 -21 -14 23 -2 -17 -1 -20 -8 -3 -30
right_child=2 4 -4 6 13 12 27 -9 9 -11 -12 14 21 19 -16 24 -18 -19 26 20 -22 -23 -24 -25 -26 -27 -28 -29 29 -31
leaf_value=-0.0019316424234119018 0.00031929394459538721 0.00019395112359156432 0.003180400756756391 -0.00044573222079386437 -0.0003630191145788416 -0.0013294411682189147 -0.00042383192467626693 -0.0024896123174876603 -0.00035637753904145666 0.00012679988173802911 0.00010653559430808528 -0.0013948413666558792 -0.00020002540404096743 0.0001882718221852274 -0.00036626936439419739 -0.0004003659434655048 -0.00056314019594189081 -9.3008948028012553e-05 -0.0009425943945328988 -3.4031765908389018e-05 -0.00082466559838284049 -0.00085862078419455189 0.00096200777153335974 -0.00028987784575508171 -0.00065426948687304846 -0.0035394690885582449 -0.00051184251324961629 6.9098012054648249e-05 -0.00070481075785443995 -0.00016410203883438125
leaf_weight=51 4222 134 20748 41 90 48 92 107 782 2173 706 21 173 677 198 108 232 925 66 1531 42 99 3387 125 146 64 33 133 69 140
leaf_count=51 4222 134 20748 41 90 48 92 107 782 2173 706 21 173 677 198 108 232 925 66 1531 42 99 3387 125 146 64 33 133 69 140
internal_value=0.00254302 -0.00540165 0.00372954 0.00157313 -0.00380154 -0.010419 -0.0106164 -0.0214172 0.00196358 -0.000312756 -0.00363575 -0.0165569 -0.0159239 -0.0021185 -0.0102968 -0.00540189 -0.0225 -0.00347291 -0.0239286 -0.000266666 -0.00164336 -0.00915441 0.00304112 0.00210145 -0.0131102 -0.0284783 -0.0293434 -0.00233333 -0.00155977 -0.00456938
internal_weight=37363 4855 32508 11760 4414 895 365 441 11395 3661 1488 334 552 3519 219 1269 280 1015 140 2250 1573 272 7734 4347 254 115 99 225 343 209
internal_count=37363 4855 32508 11760 4414 895 365 441 11395 3661 1488 334 552 3519 219 1269 280 1015 140 2250 1573 272 7734 4347 254 115 99 225 343 209
is_linear=0
shrinkage=0.05


Tree=32
num_leaves=31
num_cat=0
split_feature=4 4 4 5 0 4 7 3 1 0 7 4 1 7 3 4 0 6 6 7 7 1 7 1 3 1 6 0 6 0
split_gain=128.417 43.2994 32.8032 19.6073 18.6656 17.3839 16.2383 12.3694 9.09773 9.09477 11.4204 7.61844 7.13283 7.06082 5.54505 4.94097 4.09597 4.08076 3.89423 3.14586 2.99755 9.15596 2.94645 2.84157 6.01588 2.5695 2.56777 2.30935 2.17505 1.9039
threshold=0.65488470592465309 0.52257693429731555 0.78282411903918137 0.81799076316918906 0.37940952255126054 0.56235551158765384 14.933333333333335 1.5000000000000002 0.37940952255126048 -1.0000000180025095e-35 24.016666666666669 0.58936910830199762 0.60355339059327384 18.550000000000001 3.5000000000000004 0.49705848172959149 -0.91597561503675329 0.68747471515225123 0.5851868930973102 12.483333333333336 24.283333333333339 1.0000000180025095e-35 15.433333333333335 -0.70710678118654757 4.5000000000000009 -0.37940952255126015 0.64789003973668635 -0.91597561503675329 0.59304579066382501 0.60355339059327384
decision_type=2 2 2 2 2 2 2 2 2 2 2 2 2 2 2 2 2 2 2 2 2 2 2 2 2 2 2 2 2 2
left_child=1 12 3 8 5 14 17 19 23 10 -10 13 22 28 -3 -14 -9 -5 -16 -7 26 -22 -1 24 -2 -15 -13 -24 -6 -17
right_child=2 4 -4 6 11 7 -8 16 9 -11 -12 20 15 25 18 29 -18 -19 -20 -21 21 -23 27 -25 -26 -27 -28 -29 -30 -31
leaf_value=-0.0021151852510420052 -0.00021195937568500506 -0.001210700500546284 0.0027917610250619064 -0.00030394479008684686 -3.1360622840593152e-05 -0.00029278072639604517 -0.0001192574138547858 8.3713063952175603e-05 -0.00025903983773295606 0.00012874331802625625 0.00054525514130417195 -1.0182186529262336e-05 -0.003737118370431745 -0.00014896945668605214 -0.00056032592197903422 -0.0012869014416129921 -0.00032119478933020484 -0.00066652476418570651 -0.0015461763475588235 -0.0010704770103216082 0.00013835075734203799 -0.00049360008505045265 -0.0010714639547245821 0.00064746027011121756 0.00042917184237093847 -0.00055196000966346967 0.00024258264199446006 -0.0017629092672622722 -0.00045924518154359228 -0.00026064649019977016
leaf_weight=62 563 60 21483 36 616 120 206 259 985 1971 379 1042 61 55 32 42 1019 91 20 39 234 110 21 4923 1577 175 746 82 328 26
leaf_count=62 563 60 21483 36 616 120 206 259 985 1971 379 1042 61 55 32 42 1019 91 20 39 234 110 21 4923 1577 175 746 82 328 26
internal_value=0.0025631 -0.00476889 0.00373502 0.0014775 -0.00364058 -0.00816979 -0.0104655 -0.00669102 0.00185997 -0.000292354 -0.00343108 -0.00151845 -0.0234014 -0.00475298 -0.0271429 -0.0322093 -0.00505477 -0.0245276 -0.0151923 -0.0198428 0.000262664 -0.00401163 -0.0165152 0.00287626 0.00135514 -0.0126087 0.00108501 -0.021699 -0.00283898 -0.0229412
internal_weight=37363 5149 32214 10731 4855 1549 333 1437 10398 3335 1364 3306 294 1174 112 129 1278 127 52 159 2132 344 165 7063 2140 230 1788 103 944 68
internal_count=37363 5149 32214 10731 4855 1549 333 1437 10398 3335 1364 3306 294 1174 112 129 1278 127 52 159 2132 344 165 7063 2140 230 1788 103 944 68
is_linear=0
shrinkage=0.05


Tree=33
num_leaves=31
num_cat=0
split_feature=4 4 6 7 0 4 0 0 4 0 2 4 4 6 0 4 6 7 1 3 7 2 0 5 7 0 0 4 5 0
split_gain=115.368 46.5447 20.5275 24.9645 18.2471 12.4954 11.5355 12.7966 9.03936 8.91047 9.37511 7.6506 5.61336 5.37511 5.1206 5.55157 6.627 5.03834 4.63614 4.28411 4.26898 3.95166 6.61604 3.39931 3.02493 9.81285 3.21058 2.77745 5.54232 2.28916
threshold=0.69735589749629401 0.56235551158765384 0.75646133119323677 14.616666666666669 0.60355339059327384 0.49705848172959149 1.0000000180025095e-35 -0.91597561503675329 0.61883163840671085 -1.0000000180025095e-35 5.5000000000000009 0.60304665810160929 0.80004411234230399 0.56235551158765384 -0.91597561503675329 0.49705848172959149 0.58936910830199762 21.816666666666666 -0.37940952255126015 1.5000000000000002 18.550000000000001 5.5000000000000009 -1.0000000180025095e-35 0.64272238140562055 21.366666666666671 0.98296291314453421 0.78656609248549325 0.79238690641938481 0.84008525720285732 0.78656609248549325
decision_type=2 2 2 2 2 2 2 2 2 2 2 2 2 2 2 2 2 2 2 2 2 2 2 2 2 2 2 2 2 2
left_child=1 4 3 9 14 29 7 -3 19 10 12 17 -2 -10 -1 -16 -17 23 -19 -9 -7 -5 -23 -8 26 -26 -13 28 -4 -6
right_child=2 6 27 21 5 20 11 8 13 -11 -12 24 -14 -15 15 16 -18 18 -20 -21 -22 22 -24 -25 25 -27 -28 -29 -30 -31
